0.017884983
-0.022204533
-0.009152961
0.06903099
-0.025185043
0.024005713
-0.11295825
0.021399397
-0.005468484
0.08501409
0.032154556
-0.022837065
0.1321574
0.053363055
-0.084216885
-0.0639537
0.0055622337
0.0349009
-0.08768102
-0.0071673393
0.009628537
0.050090995
-0.034188684
-0.061168082
0.017087957
-0.021127306
0.055779174
-0.025621971
0.049137387
0.024641514
0.012806399
-0.025932154
0.0422294
-0.06133682
-0.046734072
0.101300664
0.10696314
-0.012071007
0.016359087
-0.044881538
0.06689496
-0.049820557
0.018232597
0.063110605
0.02627442
0.026045507
0.05311489
0.005419803
-0.041569155
0.06525669
0.03999809
-0.04303864
-0.080981486
-0.0074227657
0.0137631195
-0.022408515
0.07662103
0.03128664
0.05715463
-0.02671685
-0.003460743
0.006773051
-0.05800654
0.0008304854
0.009549404
-0.035867818
0.026698641
0.036502354
-0.09587349
-0.048064753
0.0047311797
0.06016324
-0.053479932
0.021518376
0.022923812
-0.019960638
-0.06268958
0.01005083
0.03620315
-0.024179377
0.0128090065
0.08065417
-0.011367059
-0.061656583
0.009880607
0.019146495
-0.012265105
0.08413519
-0.053261805
-0.048320327
-0.04033311
-0.0079175355
-0.025468014
-0.042018075
-0.05387581
-0.059643492
0.03642187
0.0008477017
-0.045600127
0.010523375
-0.0051139467
-0.01135924
-0.0052050953
-0.017108075
0.0077848695
-0.01859209
-0.028904088
-0.041535743
0.04338977
0.07829063
0.014634557
0.077988826
0.019693336
-0.05729891
0.0035620814
-0.010883659
-0.0741223
0.06757363
-0.0239947
0.04813527
0.009634459
-0.08971141
-0.02067837
0.021608727
0.0020355077
0.07025116
-0.016306685
0.012105248
0.07050641
0.007008601
-0.016138842
0.008088417
0.014555909
-0.025950186
0.008667692
0.02355551
-0.029417813
-0.04273607
0.024479734
-0.028115055
0.045174334
0.06757542
0.03328045
0.024443101
0.016591154
-0.12673399
-0.05017565
0.0346938
-0.0034089256
-0.0783439
0.038170364
-0.027116697
0.0469569
0.050223418
0.0008370727
-0.018043745
-0.006608242
-0.02320213
0.027948912
-0.034253184
0.015073698
-0.022282671
0.038294554
-0.054370563
0.0025465756
-0.03604072
0.0011835602
-0.026627718
-0.06306086
-0.02184294
-0.07990302
0.040238433
0.052715983
-0.042296104
-0.093537636
0.047385395
-0.057719443
-0.029647166
-0.065840855
0.01708563
0.04007213
0.024267007
-0.096870564
0.042331804
0.03127182
-0.02757239
0.06620456
0.02745165
0.020029018
0.023587925
-0.015117056
0.0035448787
0.0222805
-0.030736761
-0.043160595
0.06092118
0.00034847058
-0.060045347
0.007629887
-0.0069667376
0.04291774
0.0043375962
0.020204088
0.02395943
0.045502197
0.07306105
0.0014686094
0.053838193
-0.0666122
-0.05289075
-0.009519903
0.05591379
0.005049062
0.02649102
0.06609269
-0.026439153
0.026185771
0.058297176
-0.06940686
-0.04306573
0.072667874
-0.010352043
0.023825891
0.011928608
-0.025363179
0.051025998
-0.013196158
0.005300824
-0.007701997
0.024515433
-0.004291934
-0.061882187
-0.015890913
-0.0059904065
-0.0127075175
-0.11193905
-0.02185535
-0.032783568
0.073576815
-0.06848218
-0.027572267
-0.037400838
0.04670486
0.031920116
-0.02639879
-0.022569584
0.08708391
-0.122768655
0.056612734
-0.09727868
-0.06484492
0.066609584
0.05725491
-0.040276386
-0.034191314
-0.06486379
0.10927155
0.024102494
-0.012335092
-0.053067185
-0.020485159
0.020127917
-0.02811507
-0.074915886
0.061667155
0.0490243
-0.012931318
0.11600435
-0.08287835
-0.14581196
0.0030610056
0.039701942
-0.058794282
0.0033825317
-0.047753822
-0.10054029
0.0861514
0.052410014
0.024448019
-0.0727216
0.020589313
-0.10130795
-0.0112616755
-0.06225719
0.010027085
0.06925831
-0.015562063
-0.02950815
0.0059495354
-0.027291775
-0.13500787
0.054082923
0.06918168
-0.053033564
-0.071174406
-0.08707237
-0.017973358
0.006119479
0.042690378
-0.10641345
-0.0046344087
0.027194388
-0.023873568
0.017698139
0.037631456
0.01972785
0.091504835
-0.04316674
-0.06200712
0.060763575
0.008170795
0.031013673
0.033811696
-0.003929334
-0.02652312
-0.029847583
0.07220485
0.018369358
-0.055784263
0.028879903
0.026141182
0.056264065
-0.064807005
0.05183525
-0.06741738
-0.05230322
-0.0026179375
-0.030444723
0.07713389
0.0080445185
-0.122022524
-0.027821021
0.03167246
0.02723876
-0.08466888
0.13312231
0.12987831
-0.06566273
-0.09326339
-0.16780302
-0.029042773
0.012870729
0.020859472
0.061972417
-0.0077479505
-0.00516503
0.039389916
-0.05180364
-0.036603007
0.003725252
-0.04842147
0.039818216
-0.01448178
-0.014140723
0.044542737
0.04242188
0.019792078
-0.029405193
-0.056593984
-0.018127596
0.042378306
0.06330772
-0.056959674
-0.008611986
-0.068772204
-0.07464177
0.037864476
0.011762714
0.04029517
-0.13663326
0.026748903
0.04287528
-0.0023546168
-0.00070014846
-0.019044302
0.025006818
0.079320066
-0.06564979
0.03858982
-0.035521325
-0.06215985
0.019043628
-0.028560374
-0.014260201
0.044204254
0.04177742
0.03779526
-0.032826718
-0.04323811
-0.02422179
-0.06373789
0.05351023
-0.078249894
0.024946993
-0.029719142
-0.0032183847
0.064607985
0.06670345
0.04304178
-0.053581007
0.011894743
0.00991222
0.09679554
0.043388255
-0.089655474
-0.12862714
-0.008781208
-0.023681337
-0.06690945
-0.06983667
0.0673445
-0.0065773674
-0.071992114
-0.022836875
-0.04460455
-0.044020656
0.018937694
-0.01788841
-0.04945058
0.04176564
0.06905115
0.002331796
-0.050878342
0.05109767
0.045898627
-0.03883035
-0.021181805
0.04487644
0.03513135
0.010647364
-0.056364093
-0.029592207
0.021609535
-0.05435179
-0.037452716
0.0014767579
0.0731223
-0.054403212
-0.037753284
0.08266144
-0.0045906636
-0.033435524
0.027604144
0.043478254
-0.028233448
-0.015351457
0.017447552
0.02020145
-0.035047207
-0.020175047
0.042768355
0.066780865
-0.004435426
0.03010182
0.008608897
-0.020007905
0.024767462
-0.0390613
0.018680468
-0.013224998
0.005554132
-0.065932795
0.014651754
-0.05375511
0.05281048
0.0024622262
0.012196522
0.05277412
-0.019803617
0.062471665
-0.16412151
-0.0064827786
0.0022431025
-0.0059362953
-0.110867955
-0.0569294
0.1925882
-0.13582474
0.04000719
-0.173335
0.012334228
0.038233776
-0.024667973
0.015745258
0.05313086
-0.015609815
0.05265951
-0.03474324
-0.0442934
-0.03796072
-0.048161298
-0.04972595
0.036157515
-0.060209457
0.016282456
-0.13132004
0.12856911
-0.07106167
0.07073796
0.02176178
0.043997575
-0.043239806
0.013139696
0.01632034
-0.06650949
0.05424434
0.08667115
-0.076982625
-0.041775838
0.043810684
0.0024326348
0.070567206
0.036956638
-0.058443666
0.0100000985
-0.039769866
0.049623746
0.053559545
0.025632167
-0.15917274
0.06522654
-0.009593803
-0.0035795534
0.010698602
-0.040380035
0.01462143
0.012941965
0.021876281
0.0007960362
0.03592208
-0.018712016
0.022343287
-0.046249174
-0.03749174
-0.001456406
-0.061171975
0.026473342
-0.039432257
0.07698971
-0.061913766
0.072145134
-0.016054539
-0.060018554
-0.051055536
-0.024858102
-0.022097468
0.06789091
-0.06410796
-0.05211643
-0.0055749617
0.007277435
0.013295574
0.030818276
-0.048797134
0.00443402
-0.01695287
0.00076868816
-0.048156418
-0.0019735938
-0.040126506
0.012944613
-0.05365639
-0.023222018
0.024738466
0.0007202129
-0.07710074
0.043046825
-0.041648462
-0.009553623
0.027330454
-0.09148467
0.015354839
-0.00806027
-0.01783647
-0.034448992
-0.05127635
0.14957173
0.102555394
-0.02679559
-0.1205041
-0.028888905
0.057178665
-0.076069355
0.033699285
0.01189956
-0.04692478
0.0019731196
0.023954947
-0.03436951
-0.021688536
-0.02903483
-0.0051875454
-0.012192478
-0.04093893
0.026668193
0.016274964
0.032094628
0.07714215
-0.011831954
0.023603719
-0.009645688
0.026122697
-0.027119037
-0.066620514
-0.025519565
-0.014408681
0.055186454
0.019338029
0.06106987
0.04184806
-0.022331266
0.04517548
0.030341629
-0.04596585
-0.045433935
0.039752454
0.079460494
0.045807756
-0.046497915
-0.06227369
-0.02743775
-0.042887196
0.00078471197
-0.009706244
-0.06375366
0.014448333
0.024112096
0.051081955
-0.008839564
-0.047326244
0.03464365
0.025718292
-0.05962208
-0.067700006
-0.061535403
0.04876559
-0.041069668
0.06681924
0.023467189
0.033546314
-0.024423553
-0.018482966
0.046198893
0.14314243
-0.010340213
-0.12859109
-0.07020088
-0.04915056
0.039449144
0.020253371
-0.08779192
0.009455936
0.041607227
-0.03615253
-0.16871965
-0.11248775
0.04274689
-0.0069084074
-0.016631505
-0.043534484
-0.005842939
0.09318591
0.022716828
0.008083934
-0.031407885
-0.06609507
0.050846294
-0.10742502
-0.06426421
-0.045306575
-0.06442476
-0.038143974
0.02016092
-0.017533066
-0.025106668
-0.01430281
0.08397985
-0.017068395
-0.049411424
-0.0543074
-0.06825156
-0.02413197
-0.0469024
0.029854802
-0.06917495
0.01551296
0.036101416
-0.004432607
0.06218071
-0.013795983
0.030702109
0.014728381
0.012454177
0.003326485
-0.07743576
0.05063476
0.004474647
-0.0042719063
0.004799858
0.03125321
0.011753626
-0.009453693
0.0015683383
0.03909884
0.10576162
0.0340063
0.06437029
0.07261838
-0.016011296
-0.14751236
-0.05999149
-0.0021187237
0.054966804
0.0031513628
-0.07469292
-0.061357442
0.032563627
-0.02597455
0.08830161
0.0018398782
-0.019213865
0.037555054
-0.026307337
0.00951452
0.026789377
0.007017015
-0.086112864
-0.011484732
0.039626602
-0.040339764
-0.047295377
-0.049202498
-0.000591487
0.02980468
-0.040603627
-0.034596007
-0.037139926
-0.009693255
0.0012432775
0.008999474
-0.00029886607
0.011050879
0.023371706
0.0803335
0.0107568875
-0.03429214
0.0037479857
-0.009107072
0.027484287
-0.06597109
-0.0038263677
0.05852246
0.020658633
-0.050551753
0.00010137538
0.0005209042
-0.04932823
0.0344688
-0.045591775
0.054518733
0.048648704
-0.04094124
-0.045717113
0.034996077
-0.06309455
0.025688078
0.034789667
-0.0069311154
0.072549656
0.007188468
0.021102514
0.0324836
-0.0102641415
0.046442498
-0.039933156
0.029689435
0.0389626
-0.009929127
0.08930361
-0.038732585
-0.12539616
-0.004704866
0.009185434
0.059167713
-0.09874549
-0.05730813
0.06165067
0.024676746
0.06907441
0.07269134
-0.00014130029
0.0059036203
-0.064725295
0.0018446775
-0.003731385
0.022611937
-0.030836083
0.049851526
0.069477245
-0.079414405
-0.033569153
0.038062975
0.033950962
-0.062079877
-0.013375194
-0.04871995
-0.060382757
0.0042243474
-0.03425898
0.031017678
-0.21082793
-0.03944844
-0.140582
-0.004920432
0.013186396
0.037095495
0.081313744
-0.072810315
0.05936227
-0.116608895
0.013107134
-0.07165921
-0.02801181
0.027068272
-0.06490034
-0.0013960525
0.015129768
0.052543487
-0.020187737
-0.053070307
0.033098742
0.020279769
0.027192289
-0.0043019964
-0.07977864
-0.084393956
0.007353148
-0.03715542
0.012079898
-0.052445464
0.023821086
-0.021870758
-0.0019730486
-0.00826723
0.025179662
-0.0480055
-0.15667023
0.0044187163
0.016015632
-0.06999291
0.0189644
-0.05608385
0.022673719
0.043236732
-0.057507887
-0.030640187
-0.008865379
-0.03800675
-0.028605048
0.0071972017
0.035836983
-0.0671727
-0.043040507
-0.026131477
0.04071739
0.041457
0.008549495
0.041536625
-0.011747946
-0.037250355
-0.035774205
0.023769582
0.04326872
0.00039585284
-0.0070104618
0.030569455
-0.0370263
-0.09745029
0.03321065
0.0039623347
-0.009056434
-0.11116075
0.05165509
0.030722488
-0.07345465
-0.10424044
0.06417965
-0.0454994
0.042584263
0.041805547
-0.111769006
0.06930171
-0.046409246
0.05286732
-0.015467502
-0.12593184
-0.01123137
0.027915077
0.06951819
0.06950631
-0.04871587
0.0059990603
-0.063825555
-0.032319296
0.08499878
0.021267071
-0.030958593
0.06348505
-0.10525213
-0.16105165
-0.048624355
-0.08524198
0.048242126
-0.031468745
-0.040027566
-0.05884913
0.014239027
-0.0069293096
0.025484176
0.0055422354
0.038656536
-0.008125287
0.02759264
-0.0023280054
0.021745253
0.051967636
0.0048490227
-0.057645485
-0.019048614
-0.084329955
-0.075858146
-0.10829854
0.09426564
-0.022646561
-0.015997268
-0.07441357
-0.0012331484
-0.046333637
-0.018988378
0.06383891
-0.06338924
-0.013969976
-0.0030896408
-0.061900366
-0.0329539
-0.030770728
0.007993911
-0.04293987
-0.032865405
0.0058471193
0.057202436
0.0064357235
-0.036935836
-0.012749151
0.0014865348
0.0335287
-0.027866334
-0.023479585
-0.004218193
-0.0033615595
-0.013402902
-0.006446852
0.0262032
-0.023598071
-0.065603934
-0.028929792
0.010274259
-0.022539787
-0.025394658
0.03936222
-0.11860376
0.03279351
-0.16577949
-0.036819216
0.13244948
-0.19006209
0.033925623
0.021879438
0.06428758
-0.3343446
0.010271196
-0.08452844
-0.012432899
0.06958939
-0.09028891
0.016788932
-0.07445752
0.04296375
0.045619253
0.01814156
-0.03078976
0.0015781585
0.04087156
-0.010880055
0.03392811
-0.0042412104
-0.018223187
-0.0067786537
0.010162864
-0.010283913
-0.032010306
-0.02430604
0.012703019
-0.00047139343
-0.07820582
-0.014585425
-0.066466525
0.0289334
0.016955674
0.04149905
-0.014156649
-0.020690586
0.05186655
0.060334258
-0.014054566
0.0076484815
0.05585558
0.047370356
-0.04230405
-0.0019694425
-0.060166582
0.024587901
-0.059501376
0.07018726
0.016387554
0.005040634
-0.05147199
0.09191823
-0.0059320326
-0.08565239
-0.016292756
-0.03448885
0.0010223597
-0.010781172
0.0077329637
0.0023983687
-0.0051555666
0.06986338
-0.07996082
0.022518592
-0.05560047
-0.020096434
0.182983
0.1044698
-0.05621937
-0.29260716
-0.11728085
-0.016398093
0.008367837
0.0252771
-0.059542824
0.031286847
0.050660796
-0.06147612
-0.035235688
-0.06283191
0.096574694
0.0037271623
-0.01013727
-0.07534324
-0.039765835
-0.04680407
-0.048595153
0.062308323
-0.05111625
0.06625037
-0.06797441
-0.03714244
-0.04376095
0.055208623
-0.065183975
0.03175086
-0.04119132
-0.058640976
0.03081941
-0.021433689
0.08366599
0.020864429
-0.0036596314
0.00041471064
-0.0035580741
-0.011411417
0.033608243
-0.02693636
0.01540091
0.05389971
-0.022142852
0.05285844
0.036765996
0.041278444
0.016296363
-0.04750888
0.049488746
0.06110683
0.022928938
-0.019888483
-0.023602588
0.074230686
0.030717984
-0.040291984
0.021469448
-0.052851837
0.003582037
-0.019459197
0.012750851
0.04786679
-0.063279755
-0.058383465
-0.00032244698
0.033571895
-0.007105419
-0.10010031
-0.09581438
-0.14666897
0.080530144
0.0352178
0.14561135
-0.012196149
0.014246378
-0.06335141
0.0060082506
0.012768141
-0.030094
-0.03102373
-0.015081363
0.042626686
-0.044246446
0.04984602
-0.02901707
-0.0016500851
-0.010438078
-0.016872786
0.054774586
0.022948662
-0.10004529
-0.0044994988
0.015692357
-0.07224452
0.07932637
0.04289178
0.03775486
0.0016134342
-0.060700856
-0.033562254
-0.036421098
-0.035281956
0.011411378
-0.039630435
0.02392516
0.060158912
-0.13461538
0.08588149
0.06424585
-0.024371933
0.020238334
-0.019448664
-0.01993102
-0.019420667
0.014485849
-0.080617316
-0.04632027
0.0051506613
-0.02088732
0.040247235
-0.05471503
-0.014626003
0.06117402
0.07542531
-0.011976952
0.03553623
0.0019210584
-0.0909544
-0.0005036667
-0.0012526183
-0.07926772
-0.07321638
-0.045380455
-0.0055712434
-0.021491768
0.13221253
0.031964846
0.000110574045
0.04964724
-0.049244065
0.007990986
-0.03938097
-0.026655428
-0.0091646835
0.044360764
-0.08254513
-0.02382834
-0.012509909
0.021064898
0.026836354
0.018466458
-0.032386262
0.061598804
-0.08352312
0.031585008
0.011293121
-0.007991325
0.023553867
-0.049958754
0.03113347
-0.04221303
-0.005546186
-0.046831153
-0.058358777
0.011142253
0.08833165
0.060190186
-0.05589663
-0.104915515
0.03021546
-0.010055997
-0.02149374
0.003958315
0.06697488
-0.053115565
-0.04851497
0.030264782
0.04315399
-0.009075706
-0.05584803
-0.008911598
-0.047424022
-0.008517364
0.02882633
-0.043944474
0.013542136
-0.12040845
0.04724168
-0.0027613596
0.066473864
0.08336113
0.04243168
-0.139912
0.07549627
-0.04364934
-0.21972524
-0.052596107
0.0038771091
-0.0727531
-0.010260074
-0.0021165598
-0.019233232
-0.012698606
0.011242769
0.028485065
-0.100885496
-0.014528775
0.045548595
-0.024495617
-0.028700434
0.14267556
-0.025144523
0.00040681742
0.04869123
-0.025355441
-0.28224877
-0.07425441
0.008557236
-0.042704407
0.0644014
-0.047663387
0.004721292
-0.10188289
0.060448218
0.058256734
0.06601093
-0.036420684
0.062063705
0.017627312
-0.033294603
-0.003489647
-0.04296708
0.05627048
0.022142712
0.011024298
-0.033423115
-0.069751434
-0.05756957
0.005747348
0.1087123
-0.10769983
-0.028875867
-0.073295675
-0.047676336
-0.05851606
0.16756742
0.14604227
0.06856344
-0.034867387
0.01784113
-0.16985948
0.14745831
-0.07427739
0.1669774
-0.1702686
0.043795183
-0.038000204
-0.0034613668
-0.0532104
0.031543523
0.18207099
-0.0062938216
0.08270563
-0.00406591
-0.061187863
-0.114041194
0.030872397
0.07896651
-0.044199355
-0.0497905
0.108552665
0.017796308
-0.00010451045
0.026764935
-0.0269061
-0.11848088
0.00037647213
0.044702757
-0.04056097
-0.016891314
-0.02607036
0.073523894
0.003768594
-0.0029088864
-0.0016822321
0.055785116
-0.015800668
0.022056425
-0.051942308
0.061332226
0.034793794
0.0023174598
-0.00024529672
-0.093113355
0.01839376
0.015182075
-0.010237035
0.09078321
-0.0090703545
0.0034052075
0.09304384
-0.026329348
-0.009798819
0.020935418
0.0008247513
-0.08883622
0.06329657
-0.02058927
0.050177608
-0.050429516
-0.16050273
-0.0028831162
0.07263854
-0.015247325
-0.010541365
0.041518234
-0.005823703
-0.103040576
0.05635498
-0.013673194
-0.054719858
0.033335
-0.048910454
0.060311027
0.021090409
0.037466783
-0.07604384
-0.08063434
0.00065194344
-0.01615395
0.035737853
-0.0035624178
-0.0445751
0.033032432
0.053299833
0.0007062837
-0.009604219
-0.08186054
0.010220735
-0.0020849695
-0.041791104
0.014311772
-0.07288254
-0.0002920046
0.06870982
0.08053401
0.0285342
-0.0012932253
0.031856213
0.035525866
0.0032924581
-0.04198641
-0.07784804
0.053157542
0.018354194
-0.006671394
0.028008262
-0.014528301
-0.0028980477
-0.095804915
0.06373086
-0.009070563
-0.0073030675
-0.04746506
0.050134063
0.0726371
-0.01132801
-0.029434057
0.028764209
-0.0034682355
-0.07871613
-0.0150267705
-0.034748342
0.014025992
-0.021146154
-0.014185485
0.031354904
-0.0590368
-0.048493017
-0.006007178
-0.16016059
0.0022531848
-0.046385106
0.06151997
0.030918311
0.073397346
0.000739185
-0.005032349
-0.08798569
-0.0025697812
0.056393567
-0.005525956
0.0014343703
-0.056811307
0.009728737
-0.09260427
0.00030163044
0.078686744
0.020788172
-0.036298662
-0.013815547
0.041744795
0.02342788
0.016262433
-0.057539377
0.0016125
-0.09292031
0.064534485
-0.092447564
-0.16606806
-0.028021254
0.06757017
0.10421732
-0.16899578
-0.022464048
-0.15441626
0.05926193
0.06474366
-0.053535677
0.0706482
0.02793025
0.0034749566
0.005550998
-0.03463416
0.03579816
0.0021242262
0.045647573
0.09850193
0.01852191
-0.012317941
-0.051705394
-0.065949984
-0.024140313
0.05622106
0.023045562
-0.021877471
0.01666655
-0.06714093
-0.008687005
0.07543519
-0.028999628
0.017895162
-0.0913792
0.025553051
0.06590027
-0.0076124114
0.006518849
0.008490952
0.053066723
0.019876765
-0.03772693
-0.011712515
-0.021458557
-0.013740074
-7.703926e-05
-0.02208658
-0.032463875
0.014962561
-0.057671625
-0.060453646
0.03666949
0.016907286
0.080551215
-0.026523914
-0.052251
-0.039415337
-0.031427562
0.024577817
-0.06998398
0.028638562
0.06968696
-0.050208062
-0.0046330243
-0.067149214
0.013815621
0.025990615
0.030675706
0.059990812
0.073083386
-0.012290807
-0.025333866
0.049044117
0.0327646
0.016966349
0.0068226987
0.02315213
-0.020989506
0.028252276
0.050084032
-0.0045938226
0.026664678
-0.095411986
0.010814783
0.012841006
0.019178314
-0.08826253
0.043944675
-0.03273778
0.024520006
0.012197667
0.08121941
-0.042365346
-0.036499
0.015284501
-0.07763603
-0.030213881
0.081235185
0.072449245
-0.018278183
-0.0056238268
-0.05071375
0.0403732
0.016468054
-0.063182004
0.011487809
-0.0079217125
-0.009509319
0.028402245
-0.05276279
-0.040497094
-0.006746863
0.06103835
0.07138278
-0.0430626
-0.054410744
-0.038309477
0.0076329308
-0.08919691
0.009659945
-0.10051359
-0.0059353528
0.007994337
0.043351945
-0.050367724
0.04520177
0.11076097
-0.0683622
0.114664845
-0.04796486
-0.1166617
0.042848576
-0.027116016
0.07994686
-0.028767113
0.00374873
-0.104648456
-0.020953137
0.045543846
-0.03169453
0.062502384
-0.08606195
-0.014140705
0.015781125
-0.015068293
0.0152663905
0.02491508
-0.0035533423
0.06167969
0.002058661
-0.056106538
-0.060026728
0.0031742628
-0.0058550313
0.027766032
-0.052370433
0.023451349
-0.05943201
0.07827908
-0.06785943
0.021916876
0.14721836
-0.17435578
0.12271898
-0.19064164
-0.012616699
-0.0738869
-0.022836825
-0.069622904
0.028438682
0.09416919
-0.14501835
-0.05698561
-0.009170724
0.0114894025
-0.023528017
-0.010271866
-0.0342042
-0.003439712
-0.009809148
-0.035982873
-0.051916126
0.047754027
-0.04545855
0.008633721
-0.052307017
0.07041109
0.013665647
-0.08650707
-0.007628285
0.042539466
-0.0852011
-0.04320123
0.026304752
0.035013102
0.07924579
0.06479564
0.0434279
0.013305588
0.045673046
0.0023789194
-0.026494214
0.00549979
0.000509988
-0.023629637
-0.041917697
0.07828181
0.01923014
-0.0095751565
0.022082238
0.054058522
0.0047506806
-0.05540792
-0.08939313
-0.0063003683
-0.031448122
-0.019701462
-0.037142713
0.038343426
0.055374704
0.042109936
0.0075720805
-0.037717726
-0.0077635087
0.0043709446
0.06169243
0.062065635
-0.0389937
-0.091217555
0.005474381
0.0439994
-0.034927014
-0.10254856
-0.12898192
0.05927751
0.025826596
-0.10544026
-0.037481427
-0.032595452
-0.03913273
0.06827956
-0.046567373
-0.10515574
-0.014824689
0.054304935
0.010286643
-0.092550874
-0.058327034
-0.05068298
-0.031755365
-0.01825799
0.006292341
0.049549446
-0.021972574
0.037344202
0.0147727495
0.0578425
0.028538596
-0.02595537
-0.05609521
0.05080355
0.036669616
-0.023776665
0.061696757
-0.05972979
-0.03358979
-0.026431564
0.022518318
0.05083709
-0.020520894
0.05300123
-0.05353406
-0.07090684
-0.043384276
-0.005318081
0.0027873586
0.049251813
-0.057146415
0.018408757
-0.08015987
0.07431576
0.027973363
0.023860482
-0.098752536
-0.005988925
-0.00030310507
-0.023903023
-0.010862659
0.031850908
0.06296068
0.02158271
0.009572871
-0.0474165
-0.0018006372
0.015717141
-0.03123418
-0.024672877
0.043390777
0.06884557
-0.02913308
-0.10679569
0.10204722
0.011375656
0.10343637
-0.10247476
-0.047334697
-0.056061566
0.015731348
-0.028086048
-0.048896022
0.06576933
-0.057767548
-0.043128405
-0.061093666
0.008414307
0.037363105
0.04036936
0.06551438
-0.02226184
0.026132144
-0.030681532
-0.012740218
0.025915505
0.003670947
-0.06860061
0.05928502
0.03964306
-0.060676806
0.0009853824
-0.014812827
-0.097848654
0.06047745
0.04319853
-0.02331567
-0.067012355
0.0003919805
-0.039765805
-0.039864566
-0.008005571
-0.056802504
0.063060105
0.030262474
0.06400455
-0.039214347
0.043694325
-0.017450023
-0.05557717
0.0009905484
0.09285717
0.001426576
0.0028696004
0.055602916
-0.05685267
0.03156676
0.021963386
-0.050842613
-0.033426665
0.04629068
-0.0011178558
-0.03601706
-0.025656667
-0.07370507
0.04339858
-0.02751006
0.007842602
0.05758454
0.002971802
-0.014901748
0.06172861
-0.038704414
0.019196207
-0.056624524
0.038903564
-0.0015291098
-0.08348993
0.02352623
-0.061302688
-0.009665142
-0.045770228
0.0040351655
0.005780892
-0.014386777
-0.030099148
0.0653344
-0.037100405
0.041543353
0.07882268
-0.052041925
0.036529835
-0.029473836
0.018547853
-0.08289341
0.008364193
0.057146758
-0.023001533
-0.034325484
0.046090726
-0.050854176
0.05485413
0.028594423
-0.00964571
0.07043042
-0.0056840475
-0.022696989
-0.003165941
-0.024133101
-0.12155379
-0.039603475
0.031115517
-0.03809722
-0.038279504
-0.029934606
-0.063545436
0.016621193
-0.05059451
0.010257144
0.03386899
-0.12811962
-0.085550144
0.050887894
0.13410845
0.031776175
-0.035429176
0.01918867
-0.0440793
-0.035625353
-0.37454292
0.041541386
0.04779797
0.023738485
-0.0171978
0.025471848
-0.048503388
0.068244636
0.019910024
0.014413808
0.061860185
0.02221074
0.103784874
0.02916287
0.032771382
0.09925311
-0.06738922
0.009753057
0.0043691914
-0.108101115
-0.07357793
0.0047893394
0.01948833
0.044066172
0.01223713
-0.02386923
0.052135978
-0.04509334
-0.016214697
0.014346241
-0.014057686
0.0019104484
0.055784293
0.047857113
0.025752198
0.031173283
-0.00863117
-0.024443587
0.020092601
-0.06403476
-0.040221173
-0.09677468
0.0169879
-0.075562574
0.020687401
-0.09248268
0.13954417
-0.06349522
-0.042126913
-0.10243943
0.024062749
0.08330384
0.093736
0.009435506
-0.06585977
-0.113704495
0.020208715
-0.052761953
-0.07627999
-0.052798163
0.042597104
0.02006131
-0.008614388
0.012194268
-0.028986374
0.12673347
-0.059245538
-0.017309837
0.05602522
0.029947322
-0.07087753
0.02711492
0.083385825
-0.025332987
-0.15762392
0.08876906
0.063908
0.0027089731
-0.11974776
0.078482345
-0.13814497
0.03404448
-0.008605644
0.035575364
-0.054159716
-0.013278243
-0.017254928
-0.009256281
0.056754876
-0.049932014
0.03088402
-0.012432257
0.073072836
-0.038822506
0.019199401
-0.056423582
-0.0205416
-0.060028527
-0.08410828
0.03968547
-0.004883362
0.047051135
0.032169975
-0.004872092
-0.02079161
-0.024458809
-0.022471827
0.012848875
-0.0067150923
-0.02557441
-0.0190941
-0.032320283
0.03568479
-0.01511281
-0.05480886
0.0063994625
-0.025331201
0.11193107
-0.06506565
0.023149457
0.023458771
-0.03428847
-0.0823529
-0.029659353
0.05230004
-0.22099176
0.046359222
0.0073144203
0.06007875
0.058357086
0.046247132
0.044439297
0.0371144
-0.038698953
0.05118159
-0.06265589
0.035560187
-0.046942644
-0.03718746
-0.017856546
0.030292857
-0.033238884
0.031139644
-0.026955249
-0.051825702
0.014863314
0.069793135
-0.023806907
-0.04419178
0.012499905
0.03952744
0.010109557
-0.06901506
-0.025829775
-0.044535186
-0.036262356
0.017047428
-0.076107495
-0.009898154
-0.038827352
0.033402026
-0.090113245
0.054903198
-0.008059697
-0.07468505
0.100046024
0.08507015
-0.04340072
0.0024848664
-0.024759166
-0.0407499
-0.03488036
0.028758181
-0.03266708
0.042085957
-0.08576651
0.059337143
-0.016764896
0.04430153
0.036462344
-0.039380714
-0.01684803
-0.008354352
0.044040434
0.030481756
-0.14277847
0.04010063
0.036004078
0.016588198
0.06826685
0.02816116
-0.08821614
0.015591589
-0.052371405
-0.018775584
0.051301394
0.0889689
-0.016029343
-0.012936787
0.011564138
-0.007888101
0.064093456
0.0751425
-0.03729267
0.02766607
-0.07909911
0.01912438
0.0400013
-0.016387247
0.040634032
0.04290449
-0.02277208
0.07878846
-0.18809016
0.057274684
0.061594866
-0.038686626
0.032770086
0.027004639
0.04018598
-0.12231545
0.042756103
0.015060064
-0.04260894
0.009747839
-0.04464296
-0.059296098
-0.010285118
-0.07335486
0.059383642
0.038187455
-0.003765507
0.076681525
0.041066702
0.051138394
-0.032416746
-0.0074914745
0.0019407177
-0.09758256
-0.04927677
-0.057162706
0.01877968
-0.05930885
-0.008779079
0.016397335
-0.08887951
-0.06454782
-0.030934446
0.020298358
0.02232756
0.08689128
0.03726134
-0.0007413518
-0.045602046
-0.005649345
-0.07893792
-0.046068363
-0.021828216
-0.035781506
0.055594705
0.050176274
-0.026003849
-0.004097501
0.014115273
-0.056213297
0.09649275
0.10753344
0.015076614
0.0104231015
-0.06181973
-0.0155381095
0.040291768
0.023833195
-0.041243438
-0.061719917
-0.027260812
0.091147415
0.07107365
-0.012301938
-0.0029817834
0.015841642
-0.053883266
0.028639935
-0.060682487
-0.054800596
0.05105023
-0.0020566625
-0.024162317
-0.00706564
-0.0296841
-0.01673692
-0.039202258
0.004059827
0.05871499
-0.04771263
0.07079923
-0.08864319
0.042546555
-0.010987678
0.04225622
-0.051385913
0.06446575
-0.042425685
-0.028018424
0.043576695
0.04753193
0.0012102539
-0.112791896
-0.05044051
0.03329628
0.04940881
0.03885542
-0.01600752
-0.032357886
-0.042499054
-0.0098809395
0.029447734
-0.011462373
0.047728132
-0.032751504
0.009663379
0.020262118
0.08066904
-0.026753299
-0.09522487
0.058681693
0.038215376
0.042700812
-0.02699877
-0.01735776
0.034966297
-0.02386839
0.028608559
-0.018610599
0.041352876
0.048342176
0.0356751
0.06818802
-0.05065631
-0.03168596
-0.05619116
0.02574568
0.076740764
-0.057025187
-0.10760435
0.12443471
-0.031063262
0.0053122942
-0.13419741
0.07457769
0.026456883
-0.017551962
0.054109484
-0.02240178
0.0319537
-0.01592676
0.015505551
0.011723039
-0.04088287
-0.015906846
0.044311814
-0.015084861
-0.0136234835
-0.032678057
-0.047358703
-0.02513114
0.038865104
-0.054846644
-0.08254162
0.042647123
-0.010125762
-0.088904105
0.10413397
-0.07443418
0.060086194
0.16267613
-0.022697723
-0.025136815
0.011399434
0.03734729
-0.11470141
0.017819129
-0.044182103
0.0217861
0.08112885
-0.0899314
0.040844865
0.035622448
0.005390029
-0.066624746
0.03898924
-0.05400043
-0.04850741
0.03378475
-0.04459647
-0.007040657
-0.008274082
-0.009157645
0.04787053
0.02276434
0.09853338
-0.0198707
-0.03063814
-0.09645187
0.041945565
-0.093545355
0.03149562
0.07226003
0.0066406904
-0.029302264
0.07418919
0.016850553
-0.026425412
0.004303501
-0.016548915
-0.047760867
-0.040599752
0.02622162
-0.01422595
0.011297754
-0.0057307025
0.042180177
-0.13378292
0.09246074
-0.06571643
-0.03787589
-0.058098666
-0.036671832
0.009574673
0.08402472
0.011570738
0.032472935
-0.037316736
-0.051241856
0.056982394
-0.074659035
0.061131086
-0.07075489
0.045534607
0.007574705
0.03975205
-0.021839375
0.015534794
-0.014701331
0.0749539
-0.19692297
0.050895296
-0.16809164
-0.056452718
-0.047041308
-0.02549984
0.04037577
-0.06984811
0.070672005
0.095683865
-0.1306433
-0.074103504
0.04869963
0.018034713
-0.013824864
0.09170488
-0.016109109
-0.027676241
0.027086986
0.020055497
-0.017980393
0.05194512
-0.09092016
0.056013454
0.018007088
0.093492374
0.017515015
0.00047766612
0.08499797
-0.021295067
-0.013416203
0.04774194
0.023177348
-0.07520117
0.029637752
-0.06371752
0.042815827
0.089779675
-0.02224917
-0.08541345
-0.030204693
-0.03162872
0.04835125
-0.0273197
0.034811396
0.06918686
0.025388144
-0.047431573
-0.061297465
0.04259656
-0.07051384
-0.0031902862
-0.05184087
0.04358321
-0.03568682
0.036222704
-0.03514734
-0.010261846
0.026456043
-0.019477125
-0.070279785
-0.00021131877
0.059284214
-0.03919768
0.038147856
-0.02446611
-0.036029894
0.06437431
-0.07445088
0.022708558
0.111509554
-0.047808167
0.002520692
-0.0025725707
-0.022692244
-0.035781927
0.0344134
-0.06789374
0.03736038
-0.0064307633
0.0391601
-0.013614295
-0.092011094
-0.044573437
-0.03650874
-0.013468346
-0.025667094
-0.030764168
0.004183672
0.059083868
-0.001671001
-0.011979137
0.065646976
-0.08762937
0.046675116
-0.01412402
-0.10123492
0.0211455
-0.16256085
-0.030261822
0.07318769
0.07361674
0.07303414
-0.027844388
-0.031398356
-0.04691123
0.010223305
0.014711832
0.04859769
0.116733745
-0.051570203
0.03540056
-0.09173095
0.03599527
-0.040955506
0.02842055
0.053720336
0.017418362
-0.03965434
-0.056010436
0.013915123
0.014128118
0.025041869
-0.019816225
-0.04291775
0.030713202
-0.053244878
0.0033513207
-0.065915
-0.04043408
0.027474247
0.06875269
0.02167352
-0.01661176
0.041187923
-0.06968491
-0.03453375
-0.042091765
-0.05724955
0.06116021
-0.018257968
0.03243586
-0.06508396
-0.08050762
0.024000987
-0.05345804
-0.047082
0.0072883205
-0.050645925
0.034417976
0.07017055
-0.027458465
-0.04246723
-0.042511813
0.09031911
0.025687791
0.053734392
-0.039441776
-0.04480886
0.020222465
0.0026634983
0.03211075
0.03363473
0.038752567
-0.005625299
-0.008510086
-0.023473
0.07505778
0.05591457
0.010894086
0.076562256
0.038793452
-0.022113124
-0.017992029
-0.017716644
-0.11230374
-0.02476144
-0.021242207
0.009051992
0.018756213
-0.019349284
-0.014524384
-0.005776107
-0.039437048
0.058477104
0.04296458
-0.1078745
-0.0043594916
0.049924795
0.05923938
-0.07636571
-0.08005066
0.012803279
-0.20772874
-0.0012706559
-0.022461245
0.05815219
-0.033728752
0.05398708
-0.008221568
0.032065872
-0.047896493
0.04982603
-0.004038759
-0.010969246
-0.0035987112
-0.019180082
0.09559822
0.04176628
-0.023013357
0.09046171
-0.031917892
0.02049526
0.029956004
0.024974795
-0.028025953
-0.0051619373
-0.05165608
0.020242503
0.043740258
-0.007426998
-0.0030159326
-0.077113055
0.00039433356
0.04236635
0.08563839
0.040710513
-0.045238893
0.033481445
-0.004311902
0.08188653
-0.080581814
-0.08423274
-0.05290103
0.02253411
-0.048877086
-0.107024975
0.025769299
-0.1710745
-0.18021792
-0.019012759
0.14207913
-0.04926614
0.014617024
0.102926835
-0.11952627
-0.03859878
-0.05789763
-0.08843259
-0.14530201
-0.10665996
0.12741151
0.010929806
-0.017949391
-0.020576946
-0.07262332
-0.021959864
0.047584184
0.034937702
0.009275403
0.0042135473
-0.111140914
0.04579657
-0.022184506
-0.09124304
0.06854343
-0.05261986
-0.03359548
0.012308219
-0.027967064
0.07568125
-0.057970636
0.077363595
-0.04545039
0.056187797
-0.16538274
0.05244887
-0.033296958
0.012556766
-0.031576745
0.011771746
0.084487446
0.038048387
-0.012264914
-0.00082676933
0.039380252
0.017589485
0.031879142
0.03321184
-0.0140825575
-0.024917213
0.03509195
-0.07623425
-0.07872261
-0.047541536
0.0043526627
0.009533509
-0.0075503546
0.060607437
0.01718365
0.028154695
-0.045501266
-0.009777127
-0.047731094
0.04732309
0.006615947
-0.04291421
-0.04613031
0.0024451076
-0.009631464
-0.06861038
-0.015825035
0.07151111
0.039159257
0.011797556
-0.04929713
-0.0405953
-0.09370622
0.06565342
0.031358
-0.10380516
-0.036482953
0.022893524
-0.05455973
-0.029504573
0.018410567
0.04235184
-0.011777258
-0.048913155
0.031349875
0.037447885
0.022527928
-0.06763957
0.018803949
-0.029379176
-0.03394853
-0.0371674
-0.07327061
0.021937825
-0.015503049
0.03386286
-0.027108518
-0.04830085
-0.05232597
0.03463476
-0.0041037747
0.02932731
0.021064006
-0.0050321026
0.0049014203
-0.020003293
-0.054147094
-0.0014205026
0.0010489926
-0.018710556
0.01692374
-0.036339305
0.029791323
-0.1364279
-0.08790015
0.09751722
0.10647291
-0.022301104
0.005024066
-0.05383611
0.032846194
0.043322287
-0.013720953
0.030691646
0.07632193
-0.06366418
0.06344101
-0.03953788
-0.029718373
-0.048634976
-0.03547546
-0.023764258
-0.043877557
-0.050347317
-0.040495563
-0.13057296
0.011328583
0.056939512
-0.027765553
-0.017596312
-0.089056805
-0.021957777
0.043106396
-0.03523314
-0.065681145
0.1048555
-0.049892582
0.0039376053
-0.0958865
0.042776704
0.002481922
0.045622207
-0.05619744
-0.062401067
-0.012946289
0.04542204
0.033474952
-0.01962574
0.052542906
0.0011169353
-0.003189926
-0.08448106
0.019505335
-0.0392714
0.052438933
-0.020041281
0.057601828
0.040259793
0.03144284
0.046774134
-0.08255543
0.04191717
-0.07131198
-0.006165338
0.08639641
-0.050738923
-0.0010718758
0.052097518
0.05785382
-0.037588786
-0.012809401
0.0834126
0.04204503
0.023958804
0.04472235
0.043684
-0.12428013
0.053687878
-0.0023764041
-0.0488619
0.054990903
-0.041444175
0.031213867
-0.036720164
-0.02270972
-0.044506207
0.05436449
-0.059215777
0.01659341
0.0061587607
-0.014380137
0.04206682
-0.058447216
0.031158227
-0.009994419
-0.042144183
-0.012945389
9.942197e-06
-0.01100361
0.07759082
0.00477718
0.050338026
0.021538679
-0.09359927
-0.118041255
0.042894557
0.031159475
0.003630501
0.06442702
-0.043524884
-0.16448493
0.052406058
0.061205976
-0.048885304
0.033796847
-0.0020787169
0.025014576
-0.019040931
-0.050819233
0.004263172
0.003243338
0.037018675
0.019515017
-0.033675913
0.0017991435
0.07890638
0.03411662
-0.027870728
0.0026475447
0.059903134
-0.03492071
0.06480262
-0.09572874
-0.018633606
-0.04223502
0.10866515
0.0038386283
-0.02731832
-0.029686674
-0.02126832
-0.0132571785
0.0029309797
0.006219729
0.039205004
0.018230038
-0.05808095
-0.09645305
-0.07616512
-0.03810248
0.042499468
0.029309148
-0.029847711
0.039517872
0.0087657375
0.0033542737
-0.004981624
0.06331752
-0.00069320743
-0.03093694
-0.009147696
-0.11067484
0.022022393
0.01165652
-0.08354029
-0.11775291
0.058421485
-0.045018066
0.063440256
-0.057344392
-0.021989862
-0.0423301
-0.013576878
0.04763342
-0.048077725
0.018709144
-0.051330082
0.098096386
-0.009870998
0.039932597
-0.031372722
-0.13285929
0.047052857
0.03629034
-0.15068437
-0.22408758
0.12989156
0.009735584
0.029790428
-0.082524486
0.066478364
-0.11017098
0.02302404
0.005798784
0.013506561
0.022884466
0.04771463
0.052989516
-0.07202369
-0.060990904
0.061637737
0.03555768
0.018117849
-0.020277275
-0.08093357
0.0057127033
-0.0018465325
0.009344404
0.039575472
-0.068048
0.029917136
0.0011281826
-0.11278017
0.030166343
-0.045211278
0.07081576
-0.0108195795
0.0034456945
-0.06226892
0.0045194137
0.014784223
-0.066227965
0.038865246
0.022236606
0.015360019
-0.021211289
0.00553924
0.00039083135
0.03178436
-0.026283357
-0.0343753
0.029554892
-0.025007494
-0.005170544
-0.08146456
0.007393981
0.0024773993
0.015200489
-0.003474349
0.052681085
0.027820325
0.05605522
-0.009161125
-0.04009523
0.021165906
0.027030552
-0.074341826
0.0498213
-0.026998311
-0.028591355
-0.014928329
0.019131834
0.115621
-0.04853618
0.10758044
0.06707075
-0.026606781
-0.13197243
-0.003922889
-0.032493282
-0.020199314
0.0759795
0.03705866
-0.05218075
-0.0028731197
0.071433924
0.028402612
-0.14372645
-0.015979618
-0.06325352
0.053161
0.060715
-0.026835077
-0.026980864
-0.05123196
-0.020345101
-0.01768544
0.056569677
0.041242756
-0.04658228
0.06504461
0.0067754225
0.005319281
-0.0532062
0.015757227
-0.11255502
-0.101728685
-0.027327396
0.016789299
-0.091041885
-0.0012141429
-0.07960081
0.11626451
-0.08260161
0.04467961
0.044875074
0.056979876
-0.08211094
0.05352289
0.041575953
0.018940143
-0.09694767
0.041182477
0.016128024
-0.04901774
0.046375483
-0.014296965
-0.026378913
0.026860578
0.060294896
0.008339935
0.044215687
0.006693746
-0.072585255
-0.01840693
0.02774302
0.035914317
-0.07697719
-0.03889039
-0.062783845
0.1250581
-0.13772094
-0.06540734
0.045982644
-0.010436707
-0.06967474
0.082894
0.048935533
0.037047826
-0.067216836
0.021545896
-0.039716814
0.03876298
-0.04318006
0.023373123
-0.013687562
-0.0026461321
0.04186429
-0.0912986
0.029484201
0.0037160453
-0.00055386155
-0.015383054
-0.035159916
0.025504036
0.020219171
-0.038855854
0.01967302
0.009324697
0.06519384
0.021494715
-0.03521401
0.014756942
0.07546006
0.0029400685
0.009522302
-0.013046495
0.0011190573
0.032512583
-0.005041031
0.002119614
-0.061756276
-0.036227785
0.053438216
0.015910143
0.028781345
-0.0021644733
0.033420853
-0.07929401
-0.0030849949
0.028057203
-0.038328797
-0.018760042
0.07435855
-0.063838586
-0.015873948
0.09833862
0.07007841
0.07361402
-0.056736663
0.017944539
0.019097636
-0.05380852
0.106744364
-0.088033035
-0.30438474
0.103086255
0.16912942
0.00939363
0.017671857
-0.062348563
-0.120175354
-0.08910289
-0.07276683
0.089695595
0.0036731332
-0.16821355
-0.033750236
-0.07722286
-0.05668076
0.08834048
-0.09266455
-0.040838927
-0.03770214
-0.059800792
0.0035002662
0.00206537
-0.045415886
-0.05334874
-0.0075905425
0.020330416
-0.03758782
-0.02053582
0.05920884
-0.039030995
-0.08361861
0.08938626
-0.026207557
-0.005339086
0.006870819
0.020831386
0.008635442
-0.040914718
-0.0017176531
0.046730176
0.06565217
0.06349224
0.043682024
0.04471281
0.063749455
-0.0051125064
-0.03694128
-0.057286564
-0.09750622
0.024432352
-0.022559213
-0.020260915
0.07692582
0.035664786
-0.0067845136
-0.02643906
-0.02084801
0.06923186
-0.0018639618
0.016496597
-0.044204082
0.063178346
0.04286757
0.020175822
0.020095775
-0.0040029995
-0.024055645
0.04796253
0.01627776
0.014388416
0.03618333
0.032801006
-0.07103452
0.0230561
-0.042286348
-0.029087553
-0.027871042
-0.0050130417
0.067259364
-0.04114596
0.005156239
0.074149534
-0.051606607
-0.025575496
0.045783766
0.040847886
0.0071920706
-0.13751915
-0.0138031645
-0.105004996
-0.003423924
0.0075265625
-0.0192111
-0.06539001
0.010893928
0.061518952
-0.05046734
0.050451458
-0.015771778
-0.051443484
-0.0067368587
-0.023663659
-0.03554154
0.06638696
0.020343894
0.05675394
0.031889364
0.024883518
-0.04008012
0.034412716
0.013295842
-0.0433396
-0.066573195
0.0032231703
-0.0053858357
0.06253032
0.04753746
0.013195156
0.014783622
-0.040037017
0.04696721
-0.04507321
0.06059632
-0.03304502
0.035423838
0.0030002068
-0.04829328
-0.011361949
-0.042811073
0.034688864
-0.041773807
-0.009918296
-0.017447256
-0.036564745
0.018592393
-0.026252361
0.017237982
-0.033540055
-0.025594816
0.10884766
0.09284359
0.01763348
-0.062178675
-0.039529443
0.005146827
-0.0035612618
-0.055021267
-0.07412612
-0.037591502
0.06426084
0.03979284
-0.04177642
-0.056639735
0.0029104354
0.008243916
-0.029344222
0.0040265787
0.0484955
0.04751002
-0.03362758
0.0142438095
0.0012004861
-0.036819063
0.06490376
0.0027552063
-0.0671669
-0.066728584
-0.075511545
-0.059583135
-0.06689613
-0.046496905
-0.00101177
0.030982876
-0.008759734
0.023137938
0.021933911
0.019946322
0.023131719
-0.033525772
0.012524891
0.008365847
0.010821187
-0.04179841
0.0025958442
0.0021943764
-0.02580445
0.011076677
0.025262352
-0.041610487
-0.015061961
-0.0010060527
-0.030772267
-0.052210882
0.048841573
0.066385284
0.029363707
-0.020033661
0.009435727
0.0071549253
-0.043050893
-0.17410558
0.06819327
0.03849466
0.061641455
0.25571972
-0.082678385
-0.158974
-0.07408217
0.061436802
0.02049796
-0.023279386
-0.052936528
0.016704138
-0.008799294
0.02955396
-5.9976468e-05
-0.0110931955
0.023413302
0.0059294715
0.03674172
0.0064745843
0.018349772
0.025010053
-0.016442081
-0.008198144
-0.0006792916
-0.026578516
0.008308094
0.014852809
-0.007859788
0.050822437
-0.032572914
0.00363752
-0.0018915713
-0.01765973
-0.032178275
0.004012775
0.038309332
0.039814048
-0.035049945
0.03808232
-0.03491035
-0.11128333
-0.028881997
0.05016617
0.061183214
0.003195614
0.04648723
0.00039594382
0.06240874
0.027048698
-0.022965249
-0.08510118
-0.031252027
-0.002831148
-0.056771908
-0.07387007
0.05989046
-0.00058607344
0.0029616822
0.017915204
0.021071138
0.00081066345
0.030174222
-0.028203238
0.040342096
-0.014521128
0.038950298
-0.03365221
-0.031716075
0.031264912
0.027710386
0.05692827
0.002197058
-0.0068708123
-0.082373776
-0.038900133
-0.053812835
-0.0038037458
0.09039343
0.058375314
-0.059842918
-0.095357046
-0.009385467
-0.034318525
0.04496637
0.00080058817
0.055760827
0.060609456
-0.04132022
-0.027805595
-0.041612428
-0.039666045
-0.0459274
-0.010055388
0.052930307
0.046454083
0.036893923
-0.11287061
-0.048967917
0.02887477
0.03524881
-0.053575825
0.0007567082
-0.037809554
0.012638532
0.08122328
0.004385537
0.04291621
0.15965593
-0.010496479
-0.05994868
-0.15962878
0.02634903
-0.08866282
-0.18152636
-0.033577166
-0.036511242
-0.047703523
-0.011061836
-0.033756163
0.020469189
-0.062071588
0.009554939
-0.036504034
0.023608493
0.0015623234
0.03424577
-0.039479245
-0.02097814
0.03142818
0.042218078
-0.029161846
0.010555859
0.046116665
0.0041836854
-0.03802929
-0.06202907
0.02161475
-0.012685539
0.016783081
0.01543263
-0.1805646
-0.023533247
0.10913277
0.038066745
-0.085118376
-0.023094004
-0.05457091
-0.03995902
-0.038486537
0.03795796
0.008796406
-0.042395506
0.069830246
0.025902633
-0.03997851
-0.0053772693
-0.019797698
-0.011928194
-0.0112082
-0.03411307
-0.026601164
0.009247662
0.0068086074
0.038222082
-0.014532217
0.06784462
-0.045423392
-0.0030832323
0.027233088
-0.09308836
-0.00022325713
0.016268052
-0.053055573
0.0155679025
0.06170324
-0.003657604
-0.028360069
0.026332451
-0.015104351
-0.023964344
-0.058777172
0.0017161885
0.018444717
0.035308134
0.0006976688
0.04033208
0.025954736
-0.090673864
-0.01322045
0.092705674
0.04138838
-0.04223817
-0.048787724
0.044550877
0.0036780816
0.022243105
0.010743738
-0.05758865
-0.04184205
-0.012989089
-0.09560057
-0.06216883
0.061510563
0.037657153
-0.04288029
-0.026443964
-0.0005001962
-0.045595884
-0.050260913
0.015940135
0.050755642
-0.05093258
-0.037986353
-0.022789307
0.033447836
-0.04661636
-0.09536741
0.044836853
0.030750476
-0.050043568
-0.0024424086
0.02599152
-0.050405428
0.061356764
-0.012555434
0.015886119
-0.040964756
-0.00079009327
-0.01774302
-0.020006174
-0.027298572
-0.036242202
0.00226639
-0.023512235
0.037506003
0.031121038
-0.05511079
-0.01839164
0.013961465
-0.07607671
0.023269204
0.042618133
-0.06885006
0.03689436
0.021660404
0.012925288
-0.004859491
0.0017221281
0.012149114
0.03961027
0.04413231
-0.0072597056
0.04173337
-0.05532189
0.066407084
-0.03200007
0.04877477
0.032062035
0.020853195
-0.022376316
-0.027399838
0.03641919
0.011408588
-0.03318357
0.052843038
-0.012263429
0.05723046
0.05537201
0.028237954
0.036115043
-0.009002812
0.13059956
-0.12711862
-0.1394204
-0.04796969
0.022131719
-0.0062635182
0.0034044734
0.018724518
-0.06936454
-0.031384792
-0.15503432
-0.0046710535
-0.063144475
-0.0020895796
-0.02331851
0.010376103
-0.01588494
-0.052011997
0.055390917
-0.07986766
-0.07539184
0.046816915
0.011629883
0.028915463
-0.004365913
0.03412525
0.083125725
0.058991194
-0.04300998
0.03265399
-0.091005616
-0.00010124913
-0.05138523
0.024414489
0.027457247
-0.002317286
-0.053330928
0.03049508
-0.023788378
-0.026467392
0.047094982
-0.02585953
0.052907415
0.0307886
-0.07858814
0.041697584
-0.077970706
-0.08629383
0.0110407155
0.07481211
0.004649464
-0.0035808538
-0.016870981
-0.07856313
0.030931551
-0.046123795
-0.02692543
-0.031840038
-0.008442586
-0.06383326
-0.031106986
-0.042259067
0.059967596
0.0022283462
-0.11678319
0.008959366
0.03051194
0.09085095
-0.050736893
-0.03851925
-0.07025275
0.07063843
0.011887657
0.030076377
0.023460723
0.054588154
0.019039584
0.027993988
0.070775345
-0.010405799
0.049218863
-0.032709975
0.01532709
-0.01960318
0.005458582
-0.08333427
-0.027418122
0.03987447
0.06780771
0.038705412
-0.035763547
0.019554982
0.05208245
0.021799408
-0.01385054
-0.046127
0.030371103
-0.0056720707
0.008453131
-0.02807219
0.057072498
-0.014040897
0.037377503
-0.004235047
0.035634063
0.04282665
-0.024356542
-0.036470644
0.0064859036
-0.062965326
-0.034091778
-0.064385794
0.033556852
-0.013011172
-0.022120282
0.03546272
0.0079450905
0.066304594
-0.005597492
-0.07877255
-0.08008985
0.00832022
-0.06883709
0.025568895
0.024927229
-0.08398249
-0.0022048801
-0.027778767
-0.04785728
-0.028291479
-0.04138152
-0.022145884
0.03980862
-0.019347496
-0.06326585
-0.13510987
0.07859922
-0.022803308
0.07411912
-0.10737999
0.02514271
-0.04763072
-0.02485457
0.056085825
-0.017761393
0.026562806
0.0035034341
-0.054424096
0.051544644
-0.062559046
0.043216944
0.040532656
0.023127595
0.013089895
0.05882795
-0.06225728
-0.044249237
0.024375388
0.01293441
-0.063883826
-0.050606925
0.023584373
0.038172472
0.015089618
0.044102985
-0.086844295
-0.07470626
-0.09049796
-0.0046124263
-0.033573866
0.09878763
0.01660397
0.014764862
-0.0037667272
-0.0076359757
0.0646816
0.018163856
0.042588644
0.0014247515
-0.05640304
-0.017634029
0.08789627
0.0018986757
-0.12289489
-0.022477798
0.030000765
0.01325753
0.019553162
0.010276315
0.02127784
-0.011300025
0.024785725
0.02204975
-0.02126354
0.0012131521
0.05792292
0.050524767
0.012829692
0.007420584
0.004543043
0.0030037824
-0.023093808
0.09123893
0.030521875
0.028332675
0.026424397
-0.058616377
0.005282269
9.711653e-05
-0.058971256
0.06091502
-0.004046234
0.034439377
0.018209225
0.0069835004
0.023887705
0.032567393
0.05302886
0.018806024
-0.06355651
0.020507183
-0.06469557
-0.0004528703
0.050063238
0.00783676
-0.0081958035
-0.009965379
0.02997104
0.011439517
0.055343486
-0.053534128
-0.02664386
0.06872967
0.0024554336
-0.07249013
0.058410875
-0.09118058
-0.061246105
0.014606778
-0.054777544
0.0819983
0.018144984
0.005808567
-0.028043538
0.04383356
-0.017617654
0.036733013
-0.047098234
0.06550399
0.049933817
-0.008327028
-0.03018739
0.026026862
-0.022032911
-0.009546721
0.030409873
0.0034580613
0.010219625
-0.03567299
0.016472997
-0.06761358
0.07654753
0.008033204
-0.11775694
0.015242097
0.0019209769
-0.040921863
0.018710637
0.09453701
-0.024599072
-0.06010399
-0.067141645
0.050587818
-0.004002999
0.0021874127
0.104625344
-0.0748287
-0.023328992
-0.02922667
0.10698869
0.09867424
0.012706383
-0.15762953
0.026594141
0.03766886
0.06469381
-0.018713066
0.015868967
0.06507419
-0.1157916
0.013449683
0.009517662
-0.044735532
-0.0307479
0.04842449
0.044611797
-0.038755883
-0.026976597
0.10362195
0.03792467
-0.008296697
0.006408129
-0.058701005
0.044817105
-0.060063004
0.037159164
0.0013006079
0.092928
-0.090166055
-0.11137163
0.019371977
0.078604564
-0.08763777
-0.057931963
0.062469758
0.013322372
0.0424833
-0.0023051088
-0.11228377
-0.02010673
0.037326276
0.10477007
-0.057348482
-0.014536863
-0.07003003
0.078584425
-0.06710239
-0.061023213
-0.008017887
-0.00888675
0.03936899
0.07907334
-0.08368489
-0.0073451144
-0.026359312
-0.04840764
0.030394949
-0.026661893
0.09815614
-0.02849191
0.035965797
-0.053050682
-0.02578906
0.0316321
0.05040962
0.066253625
-0.05512616
0.06239924
0.07157735
0.010134185
0.08112704
0.01058168
-0.012111552
-0.01710916
-0.018355193
-0.07057018
0.0147000775
-0.027141456
0.026855255
0.024360847
0.037050527
0.05678542
0.053179566
0.06807882
0.041826017
-0.038063135
-0.06868563
-0.16841865
0.08480064
0.09691272
-0.030667469
0.13962938
0.0166318
-0.09540818
0.041133676
0.0077521107
0.0493134
0.026423767
-0.13815725
-0.042511474
0.034055665
0.029938435
-0.030753022
0.0024542068
0.012011373
0.045835014
0.07250687
0.08507326
-0.025210436
-0.08492489
-0.0583766
0.04324452
0.06420638
-0.0495961
0.040408123
0.028921556
0.06707857
-0.009608396
-0.056143504
-0.00411187
-0.009675075
0.040975325
-0.07542299
0.05537924
-0.02216855
0.017998172
0.03295757
0.048691068
-0.06301995
-0.06578173
0.021568926
-0.018042421
0.012876218
0.03192164
0.025665002
0.005533458
0.11593641
0.0029290682
-0.035090305
-0.06803972
-0.04680465
0.018047556
-0.0057390924
-0.05485592
0.0018472718
-0.027021924
-0.05503186
0.04301374
0.011790358
-0.06545731
0.09884705
-0.078285
-0.047426466
0.06662509
0.07420688
0.029131321
-0.018624792
-0.043047618
-0.0022870784
-0.027337516
-0.014762612
0.06655071
0.0100247115
-0.026075386
0.025164733
-0.04440022
-0.030237522
0.04960131
-0.06873299
0.05632195
-0.052961666
-0.00727186
-0.0033387055
-0.0045281188
0.03861825
-0.05994983
-0.04065579
0.008387776
0.005113235
-0.00463377
-0.026602503
-0.06429704
-0.037180625
0.04705
0.0031439844
-0.06541133
0.037670843
-0.0073670666
0.011190643
0.04255068
-0.019022644
0.043622177
0.0006064111
-0.008594457
-0.07445089
0.031475566
-0.014004828
-0.09917155
0.05902682
-0.027902843
0.048869606
-0.07811181
0.037100956
0.056292735
0.025549188
0.028123558
-0.015515515
0.028697371
0.044348374
-0.021059625
0.045672875
0.046556097
-0.055130344
-0.032439444
0.053214267
-0.04668587
-0.046857785
-0.024246635
0.03700673
0.06942682
-0.0005148453
-0.008804562
0.011852144
-0.00951556
0.040673435
-0.12829018
-0.0009810838
-0.015630638
-0.045730386
-0.022663858
-0.11404997
0.10803472
0.056985803
-0.037623443
-0.045596004
0.045842443
-0.04426211
-0.040896367
0.062401533
0.035197936
-0.035351805
0.051389202
-0.004963294
0.008954051
0.031407632
0.020276753
-0.022233786
-0.10064769
0.03219345
-0.0001250259
0.021121971
0.042827748
0.025938021
0.015795043
-0.026337134
-0.054083254
0.021825377
0.0124234585
0.032272443
-0.08143208
0.056975566
-0.057948217
0.055215284
-0.019927787
-0.017473137
-0.047482934
0.07671631
0.008799279
-0.03216154
-0.017756755
0.04778125
0.022320647
-0.0259913
-0.021329954
-0.07743996
0.036638208
-0.0013273107
0.061909948
0.02232787
-0.015609755
-0.096152164
-0.034685507
0.02337006
0.023446806
-0.001618345
-0.014707234
-0.039768774
-0.20346259
-0.03622273
0.07146949
-0.08149536
0.021822227
0.008016558
-0.01727459
0.055306982
-0.014239356
-0.054658175
-0.035575014
0.013794148
0.004422538
-0.028184665
0.07905802
0.06211913
0.04829813
0.018775089
-0.015957888
0.034007784
-0.036693495
0.023816114
0.022360777
-0.013836259
-0.039464857
-0.008721394
0.02648342
0.060338255
-0.019543871
0.005964617
0.039169014
-0.094804846
-0.036531124
-0.058501918
-0.026657
-0.011324183
0.0027796244
0.027241971
-0.045461733
0.053846788
0.02573402
0.045567036
0.04465336
0.006327148
-0.024467045
-0.019385781
-0.0027977636
-0.006678864
-0.031355504
-0.018763604
-0.007854169
-0.05114945
-0.05388367
0.05127945
-0.024182416
-0.061216224
0.042892516
-0.0067541087
0.047309246
0.05017242
-0.040831883
-0.0036256404
0.011419671
0.07970164
0.07431991
-0.08365483
-0.04728529
0.011058834
-0.034841992
-0.07502094
-0.0023480603
0.06822319
-0.009381171
0.14224209
-0.05762752
-0.06279409
-0.06809458
0.007964777
0.00318954
0.061395176
0.05416303
-0.08999478
-0.07619187
-0.099296816
0.05837338
-0.044978403
-0.10003788
-0.043290436
0.018865248
-0.029459303
0.018675968
-0.012978735
-0.067757316
0.0011516989
0.03927901
-0.06544804
0.03852892
0.0015787395
0.029506281
0.048241284
0.04716108
-0.10509564
0.042798135
-0.13914885
0.014154568
0.059326995
-0.041018642
0.015994607
-0.030420655
-0.06278886
-0.05281145
-0.0104886405
0.025394417
-0.10391441
-0.042445615
-0.0027845518
0.078288324
-0.010187031
0.07136117
-0.018924924
-0.0825974
0.009301776
-0.042174038
-0.052197255
-0.03367742
0.06823958
0.030604307
-0.031370927
-0.05466316
-0.03873278
-0.011272701
0.0344458
-0.046432376
0.06833939
-0.024602056
0.03375675
0.05033706
-0.052667953
0.026457094
0.04156072
0.10900142
-0.02084506
0.0028921352
-0.15097618
0.12567708
-0.06903297
-0.13179731
-0.043662403
0.02039333
-0.040176876
0.06349625
0.07209207
0.029693086
0.005250549
0.011280021
-0.07059114
-0.04646013
0.03373039
0.024472306
-0.08948713
0.011844733
0.0035315081
0.04630917
0.07970171
0.08378112
-0.05885743
-0.06548585
0.0044195484
-0.04168277
0.04938222
0.032698866
0.06170535
0.012439335
0.014319932
0.07464782
0.046613395
0.06749353
0.03353416
0.040581472
-0.042214897
0.027629117
-0.040427856
-0.018557888
-0.020572668
-0.04038777
-0.020942219
0.007962729
0.004511867
0.017916908
0.016867587
0.05363326
0.037380613
-0.03932046
-0.04159572
0.082266435
-0.03433869
-0.04558942
0.042301297
0.0011180985
-0.04872143
0.0031249034
0.028046077
0.03764032
-0.041035227
0.06707435
-0.03555191
-0.030581309
0.010416617
-0.16322434
0.02863938
-0.013255457
-0.01140883
0.030296199
0.08778959
-0.040495362
0.022385886
0.049287762
0.059091285
0.045151357
-0.03517037
0.03743938
0.046015948
0.023742015
-0.00952833
-0.0031303829
-0.049789697
-0.01676816
0.0062214164
0.015971128
0.026371242
0.019426689
0.024383688
0.016888956
0.045808963
-0.04702083
-0.0015396721
-0.0074859275
0.018574065
-0.08370141
-0.02803905
-0.09385211
0.07019341
-0.008752365
0.06702612
0.038876414
-0.031497467
-0.057725344
-0.075250775
0.062275734
0.06151347
0.07205272
-0.0061294422
-0.05463918
-0.1901089
0.007716072
-0.003515622
-0.011513637
0.061861034
0.028320713
-0.069872834
0.0011546182
0.009844149
-0.035535254
0.0032887664
0.023695469
0.014385068
0.07454561
-0.03236463
-0.10538527
0.032286596
0.021075211
-0.0328148
-0.041275434
-0.045549322
-0.014388635
0.016832286
0.078376874
0.04880683
-0.07662764
-0.010943525
0.009524194
-0.0026119896
0.024033831
0.02134995
0.060324963
-0.04580727
0.035295747
0.007566477
0.021303836
0.023970183
0.11322958
-0.07722378
0.014208668
0.013711606
-0.07009372
-0.02416923
0.10056553
-0.05997612
-0.017750168
-0.017941348
0.044679027
-0.016532453
-0.04646333
-0.054898247
0.008983081
-0.03406797
0.0014843743
-0.08023206
-0.06223283
-0.10269739
0.04234451
0.016583093
0.0039971215
0.062143724
-0.09188346
-0.025211552
0.033543017
-0.04600535
0.0027460346
-0.036465
0.0054142214
0.052596986
0.030065121
0.030808512
0.02760477
0.061794706
0.00010332752
-0.08829349
-0.05878812
-0.008885553
0.012444073
0.06435917
0.0034857015
-0.12494075
0.019247422
-0.008301251
-0.038055804
-0.00011764252
0.010116811
0.011924345
-0.119318
0.04105803
0.018161751
-0.049573556
-0.025720194
0.005907577
-0.016894007
-0.033264585
-0.0022739824
-0.13195185
-0.18801397
0.03002107
-0.04036491
0.0134830475
0.06294988
0.019020772
-0.03209099
0.039256565
0.05938066
-0.08150392
-0.012967085
0.035136208
-0.03012652
-0.11903285
0.1014097
-0.03028869
-0.02826077
0.0469451
0.062880464
-0.095892385
-0.0038926327
0.10041525
0.096498065
0.0059402515
-0.015494196
-0.06348398
-0.04348116
-0.05758667
0.026902925
0.08479584
-0.020958263
-0.12335193
0.029691616
0.09336052
0.076062724
-0.02706283
0.0027163473
-0.05356268
0.043239225
0.03952035
-0.00851874
-0.025009565
0.105123386
-0.007929549
0.122312345
-0.094427265
-0.07143323
0.03918414
-0.01036301
-0.0006248923
-1.2180627e-05
-0.034449216
0.015293047
0.022693364
-0.01741422
0.022607574
-0.014237759
-0.052274324
-0.0065312902
-0.061057456
-0.054857656
0.019305276
-0.05078247
0.016957585
0.12521258
-0.08738701
-0.014570665
0.028622685
0.05810984
-0.021797877
-0.040163346
0.045709185
-0.044684656
-0.068789996
0.013821501
-0.0075571123
0.0738001
0.040806115
-0.056989234
-0.008722139
-0.07209462
-0.02850639
0.02745411
0.050246328
-0.03809267
0.024112128
0.050547186
0.0011096781
0.037846066
-0.002301329
-0.0588194
-0.0062226728
0.04933731
-0.06596282
0.0352418
0.0066668075
-0.09295393
-0.009625738
-0.028625786
0.042759493
0.07275951
-0.09645336
0.00475909
-0.050355956
0.08908332
-0.031054564
0.05201445
-0.028680988
-0.030876702
0.095523596
0.004402274
-0.14690623
-0.04216388
-0.08772637
0.038243644
0.024261674
0.050687645
-0.025297122
0.0322045
0.059858292
0.06461056
-0.015901783
-0.02417922
0.01175855
0.010458629
-0.04817646
0.081927486
0.017111992
-0.049038265
0.012085491
0.062819906
-0.07465681
0.008422526
-0.08192539
0.03973449
0.007899987
-0.02150592
0.015370415
-0.070116565
0.098025106
-0.043141957
-0.1063812
0.003707717
-0.12616265
0.0055270125
0.000212416
-0.014530975
-0.0028388517
0.06744847
-0.0050604763
0.0006679957
0.08556574
-0.076146245
0.07481998
-0.09434526
-0.0766977
-0.0011195573
0.010359107
0.049564246
0.014959466
0.020054845
-0.005081222
-0.042099714
-0.0076131783
0.098176405
-0.0027579428
0.036560647
-0.035749234
0.000774909
0.035645768
-0.03339377
-0.063479215
-0.015642587
-0.012545411
0.035999987
0.0649852
-0.018771974
-0.0649629
-0.013366285
-0.054506976
-0.095120974
-0.019800624
0.07462148
0.035331555
-0.030576784
-0.07767103
0.054853197
-0.016482439
0.05551823
0.029537307
-0.0401847
-0.019757248
-0.07081369
0.0520013
0.003679085
-0.04385959
0.030011944
-0.03005176
0.14727002
0.01894342
-0.12740958
0.00045179212
-0.005423518
-0.009557906
-0.07931843
-0.08654687
0.026800755
0.0020005403
0.017912198
-0.053052813
0.04899738
-0.09561204
0.023827616
0.00066330546
0.051365204
-0.0056967633
0.036114153
0.049285058
0.015045006
0.013960882
0.032668214
-0.057847116
-0.0012460486
-0.06893745
-0.036530882
0.021851998
-0.015025502
0.04336301
-0.05354324
-0.03980483
0.03264832
-0.10135499
0.07207897
0.0019037542
0.09023616
-0.0036418368
-0.022316415
-0.014618634
0.015157475
-0.04959617
-0.073677875
0.0068951803
0.06402102
-0.031108487
-0.038227398
0.070367314
0.043280363
0.030874474
0.050469946
0.014367072
0.013649074
-0.010374583
-0.008036296
0.037179947
-0.012127432
-0.005042525
-0.0019398176
0.035500478
-0.04792027
0.075163245
-0.037836634
0.037013955
-0.0648304
0.012123917
-0.029931692
0.017778656
0.074511066
0.046133403
-0.054174323
-0.057271097
-0.012383928
-0.0051457435
-0.004094091
0.044229336
0.021163696
-0.053908363
-0.034710247
0.07572725
-0.09040819
0.016188508
0.04438831
-0.03297333
-0.048840147
-0.06672387
0.03905912
0.06246782
0.113205604
0.00088959106
-0.045940123
0.04698339
-0.108464494
0.027560817
0.024492675
0.039043777
-0.04473321
0.082941234
0.02965451
0.028126953
0.010454931
-0.0155596705
-0.06835253
-0.041928716
-0.037075274
0.05446498
0.055145796
-0.011905848
-0.0020615084
-0.025256107
0.04961426
-0.007405007
-0.015623277
0.006088725
0.051492922
-0.02597517
0.02797122
-0.058196567
-0.04733554
0.05292154
-0.015750654
0.0014659835
-0.09205648
-0.1008737
-0.053005755
0.0149632655
0.03634949
-0.012666589
0.0691138
-0.060460776
-0.005811471
0.06475589
-0.012944358
0.11213552
0.09039383
0.08073255
-0.04632753
-0.011035824
-0.013012155
0.04341238
-0.0042592483
-0.069939114
-0.04238793
-0.018666951
0.027079687
-0.060034066
0.051433235
-0.009634648
-0.012659586
-0.069104925
0.05349908
-0.038416218
-0.027758058
-0.06604393
0.01569053
0.036768977
0.08175833
0.0021056673
-0.04947752
0.021048432
0.083422825
0.016586486
0.08035689
0.105167106
0.060759153
0.04163868
0.10430054
-0.15432255
-0.12810867
-0.016702004
-0.011269775
0.085668094
0.07857034
-0.02478031
-0.05890897
-1.3000659e-05
0.08300969
-0.028677652
-0.02051444
-0.03128343
0.021868346
-0.019106109
0.016306818
-0.046238992
-0.008551284
-0.038318545
0.05689511
0.01643282
-0.034263823
-0.020590127
-0.070356876
-0.03769407
-0.034365237
-0.13551843
-0.019342752
-0.04054944
0.09700392
-0.020748535
-0.015196692
-0.014909229
0.03558455
0.041732825
0.017657854
-0.031526823
-0.04260387
-0.047965534
-0.018168522
0.04562787
-0.011457047
-0.023922259
-0.013966593
0.058786377
0.029677669
0.025555233
-0.040388186
-0.2144968
-0.05780623
0.07255746
0.053716432
0.047828153
0.024651663
-0.0067695514
-0.079431735
0.01624155
-0.002651693
0.08694703
-0.0033033364
0.032256484
-0.015184346
-0.03652234
0.017889915
0.01745696
0.050789583
0.08190629
-0.015671602
-0.06250079
0.117763415
-0.081056446
-0.1208067
0.049342044
0.022224331
-0.035477653
0.048389077
-0.02026609
0.02398186
-0.1477019
-0.07934429
0.032554764
-0.030689454
0.033176612
0.055533115
-0.051678576
-0.05243997
-0.060749035
0.033051338
-0.032631446
-0.045468934
0.008518154
0.052714523
0.0033130741
-0.030869894
0.059223548
-0.019722037
0.006933327
-0.047516424
-0.03994763
-0.022517089
0.014985144
-0.017895574
-0.009153575
0.052029427
-0.0536939
0.0421985
-0.09283567
-0.09267356
-0.0041098488
-0.014350084
-0.021264091
0.0044598016
-0.012770267
-0.053318873
0.016513253
0.049130987
-0.056182697
-0.046377134
-0.032734837
0.028976498
-0.04632207
0.027083017
0.04841579
0.0028367199
-0.021557866
0.050721478
-0.02430163
0.016819073
-0.019654121
0.030812873
0.034733664
-0.041586187
-0.00035626398
-0.028802456
0.07107955
-0.106069036
0.018344041
0.0070268507
-0.001768195
-0.053432222
0.035177447
-0.0043434165
-0.057346284
0.02493568
0.010713366
0.042087913
-0.10461947
0.017786125
-0.001217811
-0.06204249
-0.014736098
-0.027473202
-0.038190372
-0.020036256
-0.036571037
0.03658793
-0.046475884
0.0032508483
-0.033562552
0.0784292
-0.02785251
-0.02685071
-0.08554937
0.093334146
0.046732888
-0.034449097
0.06502438
-0.033192858
0.06359738
0.024885926
-0.16058734
-0.049100813
-0.09906542
0.055606637
0.009920602
0.03435896
0.0011247789
0.048274048
-0.03906535
0.055037193
-0.07466723
0.011246747
-0.020402135
-0.008988204
-0.001103804
0.057965286
-0.033564676
0.026556794
-0.036041573
-0.052919526
0.026070738
-0.016645823
0.0014209084
-0.07074184
-0.01585991
0.07067941
0.008526327
-0.06834695
-0.053466383
-0.048823994
0.046933733
0.04236949
-0.035932302
0.030599162
-0.00095648307
-0.044701528
-0.026390722
0.02635497
-0.008167289
0.106300764
0.016019784
0.058432017
-0.092215404
-0.008287533
0.0412855
0.063086696
0.0017724691
-0.0784272
-0.052347455
-0.041391302
-0.04143386
0.06836001
0.028996754
0.018033564
-0.0028845135
-0.030534424
-0.07619501
-0.009056791
-0.061143294
0.095113166
0.035490397
-0.03409543
-0.06625423
-0.012054581
-0.07096413
-0.10774957
0.02828408
0.0064647584
-0.035035513
-0.031743474
0.044562146
0.03299883
-0.049038436
-0.039338984
0.033019345
0.022298308
0.052179325
0.018631695
0.035179757
0.000555865
-0.056801397
0.03942433
-0.07731929
-0.04228959
0.12479004
-0.01100751
0.018593803
-0.08558551
-0.08649762
0.025608523
0.013843896
-0.054043133
-0.018645097
-0.04619654
-0.053063937
0.017536195
-0.04718545
-0.04346725
0.0384781
0.026401678
0.052904923
0.039610054
0.053557977
0.07060419
0.03905455
-0.11477895
0.066323936
-0.007636403
0.048896883
0.012271172
-0.029210297
-0.019517265
-0.0629098
-0.006682661
0.044657405
-0.046305057
-0.013189082
0.064225055
-0.11728005
0.09512866
0.053199306
-0.026186965
-0.052172113
0.028134258
0.004309111
-0.12941314
0.031817812
0.08367992
-0.04554918
-0.007997028
0.024714328
0.037415713
-0.05824472
0.03701605
-0.043609336
-0.051958606
-0.16683902
0.12587988
0.11972254
-0.017584585
0.005097138
-0.05171841
-0.05617954
-0.036545422
0.014667893
-0.046404075
0.037347555
0.06801519
-0.01475471
0.094740786
-0.018340262
0.01131302
0.029963778
-0.014463883
0.045299683
-0.0019049934
0.043217253
0.043977123
-0.06424854
0.0250426
0.0044476558
-0.037905462
-0.029144015
0.102184355
0.08064901
0.03900297
0.046191003
-0.18330476
-0.052321773
0.054814298
-0.0049539995
-0.02640209
-0.016179327
-0.079279475
0.047142245
-0.011132842
0.034582887
-0.04417276
-0.048742525
0.008855223
0.08785531
0.07396325
0.019510837
0.059455678
0.017756743
-0.009602737
-0.075521596
0.021737054
0.005093405
0.059718236
-0.043295726
0.0044690794
0.020251855
0.027617492
0.07465573
-0.0037795042
-0.028286126
-0.04373688
-0.04310481
-0.05741017
-0.008624623
0.011402202
0.04035475
-0.003667016
-0.018486274
0.05548093
-0.025285913
0.08103588
0.059147026
0.031094188
-0.035481717
0.01500148
0.06685764
-0.028396092
-0.056506798
-0.06576957
-0.025779797
0.028852291
-0.0035070665
0.04928436
0.04311551
-0.016446296
0.0074383486
-0.029084055
-0.089137934
-0.05316914
-0.014223144
0.043551847
0.044764638
0.07014335
0.03926939
-0.007032468
0.027315889
-0.0035599575
-0.060027383
0.013813073
-0.025518125
-0.0035746244
-4.4826713e-05
0.043282565
-0.022785138
0.028641304
0.05345918
0.059729684
0.006308187
-0.1186086
-0.102108054
0.08300662
0.14416923
0.018892257
-0.08758329
-0.013584276
-0.027404478
0.037257407
-0.00590781
-0.02000196
0.046571646
-0.13643797
0.014372321
-0.020578487
0.006120633
-0.071637996
0.008038771
-0.012053405
0.050903544
0.01564348
-0.03130832
0.0025149076
-0.08831063
0.042230494
0.033477344
0.044410564
-0.03874399
-0.072418526
0.015131485
0.03495574
-0.06691794
0.05488015
0.072295085
-0.046087187
-0.0458268
0.00072451815
-0.033543866
-0.01379519
0.033891805
-0.088357985
0.090907715
-0.05414189
-0.053784683
0.08295687
0.07235755
-0.023479326
-0.03647128
0.027686257
-0.031822056
0.020622863
-0.02033185
-0.023899637
0.033273004
0.0018950404
-0.027192535
0.026424343
-0.103050925
-0.034982916
-0.052253652
-0.036913928
0.08788166
0.020425599
0.049783252
0.00197859
-0.013809591
-0.027295064
-0.0016822299
-0.00192344
-0.041416656
0.010992082
-0.025934745
-0.019773003
-0.0037180935
-0.034505956
0.044421878
0.03033026
0.08653951
-0.013589752
0.04569498
0.009857921
-0.027840296
0.029087678
-0.10148269
-0.030397896
-0.06692891
-0.050717443
-0.023197573
-0.07506801
-0.034442663
0.040166672
-0.04563992
0.06122544
0.030803045
0.039846353
0.015219743
0.019679528
0.007939729
-0.019054417
0.03768944
0.016981423
-0.06674402
-0.03175196
-0.06621308
-0.030168973
-0.01566743
0.045599926
-0.037264958
0.06709924
-0.029079575
0.03929361
0.052438043
-0.10268634
-0.07247276
0.118712135
-0.12188104
-0.0077449786
0.020418864
-0.031835657
-0.021337122
0.008305445
-0.005449214
0.014884614
-0.08117611
0.05531935
0.0060682213
-0.040996876
-0.035568297
-0.04537252
0.044679783
0.092169546
-0.0301422
-0.050938204
0.041561987
-0.062514044
-0.017002542
0.045887243
0.015262149
-0.16052207
-0.061860655
-0.02395246
-0.052650843
-0.012989147
0.0068272594
-0.10507808
0.04491398
0.03857969
0.043507017
0.045728568
0.012836855
0.005261498
-0.011851926
0.026224291
-0.004223931
-0.060887787
-0.04718469
0.04501016
0.003136213
0.0641519
-0.0032389383
0.047428943
0.046194986
-0.08494605
-0.07534911
-0.025410186
-0.06564893
0.074124835
-0.026974153
0.15506302
-0.057867244
-0.091473356
0.08671269
0.09233499
0.05335827
0.07542182
-0.11915956
0.0028086316
0.01870715
-0.03359318
-0.028494846
-0.060034845
0.0424406
-0.032752175
-0.015759282
0.086871445
-0.021807328
-0.07859758
0.02719917
0.047936454
0.020650165
-0.09449571
0.091519214
-0.011440434
-0.0070678378
-0.016550409
-0.07096748
0.011699374
0.064858705
0.06941448
0.025926072
-0.03546023
0.0011145372
0.061970938
0.01946418
0.028284727
-0.0660923
0.032903075
0.052006103
0.021672672
0.041973874
-0.014480951
0.029360065
-0.023581214
-0.1012206
0.079142705
0.07477591
-0.025917437
-0.045908988
0.013316735
0.033474784
0.045815412
0.05288358
-0.12903292
-0.00567188
-0.026855119
-0.08900979
-0.023827754
-0.045399316
0.08913948
-0.05546025
0.014235249
-0.045715235
0.072499685
0.02442465
-0.028412454
-0.035155904
-0.1034372
0.044914786
-0.0038323177
-0.07651399
-0.06636739
0.0053264336
0.06860667
-0.02965494
-0.014779834
0.07265651
0.040726297
-0.015690302
-0.06460515
-0.055693213
-0.048468553
-0.0876738
0.06863841
-0.023148354
0.038518105
-0.030971903
-0.057674102
0.06870776
3.4021898e-05
0.043810815
0.07468597
-0.06294554
0.035973426
-0.03902943
0.063864574
-0.02880387
-0.06156256
-0.027473543
-0.06119718
0.07056455
-0.07619746
0.015639188
-0.026827974
0.023055043
-0.048479263
0.010934979
-0.0016360575
-0.04847632
0.05705252
-0.09053323
-0.03951379
-0.021845903
-0.043595925
-0.021720564
0.046948295
0.033794474
0.03397685
-0.11999925
-0.05189058
0.072234735
-0.010985709
0.072693594
0.07955823
-0.07936312
-0.050429482
-0.08545928
0.10800807
-0.00010663447
-0.084742025
0.100744665
0.028195217
-0.08252138
-0.09699587
-0.017383052
-0.010597179
0.007979553
0.04117701
0.026139071
-0.039830692
-0.07085385
0.0676136
0.00978954
-0.032840516
-0.051553946
0.02756418
-0.033551108
-0.027651863
0.005145798
-0.0055890167
0.051968545
0.06023822
0.0030240836
-0.06677027
-0.015534621
-0.014431672
-0.058464684
-0.05050177
-0.061541945
0.080518
-0.11044336
-0.029671611
-0.020380426
0.046911582
0.09894422
0.017563075
-0.063464485
-0.0041203555
0.080444716
-0.010333334
-0.02309555
-0.11054091
0.019021997
0.041230146
0.07991063
0.037527278
-0.092960015
-0.013886126
0.044603106
-0.019207891
-0.08269109
-0.0352193
-0.06211212
0.056470346
0.011612458
1.7200042e-05
0.009716822
-0.06486915
0.02557409
0.03177922
-0.0690199
0.031082772
0.09804214
-0.057358477
0.03803619
0.045294877
-0.014759888
0.0036423348
-0.058208942
-0.07889471
-0.03999851
-0.0026864535
0.04457698
0.024860458
-0.04515258
0.041498065
0.04900822
0.036026932
-0.024821246
0.063885115
0.0020736968
0.06993186
0.058726594
-0.078512914
0.01444838
0.055616576
-0.031116422
-0.05382186
-0.01831168
0.13673343
-0.026123624
0.0020385487
0.0031812596
-0.17168352
0.0012358899
0.021988243
-0.012811174
-0.026049517
-0.06397993
-0.045016233
-0.011868589
0.061680034
-0.059770137
0.031860497
-0.015317847
0.11956626
-0.06440041
-0.037852123
0.045907073
-0.07691987
0.054457307
-0.01634607
0.042961758
0.0047199233
0.017457103
0.017152146
0.050578322
0.032483913
-0.07841608
-0.020077951
0.00731186
-0.0030043332
0.035865944
-0.053493943
0.051024575
-0.04716529
0.08572362
0.03234318
-0.017192943
0.010641189
-0.07223912
0.018464612
0.054890692
0.0075585824
-0.002814829
0.07675427
-0.005577267
0.020803217
0.034515508
-0.09903782
0.083953425
-0.048341226
0.032194585
-0.07347484
-0.018656941
-0.010795665
0.004025121
0.07510113
0.01665015
0.07581769
-0.062452696
-0.033696346
-0.043470502
0.0072080884
-0.0005302955
0.03099807
-0.038053088
0.08023236
0.07069755
0.07511307
-0.015630143
-0.072340354
-0.04883861
0.008708533
-0.08289348
-0.018758653
0.053358346
0.08083705
0.0015149734
-0.04589331
0.041174617
-0.059725683
-0.005033217
-0.087319165
-0.015815616
0.07633901
-0.047067724
0.055708084
-0.0057649603
-0.0014136547
0.026127433
-0.045519922
-0.10754917
-0.055639356
0.046295725
-0.032473087
-0.023290483
0.026653511
-0.021096785
0.00037577245
0.0030006245
-0.017980695
0.047311705
0.024893723
-0.035618905
0.021961397
-0.026479434
0.009195156
0.015039789
0.084511586
0.05074282
-0.051755637
0.033448547
-0.06452785
-0.04325718
0.048132386
-0.073028006
0.017213468
0.02557286
0.030208379
-0.006312619
0.019190857
-0.07749727
-0.039283272
0.04074026
0.05003076
0.025069747
0.021530114
0.036492154
0.01967781
0.051110927
-0.08017613
0.0021495018
0.010206908
-0.17647764
0.008522381
-0.025226701
0.0047271624
-0.14979194
-0.019835163
-0.2128132
-0.12415904
0.08629771
0.11501385
0.09059652
0.09487062
-0.050601043
-0.084566765
-0.03475337
-0.07590388
-0.06718244
-0.049940452
-0.04725737
0.023367453
0.14206629
0.035063576
0.012215
-0.1092671
0.0739658
-0.05052672
0.010934864
-0.0328014
-0.11489232
-0.109293
0.021131916
0.030434458
0.025943121
0.081942834
0.099230714
0.07222711
0.08402462
0.061953068
0.013820828
-0.33293772
-0.09078806
0.0005474766
0.08186001
0.011692041
-0.009805401
-0.0660536
0.045792755
0.026653154
0.043600164
-0.050132163
0.059857484
-0.05761738
-0.0180935
-0.010057795
0.07400117
-0.07261793
0.021606838
0.045419153
-0.015911845
-0.029363783
0.017688151
-0.04652772
0.04611868
0.04526645
0.008628703
0.006700522
-0.015608076
-0.020668393
0.043103527
-0.121320225
-0.01673661
0.0074561103
-0.020752128
-0.00111696
-0.060094524
-0.08896016
-0.032323178
0.05087365
0.058845226
0.050298475
-0.011681399
-0.04811564
0.050756786
-0.027905818
-0.027830794
-0.054347735
-0.018398903
-0.073956035
-0.07001331
0.04535299
0.04966022
-0.007609199
-0.026024655
0.037500907
-0.013683083
0.027870983
-0.09982083
-0.04407674
-0.026163224
0.0031802414
0.024221458
-0.05087369
0.043235257
-0.026785254
-0.03244209
-0.053025775
-0.050159488
-0.04478961
-0.06874152
0.073330544
0.047211736
0.012187347
-0.004705003
0.032540295
0.05193725
-0.07258168
0.0103268605
-0.08955572
-0.028361516
0.07142363
0.14963156
0.06447482
-0.0146977855
-0.0029155156
-0.052866064
0.0014781486
0.014767837
0.07387015
0.10983441
-0.0637735
-0.077264264
0.04273085
-0.035430238
-0.11356446
-0.018973956
-0.06138658
0.041021552
-0.094282456
-0.04121367
0.047116168
-0.045960978
0.015654935
0.08127678
0.0068070437
-0.11821995
-0.038884062
-0.13715084
-0.028912287
-0.056141086
0.035702817
-0.034507055
-0.013952601
0.03554704
-0.061520617
-0.03142553
0.0070900954
0.06871485
-0.04623529
-0.020204602
-0.030256536
0.033436842
0.015780654
0.011931876
-0.04221485
-0.03450378
0.0060141417
0.0032241847
0.061490312
0.013179498
0.0648305
0.075931475
0.08809442
-0.08695301
-0.061291873
-0.12180671
-0.017991409
-0.06132216
0.048615526
-0.004423666
-0.014274726
-0.02727747
0.08295664
-0.029624393
-0.0033495876
0.048502643
-0.00661926
0.022022726
-0.04863948
0.027210495
0.038939234
-0.00057655416
-0.016390994
-0.04435194
0.07925689
-0.027509784
-0.000911965
0.06590898
0.07703371
-0.063552454
-0.0116934925
-0.0064086034
0.065360345
-0.036647514
0.031419765
-0.015618376
-0.16226667
-0.06350021
-0.08413343
0.054475263
0.07559756
0.097150445
-0.072577424
0.045471363
0.019992532
0.021502461
-0.06277745
-0.016879212
-0.048612073
-0.051424816
0.04811553
-0.032239355
-0.052130166
-0.0012268181
-0.02383579
0.01242122
0.04767403
0.06662125
0.043988887
-0.011952721
-0.19981453
-0.045749914
0.08157264
-0.043963328
-0.041459586
-0.10048402
0.09342443
-0.064789616
0.047748934
0.06076191
-0.0064794966
0.0038354418
0.03381954
-0.07242711
0.03375187
-0.041912735
-0.061044957
-0.07003996
0.092288494
0.023951547
-0.086671494
-0.035573762
0.0141547
0.03313657
0.031821396
-0.008685434
-0.059459537
0.015115255
-0.043642625
-0.027500052
0.013516366
0.0046321033
-0.024174588
0.047724422
0.10090695
0.03612275
0.009313039
-0.011666283
0.029142445
0.018200228
0.04647234
0.07303185
0.00563835
-0.046167955
0.029414875
-0.0102874935
-0.03107338
-0.017455602
0.052336942
-0.019348131
-0.08823716
-0.0503942
0.051169578
-0.047492053
0.052786656
-0.031764716
0.094492465
-0.023235854
-0.03534869
0.057596944
0.064574555
-0.001486127
0.09093349
-0.07751679
-0.19706348
-0.05809018
0.022465004
-0.010701777
-0.0530341
-0.016454801
0.058761917
-0.0012851597
-0.0035168224
0.025426397
-0.09849673
0.011212862
0.07172615
0.044723056
-0.1663019
0.1322578
-0.022083404
-0.03851374
0.071339175
0.09992328
-0.2170572
0.0107733775
-0.015382675
0.0025433786
0.009466833
-0.020082798
0.010451182
-0.010012833
0.04418504
-0.047579166
-0.008773985
0.004334615
0.0011444316
-0.00070206827
0.011915944
0.027343377
0.015064936
-0.00388706
0.025892077
-0.061031368
0.018814329
-0.070799656
-0.0051855515
0.02243083
0.041964326
0.0688503
-0.096906096
-0.057005096
0.018029038
-0.042224847
-0.0028660954
-0.0032840685
0.018919988
-0.11244288
-0.10520602
-0.001974123
0.030264124
0.026723627
0.058212418
0.014387998
0.034722645
-0.0050351545
-0.065965
-0.03301109
-0.052954875
-0.028327273
3.3711e-05
0.012627074
0.043429926
0.019804008
-0.0152202705
-0.072563596
0.009433057
-0.045225725
0.0039130147
-0.06920901
0.08865934
0.026190124
0.026557747
-0.01957455
0.052296232
-0.008110232
0.015893841
-0.046560694
-0.042365383
-0.0366833
0.018583933
0.043515272
-0.011080213
0.047979694
0.016731657
0.043813173
-0.06694657
-0.011458084
-0.09478858
-0.06332993
-0.021293923
-0.017155947
-0.036798075
0.053779252
0.04037641
0.088613756
-0.013451302
0.015404517
-0.026627675
-0.023030024
0.012258351
0.016221382
-0.040563215
-0.032506976
0.0060618697
0.038694188
-0.14418001
-0.27231014
-0.19129539
-0.13923393
0.14406888
0.028476657
-0.26005113
-0.027378377
0.03937872
-0.0005959212
-0.093615055
0.10147686
0.020875946
-0.0387883
-0.16253689
-0.049238108
-0.019540425
0.034064334
0.057540476
0.051915586
0.014311964
-0.025016498
0.03494924
-0.0016859778
0.10737463
0.0086087715
-0.025250899
-0.0067253923
-0.026371535
0.051851783
-0.15178524
0.102987155
0.04991865
0.045939833
-0.09264632
-0.077118725
-0.034281556
0.09876657
-0.018358182
-0.14512327
0.06910411
-0.07042889
-0.041476987
0.05527214
0.12347749
0.06338544
-0.0022354515
0.016863046
-0.14749245
-0.04400253
0.010992302
-0.12433076
-0.10203998
-0.005727197
0.069173455
0.09620948
-0.0040739942
0.026668051
0.029861944
0.0737559
0.024881996
-0.038403045
-0.039498072
0.008233068
0.022122227
-0.11658395
-0.032856956
0.0030293793
0.0036226085
-0.042314466
0.02278341
0.037686434
0.022624308
0.06947857
-0.019114958
-0.04719974
0.05672215
-0.023958325
-0.040848985
0.0012580262
-0.06602224
-0.05916204
0.012074215
-0.031856872
-0.043837633
0.062568985
0.05350906
0.052049175
0.003997444
0.005293254
0.058470927
0.0041243266
-0.0017351168
0.07811746
-0.02517231
-0.040315475
-0.02889795
0.050224673
-0.005673136
0.079549514
0.10268219
-0.003138141
-0.07651089
0.10613345
-0.10451063
-0.1916176
0.064241685
0.069844306
-0.25151923
0.009209408
-0.14637889
-0.03395319
-0.12671557
-0.123650014
0.13129085
-0.04570897
-0.10934876
0.032055236
0.108738646
0.037978716
-0.03421311
-0.05312895
-0.076349944
0.009731357
-0.058687843
0.022071915
-0.035035722
0.045176588
-0.039819725
-0.080424
0.034780547
-0.118028864
-0.019009719
0.13596168
0.042870402
-0.027415793
0.01866621
-0.03712643
-0.068910636
-0.028110446
-0.03904759
-0.044345953
0.014718835
0.032334965
-0.08167161
-0.048420906
-0.008913084
-0.019326491
0.054877177
-0.02477732
0.034318026
-0.08920084
-0.08832394
0.0096631665
0.0942089
0.040259443
-0.087276526
0.10071954
-0.07270241
-0.0013893003
0.0028022628
-0.08235769
0.0076791444
-0.034693893
0.047781836
0.03514545
-0.0055303504
0.03071347
0.042045955
0.0612625
-0.010236307
0.053556
0.015661577
0.04670454
0.025193796
-0.0058844904
0.005065174
-0.06927345
0.043058347
0.03535998
0.060911547
0.026524765
0.057791993
0.008206089
-0.11210787
0.026262412
0.051423546
-0.010888503
0.037953965
0.08539517
-0.16738991
-0.052294165
-0.16576807
-0.10557728
0.010709082
0.01933584
-0.030921357
0.056108598
0.013612487
0.056287106
0.054006938
-0.011615123
-0.028304761
0.0307217
-0.05255857
0.06597463
-0.046608474
0.015729915
-0.0029191885
-0.00669857
-0.032814812
0.089854315
-0.01788315
0.09053322
-0.055655643
-0.034496788
0.029142715
-0.010906658
0.058451176
0.037575047
-0.03020213
0.039441403
-0.010413751
-0.039363626
-0.021642566
0.05268679
0.005976706
0.047171175
-0.024690099
0.10070751
-0.04646809
0.015234376
-0.035129458
-0.10344491
-0.120459065
0.052898664
-0.025227837
0.0032991562
0.065511905
-0.09910673
0.011173054
0.059721768
0.048496015
-0.111549705
-0.045892823
-0.1951112
-0.025821183
0.009747192
-0.045631927
-0.14442797
0.055358987
0.04879127
-5.8273297e-05
-0.05544325
0.033409376
-0.22323398
0.0642434
0.04693776
0.008634228
-0.0047531608
-0.09421364
0.090546735
0.0030063067
-0.06035672
-0.027323171
-0.02506176
-0.009825335
0.0054083276
0.04895894
0.027409796
-0.055495787
-0.055969596
-0.061098605
-0.014523755
0.023371749
0.0013499825
-0.058269776
0.033182275
0.07124471
-0.01297171
0.030333826
0.047416307
0.0409241
-0.0025108058
-0.0024405397
0.0042729205
-0.013802464
-0.025779717
-0.0030982278
-0.018815545
-0.055760436
-0.06939228
-0.071035996
0.059419483
-0.001026648
0.038917076
0.017921029
0.0019125915
0.06977654
-0.092768855
0.016632253
-0.051580265
0.101818405
-0.030303564
0.1325722
-0.017225994
-0.102201186
-0.06733299
0.082668565
-0.060984585
-0.0075345947
-0.088543124
0.007590845
0.03955527
-0.0074480553
-0.02966468
-0.011715388
0.073875524
0.093115486
-0.123305
-0.042023584
-0.0010796932
-0.045164563
0.0423077
0.050295938
-0.08418131
-0.07693612
0.02745864
-0.03756307
-0.074691065
-0.06555168
0.15785839
0.016686104
0.0126194535
-0.08315421
0.009963957
-0.030662633
0.028114356
-0.105552234
0.04261872
-0.026523363
0.041663807
0.061491814
0.02176204
-0.02077467
0.0053046625
-0.04641999
0.00751919
-0.05921512
-0.062573515
-0.03131778
0.13686146
0.11358853
-0.0065611424
0.039591454
-0.07664701
0.029656405
0.0020805309
-0.092223585
0.059984658
-0.0044687777
0.05218706
0.023018682
-0.02667865
-0.055721633
0.055495296
-0.0015682178
-0.06299229
-0.025986
-0.04466564
-0.018927574
-0.008164231
-0.06764025
0.071817644
0.02761535
0.022543948
-0.019344252
0.061735447
0.012075335
-0.052579626
-0.006463694
-0.023436252
0.005046742
-0.0028763786
0.016665375
-0.03807099
0.053409506
-0.0747535
-0.04104175
0.021934161
-0.106219865
0.059694637
-0.076689415
-0.043740045
-0.0030637246
-0.0026271662
-0.09954685
0.06044581
0.033162553
0.047252994
-0.11283935
0.058814473
-0.079670645
0.07208782
-0.052514587
0.047397207
-0.057819024
0.030160332
0.01261869
-0.00044939358
-0.036248125
0.077509925
0.11527417
-0.15614212
-0.051018752
-0.0065231062
0.059795212
-0.10566464
-0.097097754
-0.020878611
-0.05170372
-0.01766691
-0.014377983
0.058776397
-0.06186698
0.0036198054
0.035686057
0.014381917
0.0536121
0.02669047
-0.030413652
0.03341432
0.03768711
0.083457716
0.028779699
0.011634859
0.028381975
0.005180581
-0.013563082
-0.044739883
-0.036669515
0.09721714
0.040061865
-0.1087677
-0.026129398
-0.061434604
-0.025931036
-0.030194698
0.03735527
0.03327289
-0.07839493
0.022341466
-0.038607735
0.03194194
-0.052562024
-0.02507653
0.011364878
0.10545035
0.0548602
0.029563943
-0.004033999
0.077635385
-0.06091604
0.038796246
-0.017994748
0.030156374
-0.04151758
0.00898165
0.0132165225
-0.011108777
0.027710976
-0.014905763
0.04872314
0.04086025
0.07557067
0.0344797
-0.07822777
0.041029364
0.06969576
-0.030880354
0.047898196
0.028364211
-0.054430928
0.024952661
-0.053333562
0.10688569
-0.0028560918
0.020289758
0.047218483
-0.037190348
-0.0074605076
0.07516386
0.048122168
-0.0099681895
0.04695663
-0.09970513
0.021257464
0.082417235
0.010476494
-0.043693792
-0.07756701
0.012145611
0.05628636
-0.0062983455
0.13311586
-0.024188822
-0.14436486
0.025716528
0.11077095
0.01671225
-0.05105488
0.0113717485
-0.09432503
0.03422872
0.04182553
-0.029615594
0.067544565
-0.075055644
-0.01803327
-0.039671652
-0.06979066
0.046326827
-0.06402595
0.025437234
0.034766946
0.032891992
0.025380464
0.042902388
0.023131879
0.010050526
-0.02591903
-0.0112309465
0.013343437
-0.023417484
0.07208529
0.026289478
0.029425912
0.008797553
0.043900695
-0.046749238
-0.019534485
0.008430345
-0.015231869
0.05292849
-0.013255459
0.07037771
-0.086806186
-0.019327205
-0.028175216
-0.064528674
-0.054383177
0.048016753
-0.055052817
-0.019447012
0.045300093
0.038317744
-0.014172377
-0.007843812
-0.049927313
0.003011676
-0.0030079961
0.010738467
-0.08153653
-0.0044730385
0.08142944
0.008477156
0.013749932
0.04375177
0.040768016
-0.05270417
0.11502542
-0.10972291
-0.03180693
-0.04347625
-0.12800808
0.06587024
-0.025801769
-0.123938546
0.07153564
-0.15642768
-0.0062052077
0.11497438
0.074997984
-0.04154569
0.06498367
-0.09881286
0.03865539
0.028264152
-0.0009598332
-0.08575259
0.06665159
0.043311153
0.078987926
-0.002994706
0.016147666
-0.00967771
0.028234495
-0.034924977
-0.09222148
-0.077814974
-0.104983926
0.044954028
-0.010969136
0.07691624
0.02729272
0.036394555
0.013243486
0.04415047
-0.059004452
0.004587918
-0.059054293
-0.0633471
-0.060576044
0.07448966
0.017676303
0.06055816
0.007052942
-0.03254975
0.04796349
-0.021172747
-0.022520725
0.044430878
-0.06440953
-0.0386433
0.0068056793
-0.011571684
-0.11776699
0.018303791
-0.00829924
0.06007386
-0.038143165
0.0010526326
-0.07247524
0.05463604
0.048540942
0.033766646
-0.0768771
0.033891942
-0.028889818
-0.047666408
0.009866426
0.024089977
0.08173057
0.013312334
0.020844255
-0.18098363
-0.020592632
0.0002858377
-0.067611165
-0.025525404
0.0027786945
-0.015752377
-0.044963818
0.030895457
0.042812765
-0.02013836
0.01513723
0.08792794
0.06478244
0.032270115
-0.06750013
-0.03275177
0.03122165
0.0081201885
-0.04317335
0.039007965
0.027760671
0.016881038
0.043979723
0.015643599
-0.00090053456
-0.0033175154
0.061439056
0.008798361
0.027477186
-0.0032185875
-0.078873485
-0.014442121
-0.0028828636
0.04252506
0.016141072
0.013638718
0.078236915
0.021392051
-0.07154971
-0.025698667
-0.0924898
0.0037752136
-0.014972307
-0.060595322
-0.04543471
0.06492841
0.006113093
-0.048157886
-0.023079377
-0.10673591
0.05101855
0.022795511
-0.12234174
-0.019109542
-0.018320384
0.070266835
0.021638216
-0.026723986
-0.040346857
-0.06049648
0.027104944
-0.0004003267
-0.005532665
0.017606007
0.054234527
0.044941317
0.012235291
-0.07282951
-0.1211855
0.10223288
-0.018516183
-0.07810143
0.054186955
0.053610954
-0.005033019
0.06291324
-0.08254083
0.05813073
-0.06571358
0.017715566
0.004204849
0.046866387
-0.024387516
0.07640146
0.006533747
-0.004967123
0.01056539
-0.02401806
0.017481254
-0.0107258335
0.044213038
-0.015105458
0.040355545
-0.00913126
0.015560619
0.03497119
-0.03484446
-0.05162595
0.03383119
0.11763511
-0.10506667
0.06298406
0.047424085
-0.14227203
0.01213489
-0.0027953829
0.04529649
0.026834186
-0.014463648
-0.047089893
0.051259562
0.025441153
-0.05985573
0.08502197
0.030721169
-0.021651305
-0.09311999
0.049745213
0.08641951
-0.057758886
-0.031735744
0.08158902
0.0071837264
0.07677773
0.006546626
0.04286261
-0.03519843
0.010188813
-0.008807171
0.048802823
0.017922468
-0.035097715
-0.0069441847
-0.028116701
-0.08319554
-0.010382938
-0.029823616
0.028397715
-0.020325363
0.056824755
-0.04252706
0.007979019
-0.0029767002
0.09821415
0.03507726
0.036316045
-0.0017816519
0.020870661
0.005249569
0.048098393
-0.0043236776
-0.052387577
-0.05743575
-0.03762583
-0.06529364
0.027594138
0.0063449773
-0.040568557
-0.039653737
-0.0035668546
0.0077072233
-0.003355866
-0.025134973
0.00030936758
-0.012060321
-0.070882395
-0.07023965
0.06063456
-0.05199466
0.09447926
0.0040427297
0.012774936
0.07383437
-0.031686395
-0.09000273
-0.024458537
-0.08226387
-0.036024753
-0.04839676
-0.020384315
-0.03565343
-0.033139545
-0.009499781
-0.040092003
0.006255197
-0.0052716895
0.09266336
0.0064986805
0.08182404
-0.07177915
-0.015152377
0.044621438
-0.04642678
0.11490879
-0.0032842464
-0.01690791
-0.06756499
-0.057622757
0.024151044
0.08688138
-0.0933171
0.08846859
-0.01955145
-0.0668084
0.10789023
-0.1353267
-0.041254934
0.021755964
-0.0023312455
0.09573706
-0.0812217
0.04504777
0.105477914
-0.0021766003
-0.079658054
0.10932951
0.013664025
0.061917946
0.08451299
-0.0726811
-0.041653976
0.028162045
-0.029410822
0.004747592
-0.06738271
-0.1406506
-0.019599725
-0.011821386
0.036777925
-0.020007527
-0.16237926
0.0032114259
0.0018714844
0.0053442866
0.0077819573
0.061041694
0.06866386
-0.064641595
-0.09576218
-0.121525444
0.113781534
-0.14480253
-0.09715355
-0.057473954
0.06559162
0.0305956
-0.026891828
-0.0557183
-0.012933673
-0.08554824
0.08942291
-0.11189549
-0.03967492
-0.03142508
-0.054119736
0.031963866
-0.01316374
-0.045918074
0.007247777
-0.00080907595
0.03225091
-0.058093138
0.04703042
-0.03221804
0.05927888
-0.07832678
0.01004313
-0.025126206
0.023956167
0.06795226
-0.05485301
-0.017497825
-0.04429744
0.04484631
0.0041606114
-0.030505132
-0.079613335
-0.004102888
-0.038553145
0.064100966
0.101762936
-0.032186516
-0.020770589
0.03147092
-0.025540996
0.035003755
-0.029639859
-0.032660797
-0.0012921584
0.007590093
0.009645958
0.039978035
0.043197434
0.0022812164
-0.17913327
-0.20374599
-0.048764385
0.00058818166
0.050305724
-0.039894756
-0.047765307
0.011916718
-0.010917372
0.049869645
0.04002442
0.06289363
-0.018131454
0.075355634
-0.009942125
-0.067944214
0.010325947
-0.052973572
0.011904144
-0.08867553
0.019153727
0.077117816
0.01887411
-0.008228158
-0.030785209
-0.11942658
0.016278904
0.066384695
0.02866706
0.0018083785
-0.034356326
0.056635555
0.072986074
0.020352786
-0.024548192
-0.034877706
0.075380206
-0.03781503
-0.12377836
-0.030151015
0.04085672
0.08240137
0.03833917
0.00960692
0.014038276
-0.022763068
0.07148111
0.070008986
0.029512523
-0.036596995
-0.0112792
0.0947845
0.05552563
-0.1757534
0.015044628
-0.06883863
0.21230455
-0.12422188
-0.17763236
0.051129755
0.06908695
0.070981696
0.06711341
0.045736622
-0.049194224
-0.05028963
0.02205146
-0.02115189
-0.08555844
0.043177415
-0.074010365
-0.063916795
-0.100302026
0.068411976
0.051101703
0.007634221
0.02937503
0.0151486
0.009411614
-0.016185945
-0.014191496
-0.016395643
-0.05820054
-0.030779101
-0.00017546119
-0.055453856
0.08196058
-0.053912103
0.006340268
0.059146505
-0.0662773
-0.0563013
-0.030895818
-0.04316345
0.039907996
0.030277282
-0.0040281955
0.04191426
0.030186307
0.044791963
-0.04508504
-0.018932965
-0.007920057
0.033920217
-0.041237935
0.047712997
0.04855441
-0.0279292
0.095518366
0.021996276
0.10071817
-0.050368804
-0.0005259207
-0.015244472
0.040681455
0.022141475
0.032130938
-0.08740471
-0.07973426
0.04503462
-0.05639272
0.029928979
0.015300704
0.063407324
0.06546865
0.07860449
0.0693214
0.01336605
-0.04830296
0.037505668
-0.061387077
-0.01407427
0.0062547666
0.057674058
-0.011561493
-0.0014298966
-0.007819332
-0.030100597
-0.04643885
-0.011720134
-0.061057717
0.0573879
-0.017049158
0.07113864
0.056412708
-0.036665462
0.018060306
-0.04310117
0.0013462963
-0.052312728
-0.04551386
-0.038927455
-0.1149557
0.07202398
-0.017374855
0.020929145
-0.080195345
0.014148821
0.054264717
-0.06061786
-0.042539503
-0.052953854
0.021667052
0.008729857
-0.0029560335
0.023046345
-0.045624107
0.014985547
-0.019307403
0.03528662
-0.03898105
0.013170839
0.030741723
-0.03278531
-0.017354753
0.0033036093
-0.06204971
-0.028679945
0.028036019
0.04111057
0.011024017
-0.085139014
0.019809486
0.0419406
-0.04707199
0.058665242
-0.058189727
0.0626484
0.00028986135
-0.0126468325
0.038088277
0.05455374
-0.064768456
0.02730363
0.019428583
-0.07843147
0.03307305
0.14816006
0.0044885566
0.03159318
-0.050845508
-0.12823527
-0.039148387
-0.03642239
-0.013749432
-0.03786414
-0.0397212
0.0720656
0.12790532
0.0029744678
-0.0083308
-0.051803637
0.011800779
0.048587233
-0.031026905
0.0023677468
-0.037086017
0.015695805
-0.017529445
0.049601078
0.007313298
0.0145176
0.042084448
-0.03277213
0.044217043
-0.024656953
0.043334465
-0.04823792
-0.05942944
-0.0013849487
-0.00010774454
-0.010373613
0.030132659
-0.05933509
0.030120114
-0.0007213097
0.007418949
0.020840902
0.005627423
0.019537188
-0.10372908
-0.07040657
0.052836042
0.019846452
0.055189483
0.034234617
0.039251655
-0.050738823
0.020153627
0.06250939
0.020861289
0.019661462
-0.02722305
0.05449466
0.004286447
0.042480037
-0.015712244
0.030054135
-0.010038835
-0.03869005
-0.067242704
-0.055480976
-0.024511753
0.026457153
0.04716753
-0.013931833
-0.031205524
0.0018753964
0.0030253113
0.03232295
-0.04051485
-0.089011915
0.047576293
0.038191494
-0.08819359
0.075474985
0.018800428
-0.08249856
-0.011169329
-0.042111497
-0.053564902
0.121884346
-0.0010242696
0.06860538
0.012481547
0.043986224
0.0956302
-0.058203783
-0.04566676
-0.06597585
-0.047506567
0.05190936
-0.0507141
-0.043652754
0.025581159
-0.07718881
0.0077524916
-0.044904377
-0.039294537
-0.03481499
0.021065287
0.07318359
-0.009704874
0.052663337
-0.032899193
-0.06651572
0.0727716
-0.10744123
-0.027531734
-0.053694054
0.027360711
0.04378806
0.021226157
-0.044317435
-0.0020115848
-0.032396294
0.01768372
0.008243245
0.005129569
0.020393016
0.02824439
-0.07718349
0.01647821
0.049441233
0.0029845303
-0.02715314
-0.06842539
0.05034137
0.010239781
0.073853016
-0.07322405
-0.09033963
0.020097787
0.07575091
-0.040908694
0.019646626
-0.013365148
0.057932608
0.06953561
-0.12613156
-0.029522177
0.035332765
0.038429596
-0.04795152
0.031978857
-0.20359528
-0.010486834
-0.14328468
-0.10068074
-0.028104696
0.012625992
-0.020895194
-0.047322553
-0.058835525
0.07723701
0.015149212
-0.0016289306
0.08859291
-0.008368837
-0.027111348
0.015119909
8.0886646e-05
0.014640024
-0.009263673
0.080163755
0.0037104762
0.054058556
-0.02309624
-0.00045030832
-0.013690955
-0.07979135
-0.025634067
-0.049732056
0.06295549
0.05405222
0.031823236
0.020775018
-0.032068614
0.10189552
0.09960864
0.08295588
0.08081254
0.0031617712
-0.024885042
-0.06327013
-0.027146608
0.07085306
-0.07706422
-0.13046767
0.044228204
0.02421475
0.10873845
-0.061560173
-0.055911016
0.02667259
-0.06836671
0.09547975
0.05457974
-0.10549606
-0.024246378
-0.078526966
0.08491937
0.026222907
0.008819873
0.009156177
0.009271747
0.024470607
-0.014460329
-0.014273321
0.05186798
0.035018243
-0.10913776
0.004541305
-0.0019963176
-0.107345924
-0.016228035
0.029726138
-0.05461087
-0.06710836
0.046313256
0.03617791
0.008957421
-0.06326315
0.042305514
0.0106861545
0.01714219
0.0994811
-0.038545314
-0.019028299
-0.02910058
-0.05245968
0.002553623
0.012068273
0.04944914
-0.022059632
0.009105986
-0.034037866
0.01704796
-0.014948382
-0.025555551
0.017907526
0.053680845
-0.08404415
0.041759796
0.046369795
0.0020443653
-0.04873918
0.007871265
0.06941565
-0.16761369
-0.06248444
0.06724086
0.094407976
0.007101111
0.06324388
-0.13361277
0.07272466
-0.0078017986
-0.024050927
-0.07165238
-0.11646366
0.0032921596
-0.024447588
0.042848993
-0.010231923
-0.03166852
-0.105455816
0.05140603
0.04637819
0.06910347
0.072954394
0.024580095
0.06538916
0.019163309
-0.040336214
-0.01192213
-0.08485433
0.04863104
-0.088018246
0.00023422146
0.054161396
0.023838302
-0.034260355
0.05984873
-0.043102633
0.045435973
-0.0655104
-0.010056733
0.021000322
0.0029430278
0.085580744
0.06564121
0.010725087
0.0143562015
-0.043012418
0.018578922
0.031691145
-0.015294581
-0.103826225
-0.039225712
-0.014246889
0.011310225
0.011475552
0.035731405
-0.005804511
-0.008778042
0.061535083
-0.08865808
-0.052326534
-0.062016845
-0.012319374
-0.11553137
0.012413932
0.037876226
0.03758073
-0.019145384
-0.03460593
0.031089075
0.025556078
0.05051999
-0.04080756
-0.037098944
0.011975101
0.013550701
0.0176974
-0.014483682
0.007798491
-0.049437247
0.0019444874
-0.071015894
-0.037972495
0.035621956
0.02802965
0.0092795435
0.038245473
-0.10549651
0.004550237
0.020052582
0.0435338
0.0035036535
-0.07219139
0.009929841
-0.059845094
0.018820103
-0.041931953
0.05889751
-0.10278344
0.07040397
0.05295442
-0.0059251767
-0.033732478
-0.16467948
-0.009867425
0.08634596
-0.012499196
0.04934215
-0.05669251
0.06125477
0.03282743
-0.07077258
-0.12085614
0.08056541
-0.11844889
0.028163293
0.022723818
-0.10006053
0.007825447
0.042586196
0.008179272
0.022650382
-0.12429916
-0.08964259
-0.011516256
-0.0197271
0.01913291
0.08849565
-0.005694582
0.044788767
-0.013540492
-0.06622997
-0.027752219
-0.048191838
0.053935483
0.026588175
-0.046601906
0.03145646
0.036964063
-0.013216935
0.020915318
-0.121892534
-0.019864867
0.0050263237
-0.057851195
0.037526388
0.06641754
-0.0059666205
-0.037192646
0.004294363
0.04340204
0.028772589
0.008014095
-0.057513673
-0.018060414
-0.04807524
-0.015393764
-0.06969857
0.014953495
0.06337777
-0.07982456
0.013900971
0.03292933
-0.017487116
-0.0818479
-0.040250074
-0.014534779
-0.039467547
0.037952628
-0.009109588
-0.03128517
-0.02859205
0.015498131
-0.03341928
-0.035923827
-0.004159018
0.03071673
0.049270738
0.046476662
0.0015955799
0.07600859
-0.0024749145
-0.030484134
-0.017254941
-0.023119941
0.04779095
-0.015648087
0.071986504
0.04401512
-0.013600324
0.0448602
0.0588678
-0.030986674
0.050449558
-0.13468508
-0.037957925
0.041448496
0.02123911
-0.083991125
0.085196875
-0.08059062
0.008257394
-0.048206497
-0.028466724
-0.00782166
0.10359927
-0.042915348
0.017273145
-0.04281691
-0.06027697
-0.045217745
-0.026903197
0.014706564
-0.008616048
-0.019123048
-0.014072774
0.0389279
-0.037308667
-0.054930992
0.03491929
-0.04794489
-0.05964527
-0.038219914
0.031354696
0.08314712
-0.0962457
-0.043754846
-0.004952317
-0.08518964
0.061214864
-0.027819695
-0.07451846
-0.07634122
-0.051548433
0.01421907
0.024972143
-0.037071545
0.08957575
-0.082884364
0.059595235
0.07465446
-0.09460381
0.01946995
0.0879611
-0.03971596
-0.10064247
0.06724037
0.043357134
0.11757441
-0.0917873
-0.086073734
-0.026131041
-0.023452522
0.058270186
0.09741309
0.005844035
0.006871866
0.04445852
0.016419321
-0.080531836
0.04328367
-0.06998012
-0.066795334
-0.02339821
0.015133556
-0.049236443
0.05968768
0.04057773
0.011859755
0.057007194
0.074967615
-0.07279409
-0.0059779193
0.040511105
0.01643716
0.07234277
-0.032270208
0.022557521
-0.022228308
0.034340393
0.039750814
0.032452896
-0.03076506
-0.0027283328
0.025784224
0.007015249
0.0560737
-0.02194576
0.028239056
-4.6082918e-05
0.04738819
-0.03481988
0.007832473
-0.013608872
0.004728653
0.041355345
-0.026048878
0.058819607
0.046129495
0.08315907
-0.0024204608
0.010919293
0.0045812344
-0.006523179
0.009507386
-0.014857147
-0.013272146
-0.039222796
0.046670154
-0.014543798
-0.07827301
-0.0761243
0.023342619
-0.014144608
-0.031116158
0.047507677
-0.021344665
-0.055761036
-0.011367925
0.06950591
0.05376545
-0.040002268
0.07923187
0.048522145
0.068499394
-0.07760962
0.062628634
0.009407692
-0.036581334
-0.019169807
-0.060068656
-0.08901244
-0.24363707
0.120792784
-0.021275412
-0.01911438
0.08348722
-0.032421876
-0.022186426
0.030563159
-0.006255946
-0.015736468
-0.049006306
-0.04884462
-0.041201293
0.07749349
0.06375751
0.031265683
-0.04761802
0.0018111226
0.069662504
0.085225075
0.08738477
-0.028953223
-0.051407248
-0.07975814
-0.063317545
-0.03013592
0.06278591
-0.008754582
-0.0015532221
0.05532099
-0.013576926
-0.07631403
0.038828626
-0.037065644
-0.0060323365
0.014008385
-0.007896836
-0.04952021
-0.06986233
0.0630174
-0.0098531665
-0.047584537
0.012459365
0.03326443
-0.05199468
-0.004596789
-0.020701181
-0.020495977
0.006768377
0.08030062
-0.1276214
0.0017657531
-0.07538254
-0.113540605
-0.05985533
-0.021789305
-0.016562397
0.20055139
0.007213184
0.027165625
0.020047713
0.07233524
-0.12148151
0.02851386
-0.007438813
-0.004448866
-0.085305326
0.0255209
0.016797967
0.022977773
0.05619595
-0.047340732
-0.011891794
-0.024570249
0.041354477
0.04986695
0.03227235
0.069993384
0.037581384
-0.051088188
-0.01946251
0.008610602
0.04891893
-0.018639265
-0.02537868
0.020379746
0.0009857514
-0.08813924
-0.050750036
0.017836401
-0.081783466
-0.03216513
-0.041796967
0.051083058
0.0067629623
0.08523967
-0.08275114
0.028623547
0.0266143
0.020364502
0.020242767
-0.04965476
0.11189544
-0.06390097
0.0047665285
0.059521593
0.044254538
-0.042915538
-0.11666289
0.033134263
-0.055444453
0.0056373277
0.055349886
0.039532233
0.034917265
-0.022600412
-0.053436156
0.07336589
0.06024114
-0.09222084
0.0013684791
-0.11338018
-0.038078982
0.03927892
0.09961889
0.016833875
0.091508
0.04809944
0.020231219
0.08768567
0.034174085
-0.09731797
-0.07034301
-0.010677969
0.010461114
0.0051543606
0.14534104
-0.07625494
-0.06733972
-0.06629249
-0.00046605687
-0.047668505
0.036815792
0.010863484
-0.012793599
0.035937395
0.011554313
-0.066756845
-0.042257197
-0.020488372
-0.06561195
0.0036325362
-0.0009100159
-0.020349026
0.07691376
0.07728547
-0.052119803
0.023154248
-0.02069551
-0.08755879
-0.14518176
0.0060241967
-0.020170301
0.07303729
0.028811138
-0.042218957
-0.034006733
-0.019842254
0.105732575
0.009300711
0.0068411836
0.05126171
0.025523627
-0.06299185
0.0172135
-0.098510094
-0.010677812
0.026356587
0.0319326
0.044712413
-0.030417228
-0.022074515
0.04703755
-0.037484158
-0.014255966
-0.07831397
0.009270771
0.14815374
-0.030736102
-0.056042
0.05194086
0.008217622
-0.052938282
0.054314315
-0.010216052
0.06605966
-0.0037237261
-0.0315105
-0.053200826
-0.08661064
-0.06611942
0.11022583
0.102668144
-0.024258444
0.060940746
-0.09474445
-0.007352544
-0.13692136
0.01907314
0.04998623
-0.031381864
-0.028103974
-0.040654425
-0.048115186
0.002951599
-0.119583
-0.025506658
0.11949732
0.031188821
-0.0020857253
-0.049200725
0.026911963
-0.01866909
-0.018592589
0.026654068
-0.015330081
-0.07988183
0.068605565
0.067722104
0.09142041
-0.050553143
-0.02448761
0.024484606
-0.037424896
0.022423252
-0.123728774
-0.039459586
0.111407734
-0.047865883
-0.014855422
0.10830905
0.007150662
0.15167588
-0.15231699
-0.029025208
0.056578927
0.04658036
-0.11719636
-0.058707286
0.06660093
0.072837636
0.03139935
-0.031572685
0.027221525
0.032316554
-0.011798811
-0.036840077
-0.07621624
-0.0063535334
0.06745232
-0.0205383
0.021772703
0.0051654233
-0.0473144
-0.05777179
0.03943798
0.034804553
-0.07793861
-0.028255269
0.03432759
-0.048762184
0.040316902
-0.027674496
-0.100354984
-0.042187866
-0.0062577804
0.037039854
0.04738101
-0.049065348
-0.029788524
-0.051810708
0.06498324
0.04361714
0.024860322
-0.020927273
-0.034226764
-0.046941273
0.025224257
0.0007723078
0.020818105
0.012423636
0.01886616
-0.03557224
-0.04552288
0.02823794
0.0046744114
-0.042412583
0.039192557
0.06316252
-0.059426233
0.006095438
0.053628623
-0.035554063
-0.15250753
0.06616568
0.03919955
0.12436431
0.037105415
-0.04166463
-0.024821708
-0.038449477
0.037414566
0.05522826
