-0.046298813
0.067688115
0.09287537
0.114292346
0.0272599
0.008496996
-0.044532705
0.03368136
-0.0038244822
0.10111392
0.08208803
0.04868897
0.016157659
-0.014548967
0.037783477
-0.006665037
0.01637332
0.10597839
-0.07065993
0.12244939
-0.08703434
-0.10949964
-0.13970895
-0.03128279
0.037080012
-0.038676992
0.12402872
0.014299918
0.11178841
0.014310922
0.016355943
-0.04184215
-0.04607899
-0.03124351
-0.011543602
0.13703266
0.07973323
0.100869946
0.047531016
-0.021426473
0.040971197
-0.11719793
-0.113047
-0.16639055
-0.031119805
-0.022075418
0.06694208
-0.027291643
0.050656445
-0.050219625
0.02307358
0.09630409
-0.004580768
-0.057357386
-0.09128662
0.15119645
-0.005499937
0.0012160905
-0.023504768
-0.00546517
0.016805047
-0.1218997
0.12533104
-0.09270226
0.049222838
0.045059822
-0.0353076
0.015690774
-0.05143266
0.05109616
0.06714379
-0.066847794
-0.03395137
0.015551451
0.020760512
-0.20467351
-0.057050485
0.06597871
0.027791295
-0.025381232
-0.07260817
0.031956654
0.029708067
0.036377266
-0.025520345
0.019660413
-0.010977553
-0.085907884
-0.021494346
-0.033145458
-0.051444236
-0.006177669
-0.0006760151
-0.03482485
-0.082446635
0.07047597
-0.04957824
0.02786948
0.044585858
-0.01265949
0.019236414
-0.0090161925
0.030414075
0.004847497
0.009586308
0.07842844
0.044439007
0.09041624
-0.038155247
0.019199407
-0.008647498
0.042213358
0.050325613
0.09160669
-0.039976466
-0.050163288
-0.049960636
0.024964955
0.03740842
0.037669282
-0.02183941
-0.015512286
0.073643774
-0.046883617
-0.00822393
0.10686405
0.000780607
0.0073360223
0.13500203
0.11095989
0.0765445
0.08924973
-0.00035806693
-0.08085833
-0.07420841
-0.07776889
0.04794143
0.13017544
-0.0016435267
-0.09574577
-0.0045017293
0.08283458
-0.08470389
0.07051837
0.0504601
-0.068233706
0.044165358
-0.09638061
0.0071089673
-0.010787752
0.10893319
-0.01252714
0.011314366
0.1526306
-0.02871324
-0.079479754
-0.06658025
0.0069169127
-0.065235175
0.040659677
-0.09623798
-0.11404153
-0.05668614
-0.030936105
0.09588841
0.03950783
-0.013579766
-0.008351061
-0.14047426
0.08432881
-0.06099056
-0.058334354
0.12916332
0.03777421
0.05731942
-0.12817435
0.0049038115
-0.056810003
0.04156009
0.030704321
-0.23642702
-0.030041154
-0.04664505
-0.05082525
-0.014989903
-0.0716818
0.08049507
0.09192735
-0.03932592
-0.04470934
-0.1457318
0.08618528
0.039359752
-0.00095841126
0.004464952
-0.06219082
0.023934579
0.047563914
-0.03962056
0.06159559
-0.00015484955
-0.10610671
-0.0031090763
-0.19523467
0.015918342
0.04248179
0.044058498
-0.10768658
-0.037648804
0.048441216
-0.04560352
0.021644905
-0.073789455
-0.022095513
-0.017219715
-0.09513582
0.013463709
-0.08619439
0.0073981658
0.047921482
-0.11021718
-0.05378832
0.039522532
-0.012795455
-0.006527751
0.052084766
-0.039034992
-0.0023860019
0.020853182
-0.054427013
-0.046346176
0.04600753
-0.08338411
-0.05273459
0.070621565
0.0070983176
-0.066278934
0.0351536
-0.043326184
-0.041426577
-0.056780793
-0.019951489
-0.04529336
0.0068256753
-0.018932654
-0.08781499
0.015333064
0.053959828
-0.035579834
-0.060098346
-0.03783674
0.029965341
0.04782725
-0.0038745091
0.030742563
0.039767984
-0.03626573
0.100752726
0.10689525
-0.022141695
0.076993756
0.08110969
0.12577869
0.05755982
0.046265017
-0.055757057
-0.024277953
-0.13465555
0.054250248
0.107288316
0.1536352
-0.14596772
-0.08005365
0.043687634
-0.0911363
-0.016188456
-0.08521484
0.064525716
-0.09603516
-0.06680655
0.0032758703
-0.12801959
0.08478301
-0.0007626397
0.011306276
-0.08933525
-0.06077954
0.0048004254
-0.03399682
0.07532762
0.019918993
0.02362954
0.12645704
0.065696545
-0.04053047
0.04703675
-0.023479497
-0.045096297
-0.0696868
-0.120132655
0.011752652
0.03156143
0.077744596
0.04933461
0.0731699
-0.0050956304
-0.09231399
0.02701482
-0.069782704
0.025202058
-0.12995175
0.08024676
-0.065341994
0.07517663
-0.02314292
-0.10674905
-0.064608626
0.026738232
0.1606779
-0.075151876
0.09135389
0.0639101
-0.02678355
0.016563615
0.025544172
-0.060143635
-0.039318405
0.04363617
-0.043602496
-0.057013225
0.054611273
-0.21407796
0.07366906
0.06336831
0.0025597415
-0.04332166
-0.025491256
0.04910976
0.017238483
0.034426372
-0.027691768
0.10596931
-0.023422934
-0.036968496
-0.057061914
0.06625943
0.045717362
0.07365079
-0.106115356
0.03823567
-0.09334272
-0.05258988
-0.119284466
0.14339979
-0.0151896775
0.014749126
0.14236164
0.0049265204
0.017023714
0.05069355
-0.045320686
0.02734737
0.026441364
-0.050000016
-0.02336221
-0.041613393
-0.012282774
0.015916592
-0.07362912
-0.01582054
-0.053047344
-0.031961367
0.034925994
-0.11649478
0.06557075
0.057478283
0.038802993
0.025933264
-0.024311705
0.038086295
-0.0439901
0.0021364812
-0.106404416
0.02201901
-0.0029964342
0.06778819
-0.02200242
0.00023526831
0.04877953
-0.031468887
0.05996246
0.06957537
-0.013862204
-0.036601316
-0.05232961
-0.19295551
0.055554394
-0.05485692
0.018409008
-0.020233849
-0.07904384
0.10587858
-0.011654021
-0.009872106
-0.06131287
-0.038452443
-0.038788043
-0.04352459
-0.050402142
-0.09860352
-0.037747536
0.079144485
0.02374851
0.011607524
0.044300143
-0.013686423
-0.0859797
0.11423779
-0.01000835
-0.015242
0.054411683
0.06956154
-0.03864012
0.08677576
-0.056220155
-0.027070044
-0.01100977
0.054482713
-0.015927695
-0.03126758
-0.00723556
-0.00107071
-0.017781023
0.012267832
-0.046511747
-0.02700904
0.070899546
-0.14911108
0.0048235883
-0.022232508
0.012840657
0.0016153557
-0.009799309
-0.054680053
-0.046643138
0.11572927
0.05297026
-0.016920106
0.010341463
0.118934594
-0.22921151
-0.0028114878
-0.0126369605
-0.048486017
-0.025310954
0.058863115
0.05870434
0.011431914
-0.02765372
-0.015127707
0.065661006
-0.07523487
0.023506084
-0.0452019
0.12364758
0.10725042
-0.014385054
-0.03544481
-0.031223698
-0.18161145
0.08954328
-0.0031564157
-0.09980847
0.0035364667
0.17889903
-0.20573382
-0.03864338
0.025295632
0.055832427
-0.054822713
0.08864042
0.11225798
0.1759557
0.02532564
-0.066218704
-0.15389976
-0.023995308
-0.0046508275
0.06687813
-0.16138445
0.048703767
-0.18604966
0.05130032
0.07421878
0.053493973
-0.053594995
-0.08453813
-0.013610724
0.024732754
-0.048345707
-0.040394437
0.036127314
0.00092526723
-0.10803697
-0.03095208
0.024927605
-0.013483164
0.008412507
0.0457055
0.15288931
-0.0063279043
-0.06113667
-0.0029594465
0.12942365
0.08852229
0.08155122
0.03386435
-0.09843096
0.0033714727
-0.14174573
0.10610297
0.12149084
0.030247524
0.050537404
-0.013953576
0.12617062
-0.065995336
0.08480087
0.047700457
0.0071806037
-0.0005587485
-0.04195095
0.03205765
-0.014915263
0.030288918
0.0035883647
0.013606941
0.16061005
-0.04057902
-0.06804558
-0.090716556
-0.06468094
-0.11263951
0.068396546
-0.08754872
-0.14297162
-0.16022609
-0.054685194
0.024044666
0.045659743
0.051558495
-0.08215096
-0.07333793
-0.011793761
-0.049809095
0.049501363
0.12533605
0.007930848
-0.059100337
-0.11811673
0.027784871
0.0329742
-0.05760915
-0.0011739071
-0.20459326
-0.06928124
-0.029139657
-0.056296006
0.02038508
0.001721744
0.10564899
0.017423622
-0.097662345
-0.16135785
-0.14090566
0.16767646
0.14828783
0.008784989
0.067412876
-0.00026823868
-0.0017061197
0.028343856
0.0731329
-0.03305855
0.09438275
-0.023836708
-0.08177263
-0.16869192
-0.020825638
0.07793069
0.012128773
0.06352966
-0.08279774
0.010849114
-0.024914337
-0.034772787
-0.07875267
0.1334629
-0.06845462
-0.057579637
0.050122768
0.05125997
-0.10617279
0.009227221
-0.09022679
-0.042797547
-0.07456965
-0.008519755
-0.10907255
0.08473659
0.0129273925
0.038252234
0.06311515
0.032510597
0.0038002143
0.014915135
0.018406691
0.053200837
-0.018931279
0.10249301
0.016155254
0.022489602
0.020627659
0.029537085
0.03844099
-0.0122635495
0.04047759
0.07732884
0.073163666
-0.05697626
-0.0222956
-0.073002234
0.010741307
0.04091703
0.035358064
0.033977546
-0.09187303
0.04634006
-0.10269217
0.10688344
0.06444732
0.004908747
0.060492996
0.026216073
0.056943934
-0.048599903
-0.00071232795
-0.08772163
0.08807441
-0.020223103
-0.023758974
-0.13507503
0.020927167
0.059720844
0.04963399
0.028129091
-0.08187149
0.026998503
-0.0577531
-0.0062183635
-0.040977035
0.026123367
0.05225346
-0.08426756
0.042623483
-0.023068586
-0.001011032
-0.044683296
-0.010306331
0.004594458
0.0049065608
-0.016119357
-0.015164762
0.09744713
-0.09549164
-0.043533307
0.024289701
0.018532716
0.05890652
0.083462454
-0.045813277
-0.008080046
-0.05097286
0.03313745
0.015556387
-0.060248584
0.039850738
-0.022584692
0.044356782
-0.026723279
0.01124434
0.07207966
-0.05057918
-0.08558214
-0.023223843
0.058041334
-0.046891198
0.002837535
-0.027809765
-0.05641414
0.053773794
0.06265068
-0.044844702
0.065384835
0.08965751
0.10758711
0.017399782
-0.018547414
-0.009088736
0.018298954
0.036993813
0.065575115
-0.004069307
-0.09624222
-0.06875367
-0.15873411
-0.060776114
0.0153717315
0.044734072
0.04658128
0.0048486926
0.09595537
-0.017308248
0.019643573
-0.03969895
0.0006854182
-0.08469608
-0.052132625
0.043312326
-0.06447559
0.0076941014
0.049283363
0.013327991
-0.054419413
0.00811126
-0.0031165492
-0.06910969
0.120488904
0.018946478
-0.054499358
0.010895832
0.09596387
0.064949244
-0.02958867
0.09828076
0.0055688075
-0.074334934
0.067905545
-0.08074768
-0.030059135
-0.043192606
-0.04378359
0.038637634
0.072354466
-0.04090039
0.03661808
-0.014014815
0.016522013
-0.03133474
0.07955149
-0.04550315
-0.009910655
-0.024329653
-0.08237575
0.044497397
0.005025068
-0.0592727
0.006731619
0.053896323
0.049487565
-0.044730015
-0.022439137
0.06144933
0.078909926
0.0018517846
0.0103482
0.084352925
-0.10998412
0.043848533
-0.22731541
-0.018200135
0.053136345
0.06736857
0.053160474
-0.085708946
0.10152495
0.011659735
-0.06101392
0.054208323
0.10117379
0.042390645
-0.05840736
-0.0461259
-0.03570396
0.024734877
0.06961593
-0.014895981
0.07368987
-0.007283729
0.018422855
-0.09478218
0.018133787
-0.016368162
-0.014133594
0.07040177
-0.06209982
-0.0058998545
-0.009478794
-0.007763217
0.003939405
-0.057956047
0.060158752
0.034367297
-0.101777904
-0.06477563
-0.050999027
-0.044161465
-0.05927307
-0.029540747
0.055759575
-0.028157987
-0.15109129
-0.030759647
-0.024598587
-0.047542945
-0.0030762763
-0.00019727377
0.056083504
0.075737156
0.10501123
-0.04987811
0.032405596
0.15582858
0.09242744
0.11381795
0.042456787
-0.016775593
-0.05698468
0.010648698
-0.09121935
0.110294744
0.16905378
0.048957553
0.08513636
0.072174534
0.08507958
0.048698846
0.048557952
-0.038491998
-0.02412612
0.018690161
-0.05238871
0.12363843
-0.037802994
0.094854236
-0.0626611
0.066288516
0.24105741
-0.052323647
0.036180153
-0.16807917
0.033806704
-0.08353322
-0.016033988
-0.14433487
-0.21893167
-0.08898534
0.08593383
-0.0054536145
0.03768895
-0.051663574
-0.15022689
-0.09964595
-0.020864379
0.015105989
0.08152354
0.1667536
0.12832624
-0.038613617
-0.13469803
0.07523179
-0.026543915
0.09452679
-0.019028516
-0.15903488
0.023697743
-0.06890806
-0.028188882
-0.06754486
-0.09542414
0.09334218
0.096119724
-0.15759727
-0.18157513
-0.09126283
0.089687645
-0.00289127
0.045172147
0.047239095
-0.07068723
-0.049963824
-0.037583124
0.03233391
-0.03159411
-0.02394147
-0.0673284
0.027022135
-0.13049455
0.0024113713
0.07013775
0.0003557245
0.0714335
0.0010077761
0.14424354
-0.072329864
-0.025494898
0.012935864
0.10594374
-0.06360187
0.0041234554
-0.072719134
-0.0019682983
-0.015686585
-0.040955566
-0.07088688
0.08883744
5.411739e-05
0.08620293
-0.11909791
0.12512004
-0.0860617
-0.061078783
0.03396636
0.031534325
-0.059116613
-0.0048994655
0.042336598
0.015268189
-0.0032501032
0.034108274
-0.010723097
-0.04501898
-0.048525706
-0.07072828
0.0049451343
0.049433928
0.03720161
-0.06376218
-0.010684944
-0.10332258
0.053376794
0.03185572
0.034346413
-0.06553557
-0.010293822
-0.041182913
-0.028817924
0.0044019176
-0.12602799
0.052645404
-0.016772006
0.10596817
0.028512307
-0.051379126
0.021899244
-0.019128172
-0.067938514
-0.00028469117
0.072910234
-0.01589537
-0.0006794655
-0.19094308
-0.0138347475
-0.007962249
-0.04962502
0.0096593145
0.055422753
0.11186226
0.012224211
0.022323363
0.063089125
0.056208704
-0.027595552
-0.016754063
-0.0030110648
-0.005378575
-0.058728486
-0.001741611
-0.039792906
-0.03198504
0.004508145
0.09730521
-0.11684892
0.09500425
-0.04367701
-0.08266735
-0.031489745
0.002678503
-0.020749882
-0.03696354
-0.07627643
0.058983117
-0.042213973
-0.0114698345
0.06001664
-0.039708328
0.018067097
-0.100933015
-0.07467674
-0.03085509
-0.08909912
0.04693496
0.086331606
-0.101070225
0.03338461
0.03823259
-0.022216693
-0.054810643
-0.071162224
-0.053754404
0.07739661
-0.022460384
-0.014757411
-0.036956314
0.102305554
-0.02222601
-0.00657171
-0.07720821
-0.05410871
0.036417354
0.041984737
-0.015331349
0.06630777
-0.07341718
0.016633788
-0.20826754
-0.043525994
0.08939861
0.06481706
0.0055705165
0.042497568
0.120266
0.017844072
0.077263586
-0.0891158
0.03635427
-0.101611264
-0.00570012
0.0139074875
-0.0034249243
-0.0039345114
0.032954577
-0.013107259
-0.044892333
-0.12053145
-0.007050579
0.049677435
0.016591884
0.042917393
-0.022537902
0.021901125
0.060300134
0.011837749
-0.02261621
-0.011837389
-0.08791686
-0.07416195
0.03134173
-0.09339669
-0.02042792
-0.062213473
-0.010033918
0.030106073
0.02307317
-0.10379859
0.039187826
0.04836947
-0.021611195
0.06304893
-0.02205596
0.07058828
-0.053648215
0.023093356
-0.005297867
0.013412346
-0.026601266
0.010780387
0.045405377
0.097708695
0.102329545
0.051101904
-0.040458724
-0.020263866
0.08886021
0.03797218
0.016244056
-0.042860173
-0.08157243
0.028611211
-0.20378822
-0.052137494
0.032362398
0.05643342
-0.040562145
-0.024009414
0.14389385
-0.06835462
0.021654267
-0.063890174
-0.0017479556
-0.04392516
-0.059810497
0.01504757
-0.05462537
0.052926164
-0.036739066
-0.052164283
0.067304075
-0.0049081887
0.0178539
-0.026803283
0.11313774
-0.0128551265
-0.005183812
-0.033363465
0.009247183
-0.023476802
0.08583113
0.0650676
-0.046878852
0.034186836
0.07856329
-0.07924805
-0.0673274
-0.023348004
-0.035818774
-0.014666198
-0.022197384
-0.028416155
0.045608073
-0.004469843
-0.04102263
-0.026066717
0.039726824
0.0059194556
0.026401713
-0.037071433
-0.08484435
0.039619654
-0.02081861
0.02426899
-0.027937634
-0.0455144
0.059090447
0.046617705
0.08523141
-0.064489305
0.09926912
-0.08163221
0.09053314
0.0934512
0.036238298
0.039381664
0.011463338
-0.0496649
0.025626162
0.085457
-0.05935879
-0.019896764
0.01778491
0.025076123
0.030336248
-0.055961356
-0.012355239
-0.03859622
0.03298802
0.016852483
-0.005846516
-0.035229497
0.043018915
0.038204696
-0.10969194
-0.08314199
-0.0398045
0.03713499
-0.06448949
-0.008151807
0.15187299
-0.047239415
0.12551643
0.088652395
-0.10090905
0.048560478
-0.11935436
-0.12489331
-0.17690821
-0.004908056
0.01956256
-0.028972248
0.020601671
0.12494277
0.018477473
-0.055751402
0.1153271
0.007107549
0.039577786
-0.09797334
0.20314777
0.07391113
0.034522414
-0.08797917
0.048163295
-0.039032962
-0.024801543
0.14096355
-0.036728606
0.009553827
-0.010185237
0.016927483
0.013833778
-0.049964633
0.00092028873
0.027942093
0.052661378
0.04094983
-0.13017493
-0.018423563
-0.09989322
0.014428289
-0.04696328
0.08996664
-0.0027130607
-0.0021736
0.058954284
0.04781879
0.101233974
0.0022216619
-0.047554508
-0.07304052
0.0052047144
-0.08819911
-0.069146544
-0.063500054
0.09959979
0.018588034
-0.03688215
-0.061498437
-0.010497732
0.042599972
0.08893582
-0.014113609
0.06044853
0.0066188094
0.012745285
-0.016085627
-0.0449166
-0.010664963
-0.030415446
0.038967166
0.015912425
-0.097426444
-0.09531439
-0.004191925
0.058580834
0.046137925
0.095862076
-0.10276464
0.027634544
-0.05987994
-0.056585055
-0.06334991
-0.010947689
0.054964583
-0.0060793348
0.05229719
-0.021111134
0.08616201
0.06495333
0.058479514
-0.050906137
0.07981511
0.07152387
0.056118138
0.042899188
0.04189546
-0.036445376
0.09285848
-0.039206617
0.008421788
0.038331896
0.032719176
-0.111588016
0.09031349
0.080558255
0.071809545
0.0759862
-0.04311625
0.12008117
-0.023365384
-0.08541028
-0.024577878
0.11632015
0.052976444
-0.10696618
-0.008312265
0.113042906
0.0015673169
0.065276794
-0.072568245
0.08297787
-0.07570791
0.041687876
-0.1344896
0.11960601
-0.03296321
0.017840995
-0.00579414
0.0041619353
-0.03129557
-0.040174663
0.01942778
-0.010512148
0.002143675
0.049673304
0.012491418
0.028510615
-0.10340108
-0.07800409
-0.0038294315
0.011811998
-0.0034149357
0.0558145
-0.035087958
-0.105352424
0.0623907
-0.014377389
-0.016186759
0.007914568
-0.025286818
-0.051263772
0.023237955
0.06740278
-0.11368176
0.06108495
-0.018414982
0.12300819
0.034880634
0.009058715
0.012076217
0.016997218
-0.0327848
0.03886863
0.06319222
-0.012352434
-0.06282205
-0.12944655
0.095799975
0.03244579
-0.006084047
0.028137596
-0.048364997
0.111074395
-0.09400122
-0.07165624
-0.059394818
0.031517852
0.044005454
0.0016163622
-0.07704487
-0.0060602743
-0.041752122
0.03354496
-0.082139224
-0.030287856
-0.07749914
0.0026567879
-0.09565352
0.015149964
0.012742609
-0.06491356
0.06957092
0.060395986
0.020595048
-0.0536138
-0.059220836
-0.03732691
-0.054908164
-0.040169425
-0.017788772
-0.073970534
0.033998657
0.020825185
-0.017032696
0.0326341
-0.059914064
-0.0072691054
-0.040245537
-0.15815616
0.029698927
0.06294276
0.04912624
0.04265974
-0.01607435
0.06805549
0.0027129513
0.10538464
-0.06112116
0.077804975
0.03509015
0.103161626
0.006906404
0.02788609
-0.002527003
-0.0377273
-0.018661644
-0.0244431
0.051401477
-0.084424846
0.059973776
-0.18440576
0.10696729
0.013962552
0.014522899
-0.05873413
0.072788306
0.13944979
0.018499283
0.0058440617
-0.054934725
0.04589416
-0.020139609
-0.0066220597
-0.03694421
-0.045258425
0.0068846336
-0.04301276
-0.0952407
0.029103678
-0.05428696
0.032894406
-0.024242477
0.10664183
0.03271321
0.005831732
0.03894197
-0.016672932
-0.02494845
-0.040750414
-0.027804222
-0.09021492
0.082091354
-0.05175328
0.053963624
0.046608232
0.053269412
-0.062159304
0.024547916
-0.021091633
-0.059367664
0.03736684
0.020111736
-0.040379673
-0.052529987
0.019846912
0.015634427
0.04640493
-0.0014231175
-0.02914801
-0.017397882
0.020367935
-0.041492704
-0.0039251037
-0.062358923
0.033158068
0.042562272
0.1300017
0.08093933
0.018302536
0.025790155
0.018990582
0.06264333
0.09579816
-0.036475975
-0.03465151
0.07312234
-0.01655462
0.12891737
-0.0533732
-0.03885916
0.016420262
-0.0086219795
0.07172084
-0.08653962
-0.0037533476
-0.03868989
0.018890612
0.06901868
-0.17328618
-0.021007147
0.07408443
-0.0051746797
-0.022751363
0.106338695
0.0018485085
0.044704396
-0.019576965
-0.00486768
0.0809343
-0.046012875
0.124729194
0.051315483
-0.039928474
0.002017862
-0.068482324
-0.04582606
-0.22051291
0.052918404
0.042751316
0.007341764
0.012859487
0.06407859
-0.029674584
-0.037945427
0.10053534
-0.056221176
-0.07083373
-0.071921885
0.11675614
0.04293821
0.03815368
-0.09444815
-0.028562477
-0.07321864
-0.044168845
0.17145571
-0.022543365
0.041296538
0.1388141
-0.14126106
0.06515888
-0.042793225
0.06332253
0.11804606
-0.04859148
0.028882407
-0.08155681
0.025361195
-0.21414877
0.110077664
0.23793615
0.018909076
-0.019702235
0.08315753
0.17067032
0.06560958
-0.17980939
0.0077877427
0.103780314
-0.19332488
-0.018039424
0.050465155
0.030536821
0.00074377464
-0.13229753
-0.1456976
0.07679572
0.088009655
0.031310387
0.06787231
0.12102949
0.01102746
-0.033015754
0.14376433
-0.06702088
-0.042859416
0.06279251
0.069883905
-0.12975353
0.11816722
-0.08305603
-0.055048708
-0.077305906
0.08767316
-0.06911605
-0.016865084
-0.012436035
-0.045531698
0.068553574
0.016407182
-0.034340713
-0.056776807
0.01802754
-0.046760734
0.11249241
-0.04367448
-0.03720943
-0.03626908
0.1649432
0.034152653
0.09189593
0.089581974
0.117552385
0.010185905
0.02687103
0.008701578
-0.030375762
0.029504135
-0.06242761
0.088073626
-0.09580929
-0.038674008
-0.18498424
0.027180208
0.029746974
0.03778205
0.018531865
0.062490158
0.061337326
0.052580763
-0.037272394
-0.039429415
0.014473426
0.043319196
-0.010157733
-0.056840565
0.009015389
-0.01871005
0.07087971
-0.10907293
0.032175645
0.04421223
-0.009190325
-0.033774342
0.072030835
0.05015653
0.036521334
0.0038432283
0.027150761
0.046303783
-0.031814173
-0.07870489
-0.08682589
-0.0023576047
0.0448676
0.052576844
0.013294003
-0.04823364
-0.08559482
0.06021178
0.058418978
-0.101082385
-0.06716266
-0.05363096
-0.16818455
-0.038137868
0.0405443
-0.06573563
0.055212855
0.021144984
0.0051870537
0.047563568
0.10594959
0.021919377
-0.036505017
0.049293704
0.12845409
-0.04629516
-0.05637114
0.04967039
0.043056004
0.006444525
-0.058296733
0.07456793
-0.106132954
0.03335301
-0.24373169
0.08447371
-0.0012918381
0.0869739
0.019836519
0.05131567
0.043868348
-0.0015899509
-0.019539407
-0.066025615
0.052662343
0.047172114
-0.027332118
-0.084343545
-0.050276093
-0.0020458663
0.051185127
-0.06578107
-0.031118104
0.04236793
-0.033167645
-0.013184226
0.14235933
-0.039600078
-0.032875247
0.053177837
0.03861269
-0.0083786715
0.09350656
-0.021518508
0.054371975
0.00093179854
0.08229841
-0.044807043
-0.07975533
0.011693432
0.05457362
-0.049000192
0.047751132
-0.07325054
-0.058332197
0.060976394
-0.0019959165
-0.03617127
0.034660585
-0.00873391
-0.06331401
0.023188435
0.006300861
-0.036269333
0.037034195
-0.11371582
0.07614729
0.06862853
0.063231446
-0.0063144653
-0.06969722
-0.039975937
-0.0015729759
0.09588917
-0.0016369375
0.07966107
-0.115467876
-0.051010232
-0.12517141
-0.0066061653
-0.05484815
0.05711417
0.00023439675
-0.08581108
0.145541
-0.02626129
0.040704392
0.024813082
-0.01623808
0.021633683
-0.03568244
-0.104251035
-0.0054708724
-0.012209317
-0.01773804
-0.085942715
0.060778834
-0.046251792
0.003041203
0.0054415422
0.12589239
-0.042912893
-0.06144718
-0.003674068
0.003630363
0.028565602
0.023614354
-0.042611167
0.040528156
-0.05747082
-0.018551718
0.051846053
-0.07911764
0.048090357
-0.03924156
0.034437962
0.026279598
0.0068482496
0.058112875
0.027393643
-0.14630517
-0.041934066
0.02613879
-0.014336782
0.06321573
0.0010575848
-0.050308496
0.005962313
0.06055148
-0.059041876
0.04876861
-0.008279373
0.11464744
0.047742557
-0.01140569
-0.011771263
0.07076766
0.0035784333
0.033999316
0.065745145
-0.03475249
-0.059258815
-0.26272812
-0.02397853
-0.016347317
0.0958953
-0.05406375
-0.05740105
0.15157235
0.012172022
0.022622323
-0.07833098
0.05499241
-0.03877941
-0.07507879
0.012746732
-0.057310745
-0.02684765
-0.014015114
0.0025115083
-0.05725593
0.025293851
0.094001815
-0.048914894
0.08237547
-0.021404793
0.03631709
0.07495103
0.029070321
0.07267427
-0.014606785
-0.061914723
-0.100257464
0.024866197
0.029978614
0.008500509
-0.0093831085
0.04254712
-0.06367981
-0.05603762
-0.059766933
-0.01775653
0.069600545
-0.027123656
-0.100349866
-0.06970571
0.04871179
0.04429392
-0.021447921
-0.04934557
-0.048836496
0.09013822
0.016367385
0.01556035
0.086050205
0.12047535
0.06824095
0.055884454
0.07951864
-0.048254665
0.05054794
0.10534258
-0.052419174
-0.008956334
-0.067571595
0.005309947
-0.18427381
0.04342321
0.043098126
-0.016673218
-0.047396317
-0.03426671
0.055360794
0.0052955407
-0.03407283
-0.019758832
0.050261308
-0.0067440253
0.023449263
0.05782777
0.096217185
0.040189434
-0.0024209986
-0.0025448387
0.02254284
0.026779782
-0.0007584107
-0.116852656
0.04985892
-0.06958293
0.034269955
0.12525393
0.02683361
-0.07011309
-0.054203797
-0.0072405413
-0.015067317
0.042336468
0.07613454
0.08730348
0.009250568
0.02649831
-0.07148438
0.04614198
-0.062270783
0.046020694
0.05974227
-0.009512765
-0.015648456
-0.06213677
-0.028520452
0.07656025
-0.019058444
0.091297105
-0.018952586
0.0054285917
0.037108466
-0.049923576
-0.026572747
0.08484313
0.10583762
0.033319727
-0.029166829
0.0011273517
-0.07860591
0.12720281
0.021946887
0.0672824
0.034895334
-0.03482953
-0.13267946
0.052838936
0.06528639
0.007175816
-0.01905083
0.010272328
0.11067306
0.014319439
-0.08754646
0.056270964
0.04476668
0.085778065
-0.049582884
-0.0039023953
0.088305674
-0.07526523
0.063745156
-0.052809
0.037609566
-0.024036814
-0.05655234
-0.035421982
0.07826707
-0.11165124
0.010609086
-0.014987387
0.007944236
-0.04871872
-0.010481586
0.015426687
-0.025641363
-0.060951013
0.063666634
-0.0528642
0.048500262
-0.02537044
-0.026105383
-0.01273745
-0.058349542
0.025416784
-0.064540856
-0.049392175
-0.042763762
-0.0068459706
-0.06867859
0.0069179754
0.023856044
0.098404564
0.019590583
-0.08019783
0.0698299
-0.04457302
0.118682034
0.05491656
0.17677921
-0.056741618
-0.06972123
-0.047529545
0.10481423
0.04912472
-0.01253948
0.024621695
-0.07672641
0.043907788
-0.18957643
0.09951467
0.22387332
0.065649405
-0.07520701
-0.0038378572
0.16853486
-0.03118838
-0.19615164
0.007005779
0.14612025
-0.13203621
-0.13673584
0.013134966
-0.026851285
0.034162935
-0.06825751
-0.09668093
-0.03404525
0.051210135
0.12371908
-0.006915578
0.070334956
0.09953279
0.0024284567
0.07883316
0.059922155
-0.036067776
0.09977055
0.07489531
-0.19613324
0.048849087
-0.035721786
-0.084676534
-0.031486716
0.07269085
-0.10580194
0.040703528
0.04005679
-0.15970568
-0.005975227
0.03297993
-0.11835627
-0.03541538
0.089612305
-0.06297065
-0.0017961016
-0.048182487
-0.04659588
0.07487443
0.10883251
0.14689708
0.0492144
0.078706145
0.05253851
-0.035768356
0.049024493
-0.044065893
-0.053291608
0.08723678
-0.00850181
-0.0018959169
-0.087671235
-0.020924142
-0.20409693
0.119559884
-0.041162413
-0.020463374
0.032468934
0.043829534
0.022316236
-0.022302758
-0.10420445
-0.014639791
0.043404263
-0.049530394
-0.09715279
-0.000118639284
0.09226875
0.0268497
0.0023423666
-0.0768084
-0.044264697
0.0118080955
0.0137794325
-0.017699335
0.021683348
0.04141931
-0.036581755
0.08758912
-0.0071736635
0.0075912084
-0.026799008
0.016726417
0.013043702
-0.06401037
0.02080796
-0.03407058
0.047258962
-0.0143822115
0.023383552
0.025249166
0.04873547
-0.07757295
0.014595123
-0.005488191
-0.07207023
-0.077318154
0.066488
-0.00955284
-0.008280051
-0.023435505
-0.07070644
0.054655857
0.08679943
-0.07703401
0.006150412
0.10587735
0.018759267
0.061564673
-0.01805864
0.009676574
0.02584627
0.0725645
0.026915373
0.095839754
-0.08429581
0.05094775
-0.18322393
0.072591364
0.06277876
0.045609385
0.011212162
-0.038732126
0.027228968
-0.012873575
0.073512375
0.0033275324
0.049549263
-0.012025987
-0.07945239
-0.01846452
-0.029540792
0.042077687
0.008304456
-0.05586805
0.042339694
-0.073972754
-0.04686582
-0.057535633
0.07587133
-0.013958707
-0.074948035
0.101373754
0.049894374
0.063133426
0.005047569
-0.013281312
0.003197692
0.025201032
0.08710261
-0.06813959
0.0050216713
-0.045412686
-0.0059652408
-0.0341228
0.025347793
-0.09080633
-0.045621492
0.06628272
-0.14996575
-0.031547785
0.008581069
0.023614055
-0.006352177
0.06006462
-0.0051991423
-0.044228308
-0.013561219
-0.03215512
0.055974647
-0.03417868
0.036888428
0.042008713
0.038101077
0.060159933
-0.053025436
0.047808647
0.04876422
0.0704199
-0.03875349
-0.11445977
-0.033691555
0.03978837
0.076487884
0.024507709
0.14333478
-0.14246231
0.091860645
0.118456975
0.061044052
0.031635877
0.106527045
0.063611574
-0.08279352
0.020240966
0.10635283
-0.024088116
0.007865333
-0.09357189
0.046553597
-0.058912646
0.1560256
0.014903289
0.15717639
-0.026599454
-0.0563212
-0.038062207
-0.12674879
0.052165415
0.079883136
0.0619619
0.13434885
0.05446202
0.15700047
0.13047864
-0.14990076
0.061569016
-0.017652227
-0.09585554
0.070888124
-0.040556367
0.013312308
0.13699698
0.010543469
0.09820032
0.014549226
0.063074894
-0.11019648
0.073201515
-0.03682351
-0.08434492
0.032238644
-0.09275259
0.07640468
0.021687277
-0.017085224
-0.04768425
0.08111847
-0.044826146
0.008515551
0.026542583
-0.039363652
0.047467478
-0.087955914
0.087837785
-0.2005788
0.07542651
0.09271811
0.055780575
-0.06256531
0.08354699
0.24686255
-0.05583612
-0.10908351
0.062598236
0.25476176
-0.20850866
-0.14658627
0.08167503
0.05041163
0.15121421
-0.054833088
-0.100902684
0.11399308
0.033716626
0.070003055
0.026242485
0.064022385
0.04887067
-0.06733188
0.13533817
-0.07213001
0.023542233
0.042826414
-0.08472877
-0.12894718
0.130126
-0.072642475
-0.0058782506
-0.005072749
0.03541682
0.010919202
-0.11729793
-0.034047626
-0.0935702
-0.10575249
0.09187381
-0.020713398
0.06438945
0.049668226
0.044030793
0.07842748
-0.097421385
0.0023282515
-0.03132342
0.09035128
0.11329788
-0.0047235014
0.04094087
0.013802597
-0.011934476
0.0024804731
0.053891513
0.040988468
-0.012084715
-0.016276577
0.072060265
0.023324627
-0.072196566
-0.20799053
0.046344437
0.10435186
0.013798375
0.08283523
-0.09480162
0.06391872
0.042219024
-0.01191137
-0.046810612
0.04586265
-0.003854771
-0.027029442
0.054382663
0.061123252
-0.0042286036
-0.04379328
-0.10025852
0.050044075
-0.04680699
0.100006886
-0.015741091
0.008114534
-0.016273683
-0.05458912
-0.014310816
0.07310176
0.06100928
0.02708774
0.0037245248
-0.060624544
-0.070136204
0.072968915
-0.024858044
-0.07313252
-0.04929879
0.059601627
-0.036349375
0.03403169
0.033045072
-0.012518374
0.014756721
-0.10650691
-0.0012312467
0.053888373
0.022799432
0.05998379
0.08739326
-0.04513114
0.036504947
-0.03230642
-0.15108472
0.07690076
0.024878817
0.11166831
-0.03883402
0.00036285332
0.07339395
0.0034164197
0.016854515
0.0045370064
0.07120061
-0.10527895
0.05285561
-0.21039103
0.066008516
-0.037611924
0.015871854
0.03538943
0.01879314
0.12185227
0.018681047
0.09629856
0.026065264
-0.039656274
0.040469483
0.014987157
0.026786368
-0.043250106
0.069785476
-0.030874139
-0.012367649
-0.02015755
-0.027808642
0.07218648
0.01728419
0.10835892
-0.048691887
0.038071755
0.00030927086
-0.013223677
-0.05379257
-0.0012683594
0.029525723
0.059341926
-0.04882336
-0.00069164747
-0.04122212
-0.10594137
0.075686075
-0.045024812
0.045757964
0.032397095
0.028949892
-0.06443803
0.028669149
-0.120675124
-0.021631585
-0.04301442
-0.028253227
-0.03617416
0.07200899
0.022394095
-0.0025131993
0.05670787
-0.04986641
0.049679205
-0.013776815
0.02700747
0.012958661
-0.0181973
-0.07430503
0.05917123
0.011141354
-0.0522343
0.081238024
-0.08060152
-0.04609129
-0.12265257
0.0028490967
0.04771096
0.08551009
0.053075407
-0.027894668
0.09935945
0.031739693
-0.01900054
0.0035503153
0.051380146
-0.026261453
-0.0012595238
-0.09461983
-0.07079199
0.044367157
0.0033680364
-0.052828398
-0.041955404
-0.014521944
-0.035766456
-0.029325692
0.072828025
-0.033853684
-0.013425567
-0.037760906
0.009020882
0.05835761
-0.040636092
-0.06731676
0.07087451
-0.047902554
0.031492457
-0.020604003
-0.047164317
0.017571568
-0.0028089164
-0.038366277
0.014321146
0.015198556
-0.07522689
0.0060462845
-0.067688204
0.055285096
0.0722782
-0.043751698
-0.029363248
-0.039529506
0.029590104
0.01924125
0.005916219
0.021155426
-0.034142107
0.07835815
0.00012145757
-0.018453365
0.031388134
0.046151675
-0.04698549
-0.02930331
-0.016697511
0.1013205
-0.05636884
0.061501447
-0.14536244
-0.0144135775
-0.048051145
0.0028020185
0.056837797
-0.033114318
0.11043832
0.0018427086
0.081474535
-0.055478945
0.08635853
0.029262668
0.008687839
-0.033637177
0.0155858155
-0.040125165
0.044303752
-0.009923292
0.0802997
0.005593426
0.06877052
0.05344124
0.11064974
0.011419391
0.034407035
-0.019982597
0.04115251
0.06625806
-0.012955143
-0.031394165
-0.07976871
-0.023132699
0.0447836
-0.043005306
0.0028739823
0.0606909
0.02627225
0.01772076
-0.048603874
-0.056642566
0.047794335
0.03647514
-0.07677406
-0.030905783
0.094512165
0.004200814
-0.046662815
0.011945197
-0.057367094
0.079645686
0.008714034
0.039144058
-0.012140793
0.11092942
0.057795707
0.029384632
-0.0040303785
-0.0146954395
-0.15002654
0.021279769
-0.087343164
0.03672312
0.07280008
-0.074348226
-0.011935341
0.03331208
0.1402507
-0.051125318
0.13459064
-0.09666837
-0.05814223
0.13065168
-0.06268377
0.14467978
-0.024233513
0.15573157
-0.014356429
0.04531331
0.2620039
-0.19202812
-0.07628585
-0.1453693
-0.017702153
-0.06778053
-0.0031759378
-0.06835102
-0.12233894
-0.20148198
-0.026390566
-0.013269143
0.048005242
-0.058770847
-0.13360004
-0.054368872
0.060649954
-0.09662385
0.12368979
0.10703493
0.08162439
0.022799565
-0.06375348
-0.0006527842
0.017888566
0.05921361
0.04052066
-0.11429923
-0.06594114
0.036864355
-0.12675214
-0.09851362
-0.13931082
0.13220875
0.068348326
-0.21606503
-0.13185738
-0.16866204
0.18640874
0.14968668
0.1521607
-0.05447739
0.016023913
-0.014046359
-0.023619773
-0.03716179
-0.054474663
-0.03671818
-0.012172049
-0.023375146
-0.16371913
0.120250344
-0.07221502
0.008421525
-0.09276611
-0.015931128
0.09425629
-0.04258883
-0.10413989
0.019604731
-0.059277542
0.06577279
-0.06276242
0.03500377
0.105606765
-0.0056637204
-0.056337066
-0.068107
-0.03750021
-0.038026188
-0.037883755
-0.12476104
0.09143863
-0.13089877
0.067710154
0.08114717
0.037574187
-0.056919184
-0.08686139
-0.068809256
-0.0511594
0.068330385
0.067981996
0.0786373
0.03617338
-0.038328063
-0.040112767
0.09152262
-0.0052441703
-0.05293672
-0.043459635
-0.05083302
-0.0034965929
-0.020358382
-0.06505328
-0.053060185
0.03926028
0.007639051
0.021610448
-0.019329214
-0.0002900535
-0.094649084
0.04270523
0.110189244
0.030584846
0.04283169
0.03191693
0.059294872
-0.022044549
0.034756146
0.05175071
0.061983265
-0.09003734
0.070560515
-0.21778533
0.07241584
-0.029774174
-0.045278527
-0.060195643
0.054939043
0.091113195
0.0187549
0.023326823
0.03751061
0.048379906
-0.073310085
-0.09151442
-0.033979017
0.044291265
0.084190115
0.023294227
-0.008159878
0.006288791
0.01904565
0.0978463
-0.069862664
0.022342404
-0.047853578
0.004073545
0.018884087
0.025481332
-0.03983741
-0.019748364
-0.0016213682
-0.0003892733
0.05897922
-0.0053549665
-0.024569355
-0.0923404
0.0002657032
-0.025278192
0.04896901
-0.013964508
0.00036342812
0.052243095
-0.025799837
-0.09499769
0.026090179
0.075520955
-0.010495013
-0.056277838
0.048316855
-0.027925031
0.04316561
0.049356256
-0.00385664
0.07564492
0.059242208
0.12156683
-0.091819435
-0.019375313
0.06799707
-0.0007603942
-0.027489226
0.059051815
0.016930016
0.012494717
-8.661923e-05
-0.24703383
0.040758044
0.0054348977
0.013370911
-0.039810173
0.07886561
0.17082271
-0.02392209
-0.13252816
0.01652721
0.06813233
-0.047035113
-0.056641936
0.056812514
0.03278064
0.01957464
-0.04936414
-0.019344153
-0.027870607
-0.03376654
0.013634475
-0.106652945
0.10623897
-0.013073874
0.03287117
0.14326636
0.05035306
0.069884464
0.015832197
-0.06171441
-0.04758809
0.00680512
-0.06563616
0.08587745
-0.03634447
-0.03713981
-0.12761565
-0.045870647
-0.0503326
-0.05489639
-0.061641958
0.07636688
-0.03225826
0.05111294
0.037922878
0.011579547
-0.05401673
-0.04678948
0.07995644
-0.030487102
0.029995972
-0.12700662
-0.074835
-0.048623454
0.06859456
-0.046151772
-0.028164286
-0.032597132
-0.007362791
-0.07298681
0.111056745
0.012694069
-0.11050747
0.10160775
-0.04461352
0.03894179
0.07292901
0.047884144
0.015971195
-0.021426793
0.08836411
-0.021563724
0.09832978
-0.06791753
0.057209276
-0.0059010126
-0.05139666
-0.014771069
0.010228017
0.07412543
0.043707557
-0.0010802135
0.023487734
-0.0497076
0.10478781
0.03776117
-0.0077850074
0.10063751
0.038958065
-0.008466996
-0.05667214
0.016839277
0.010837243
-0.0027936483
0.008942484
0.0635328
-0.06879188
-0.022768874
-0.08606534
-0.033861008
0.02881657
0.057299204
-0.04531604
-0.11860878
0.012168012
0.037963863
-0.047316134
0.04016262
0.11397567
0.064706445
0.020688137
0.016620407
-0.022543818
0.04935203
0.049454622
-0.053897273
-0.06474968
0.01279011
0.033507567
-0.023088451
0.014077235
0.016683571
0.05154456
0.07085221
-0.024609389
0.032037966
-0.029553907
0.016990386
-0.24417639
0.07772564
-0.037012383
0.077124104
-0.022895716
-0.06742835
0.020541286
-0.032383513
0.03935704
0.029974015
0.032295164
-0.07302552
0.013617411
-0.041957352
-0.0762199
-0.07236497
-0.017128926
-0.09568551
-0.008467394
-0.013671411
0.019041996
-0.04113971
0.09790159
-0.075029075
-0.057527978
0.033628955
-0.035003446
-0.0031418626
0.000120153854
0.029630857
0.044808924
0.019868514
0.020079225
-0.022513919
-0.036767907
-0.07704383
0.0018205696
0.0038125736
0.021614498
-0.0028051727
-0.0038184577
-0.015278048
-0.036843248
0.039817683
-0.016017357
0.017391816
-0.036422007
-0.005714245
0.007855572
-0.008260613
0.091689155
-0.1055821
0.051203262
0.017705718
0.15296628
-0.02307564
0.027725147
-0.03308384
0.08365123
0.10120601
0.07030187
0.005797804
-0.11708171
-0.028267527
-0.13606533
0.011676919
0.23083879
0.04270578
-0.04920212
-0.004630305
0.052738015
-0.0013124124
-0.1969909
-0.04340414
0.12950759
-0.19969666
-0.10577991
0.06192848
-0.091463804
-0.017538285
0.011830371
-0.12257093
0.04938188
0.0011630201
-0.003292473
-0.015455086
0.102347724
-0.06792829
0.03559444
0.053981226
0.07328357
-0.07513573
-0.020860497
-0.0011415475
-0.15384649
-0.017113658
-0.059394713
-0.05147845
-0.106317796
0.089578
-0.029048173
0.018526258
-0.0115080485
-0.14987838
0.11817243
-0.017587895
0.017008008
0.009760039
0.0039340644
-0.03128292
0.008297061
-0.020057915
-0.01809545
-0.072727695
0.09594264
0.106705315
0.09254437
0.083417796
0.03503513
-0.06627921
0.02944419
0.014069945
0.045899265
0.046309143
-0.075116254
0.08047971
-0.11900754
0.022068586
-0.24432784
0.0546876
0.019038206
0.013314603
-0.054819256
0.05652323
0.065888405
0.018757029
-0.02642831
0.050265864
0.08192122
-0.063321404
-0.10014855
-0.0054951073
0.039807335
0.029839873
-0.016809037
-0.008767172
0.07788802
-0.09227299
-0.008014031
-0.074718595
0.100720555
-0.06902956
-0.08129406
0.00036570182
-0.06781636
0.054349296
0.018388513
-0.021895858
-0.034804564
0.05322959
0.05517668
0.045942344
-0.07735848
0.0032902726
0.015651472
0.04163329
0.040160533
0.03139357
-0.054939196
0.057845093
-0.096317776
0.025135143
0.021372989
0.057104014
-0.052635994
-0.021404456
-0.043116648
0.026825467
0.013213909
0.03411019
0.020829856
0.03671544
0.10569976
-0.016114673
0.017703608
0.0025313182
0.052519873
-0.039636355
-0.058024295
0.097181395
0.029240258
0.0018862624
-0.1342927
0.08935518
0.0037598633
-0.04852248
-0.11834083
-0.011733503
0.09569749
0.00835288
-0.12972565
0.09133723
0.061043996
0.08206327
-0.05521383
-0.049136624
0.13743806
0.099012434
-0.09027901
-0.14451459
0.027015463
-0.014294173
-0.06282649
-0.15164177
0.11266777
0.029370518
0.05186955
-0.0010029557
0.005981216
-0.023383005
-0.06108483
-0.11252055
-0.08336785
-0.023657443
-0.027455276
0.0034267663
0.102587305
-0.06341007
-0.06929287
-0.010447395
-0.012999066
-0.06144521
-0.02114547
-0.06266918
0.068784215
-0.006605017
0.015082276
0.014559918
0.010178149
-0.017456079
0.0020772393
-0.013610564
0.006630014
-0.05965677
0.024871895
0.04393638
0.07770385
0.03231458
0.033896018
0.089470506
-0.10973502
0.008533361
-0.11990743
0.04430094
0.08966207
-0.076918006
0.016109351
-0.001084194
0.18163738
-0.04958052
0.03475571
-0.10225951
-0.0915434
0.029311584
-0.13146365
0.08582498
-0.030629532
0.024883548
-0.14166723
-0.003174167
0.24223922
-0.097272374
-0.12140547
-0.15703891
-0.072930686
-0.1755131
0.00714931
-0.03226969
-0.09074354
-0.14751592
0.03778001
-0.0043509942
0.08523692
0.03965763
-0.1246476
0.029116599
0.11247376
-0.03616613
0.11801273
0.055169396
-0.041092306
0.06464493
-0.06880913
-0.0059838197
-0.04971498
0.021734778
-0.04042142
-0.13866545
0.0043215575
-0.016165007
-0.15994412
-0.0806038
-0.05994584
0.14279237
0.020188916
-0.11404312
-0.1445668
-0.1909065
0.15797368
-0.08162175
0.046044383
0.079763256
0.080710396
0.11428821
0.06110079
0.043762445
0.07033813
-0.011609324
0.03126041
-0.0721905
-0.055367395
-0.042224504
0.04223941
0.0020294902
-0.08665873
0.012032431
0.03988173
-0.05993541
-0.006915851
0.13150546
-0.026210587
-0.017504921
0.009274148
-0.004258112
-0.099832624
-0.0063091107
-0.03241317
-0.01034312
-0.058633693
0.09117179
-0.0868947
0.076405264
0.0051837796
-0.014149373
0.043817956
0.03601311
0.11100659
0.0043091266
0.028430782
0.12043556
-0.061527878
-0.063337974
-0.11313507
-0.025582917
0.029706934
0.07164211
0.08570347
0.10852831
-0.018901566
0.09917478
0.11609924
-0.06771008
-0.037258033
-0.1783602
0.07667614
-0.04137582
-0.049354963
0.005931773
-0.078731604
-0.10984046
-0.017542236
0.237923
-0.022201074
0.0040958486
0.041649133
-0.09807487
-0.00082781457
0.048789714
0.002877147
0.079826556
-0.025487136
0.06557947
-0.07385699
-0.0033607788
-0.11864033
0.009730533
-0.06642329
0.08430281
-0.05471716
0.021386925
0.11647887
-0.061737712
0.08032192
0.017223347
0.022455322
-0.090106346
-0.037656438
0.009436422
0.06520032
-0.045122508
0.010703936
-0.097213835
-0.009917753
-0.0067782826
-0.036136445
-0.045648955
0.08994895
-0.005236855
0.049792897
0.084292695
0.0033981814
0.06589582
-0.04569308
0.028299049
0.021366436
-0.052550066
-0.052160867
0.018319825
-0.11135615
0.008379618
-0.066105336
-0.06157309
0.008445822
-0.09639606
0.038297616
0.020679893
-0.14655809
0.075774655
0.049807817
-0.025203511
-0.013860682
0.025419999
-0.053871688
-0.031654954
0.07428035
-0.060047474
-0.036112268
-0.017097814
0.024759827
0.031369943
0.059363943
-0.03140321
0.0512223
0.087707214
-0.028869404
0.016378501
-0.06713151
0.04329583
-0.15435927
-0.009528015
-0.077717625
0.06122902
-0.02882903
-0.04931233
0.17212896
-0.02213232
-0.07419372
-0.051481243
0.08979736
7.605914e-05
0.0010559662
-0.049944833
0.091631375
-0.037523303
0.026454685
-0.014609203
0.06344441
-0.05844538
0.0775482
-0.036881506
0.12611912
-0.06997822
0.039741296
0.09976976
-0.051494222
-0.01129846
0.015557417
0.047331095
-0.03783935
-0.032135535
0.08360156
0.028981237
-0.023017108
-0.03960812
0.018800845
-0.036725547
0.017825745
-0.064544976
-0.063805535
0.024541974
-0.18522206
-0.0052789846
0.08640779
-0.041504987
0.014352515
0.008564779
0.020590408
0.09143164
0.12057764
0.031149533
-0.028030083
0.066348635
-0.010205303
-0.035875667
-0.048497263
-0.026850423
-0.029128969
-0.033337418
0.008956705
0.102970205
-0.09824642
0.04698961
-0.24626988
0.0015296752
0.070888564
0.029717326
-0.03541453
0.025930947
0.0980453
0.041264728
-0.04894163
-0.01203661
0.100366324
-0.037986893
-0.06891566
0.024834538
-0.035699923
0.054596968
0.07102879
-0.07437199
-0.028204702
-0.050910965
0.08439285
-0.052418467
0.081036225
-0.06342924
-0.013093821
-0.009375505
0.027515173
-0.037484817
-0.019608032
0.0639828
-0.06003034
-0.06692099
-0.051905565
-0.049443312
-0.048044465
-0.043097205
0.016397716
0.017675182
-0.042292558
-0.03710616
0.06909874
0.062491618
-0.13053289
-0.0539013
0.09217608
0.05135392
0.04845756
0.0030571886
0.022393517
0.054291196
0.12116537
0.06310326
0.007399534
-0.049779885
0.0057642465
-0.15500687
0.084542476
0.022463083
-0.034014933
0.1262795
0.036598902
-0.08032035
-0.12639327
0.041030496
0.031721484
0.1549416
0.019519858
0.012899994
0.18652715
0.0587234
0.20916732
0.119036436
0.09813829
0.037743103
0.0831557
0.00941346
-0.04154758
-0.002801411
0.10528666
-0.06510261
0.0024497956
-0.08812266
-0.014064891
0.007544264
0.16959047
0.094082505
0.15563644
0.1057025
-0.072785966
-0.081956744
-0.10815195
-0.08696801
0.08725911
0.061720606
0.1089751
0.0960469
-0.052194137
0.13906181
-0.09821542
0.0071246815
0.05635552
-0.13318768
-0.0384879
-0.10632071
-0.035117038
0.17416145
-0.09715155
0.18725882
-0.04856467
-0.07080822
-0.048235238
0.11761939
-0.11896619
0.035260465
0.043815125
-0.06863203
0.053087614
0.05458276
0.06540327
0.035644047
0.0110434
-0.03207116
0.0074950606
0.0022958145
0.02680879
0.06657545
0.02177371
-0.017331004
0.029860072
0.038742468
0.009639956
-0.05659534
-0.00667198
-0.03187048
-0.047651015
-0.015662018
-0.016979374
0.06886187
-0.023964733
0.044390477
0.011342496
-0.046793435
-0.04583566
0.06294687
0.03612238
-0.05881398
0.0322105
-0.05189301
-0.06658987
-0.05799217
0.034840837
-0.06424893
-0.05820233
0.055085123
-0.024562348
-0.043264337
0.03189393
-0.016145587
0.03438466
0.03161677
-0.016460706
-0.032578386
-0.0543735
-0.06520882
0.026872613
0.037956327
0.038042113
0.030990548
0.05894476
0.05310075
0.010980785
-0.05230137
0.056227118
0.041518733
0.049769998
-0.044860885
0.06842309
-0.030245252
0.041761942
-0.04557374
0.009008311
-0.14804912
0.07338434
0.05844679
0.086632356
0.06825028
0.01635959
0.034622874
0.18123212
-0.0019282142
0.07790246
0.1049556
0.001540513
-0.031620998
-0.030935071
0.16181262
-0.14201745
-0.039789476
0.027123353
-0.105374336
0.04635942
-0.018641045
0.04377297
-0.038308956
0.08003588
0.0067742155
-0.04504696
0.10652848
0.020166539
-0.025089541
-0.02643502
0.020512622
0.046976488
0.015915388
-0.029800633
0.054916114
0.17296265
0.023999143
0.14486648
0.031112079
0.04725623
0.043155245
0.024916004
-0.12781113
-0.11667583
-0.12489666
0.10140776
0.016341846
0.008416855
0.06770227
-0.04787102
-0.06744388
0.10317011
-0.024466498
-0.05873883
-0.072659545
0.17690688
-0.028476615
-0.0055502728
-0.03858038
-0.07195908
0.031841397
-0.0149828885
0.2148399
-0.014913156
-0.025882263
0.1311078
-0.1286994
-0.08451979
-0.007864149
0.1295586
0.064281754
-0.052119173
0.020440523
-0.09863582
-0.017471181
-0.20182393
0.12119986
0.21943526
0.006039948
-0.11752138
0.023647053
0.22880647
-0.042380285
-0.09995395
-0.02566839
0.19047132
-0.16461608
-0.06436882
0.057015263
0.021482436
0.06742069
-0.08461209
-0.18283188
-0.012712062
0.045565464
0.047012456
0.00033222212
0.029841965
-0.018578079
-0.04737179
0.15672535
0.02345187
0.053339437
0.06970961
-0.047758818
-0.13536568
0.0959675
-0.11985382
-0.12996867
-0.06437116
0.06359536
-0.10145632
0.025422594
-0.07727107
-0.106494725
0.040347043
0.07129923
-0.095945835
-0.018178785
0.06576411
-0.023862539
0.042112872
-0.07945989
-0.031259563
0.02933971
0.087774634
0.1539562
0.01065266
0.017676044
0.02273575
-0.035539087
0.07512382
-0.0064786663
-0.07046233
-0.0537364
0.038013212
0.025713261
0.16657417
0.06915403
-0.16990449
0.15670286
-0.12611075
0.035364833
-0.014026094
0.028885677
0.14444126
0.014455484
-0.065886505
0.14482777
-0.024871306
-0.030699102
0.006536963
0.023969464
0.1954054
0.0014410147
0.042883866
-0.14275463
0.015807902
-0.09347564
-0.025053466
-0.15197682
0.041657824
-0.062038444
0.10580889
0.08977826
0.05455691
-0.05171765
-0.048973065
-0.1185746
0.052723054
0.016786769
-0.050231695
0.18337691
0.04397822
0.0041349633
-0.17428254
0.115627475
-0.03888638
-0.08577792
-0.056521527
-0.063401796
0.067592375
-0.027132835
0.032444138
-0.023047227
-0.06454294
-0.07690282
0.04380226
-0.000802581
-0.08049007
-0.15839215
-0.13578393
0.020575063
0.013149173
0.0748515
-0.0059630396
-0.06797242
-0.09544633
-0.11164699
-0.024676392
0.12871785
0.1443128
0.093538836
0.036301482
0.12723018
-0.070394635
0.047847215
-0.025875458
-0.045185488
-0.060602
0.020223968
-0.20732696
0.1004641
-0.029244944
0.119133025
-0.035572734
0.0027570494
0.21378429
-0.008334307
-0.081422985
-0.12821305
0.042143628
-0.074132614
0.0013619909
-0.16552487
-0.17482072
-0.01161402
0.14913438
0.024378713
0.025230551
-0.0035356185
-0.15757824
-0.10506458
0.08104453
-0.08716308
-0.039092936
0.12890624
0.18074283
0.03686698
-0.117111266
0.10275819
-0.028734863
0.065819584
-0.08655055
-0.25125256
0.042558305
-0.099068575
-0.014396943
0.041324183
-0.019599648
-0.027784875
0.12892167
-0.08867018
-0.17522952
-0.21233445
0.032259334
0.049990654
0.02291773
-0.020840012
-0.04354775
-0.020513415
-0.014658762
0.024855202
0.013454634
-0.028988557
-0.13264346
-0.031084929
-0.11877566
0.08919104
-0.059488934
0.06778137
-0.00317599
-0.08019814
0.07262699
-0.046759065
0.09063288
0.05457018
0.05439094
0.012837634
-0.035927814
-0.024708692
0.019098641
-0.039352547
0.09164001
-0.046352033
0.05665267
-0.019745223
0.0912327
0.038919155
0.052669283
-0.01700442
-0.011805021
0.08379421
-0.06282744
0.101132244
0.047922924
-0.07451076
0.00014496114
0.016574355
0.0048449785
-0.00043054036
-0.12716046
-0.028189188
0.00073169614
-0.008873288
-0.012562084
-0.01812153
-0.07557909
0.07300945
-0.04496625
0.075689964
0.064894184
0.00758159
0.070951365
-0.030652778
-0.055283707
0.040569168
-0.008558562
0.006460175
-0.019791111
0.06215338
0.12873566
0.07146325
-0.007389398
-0.03265389
-0.030448012
0.011610346
0.07504428
-0.016040241
-0.07235943
0.053287555
-0.24912368
-0.00048491525
-0.022042507
0.1312175
-0.081031896
0.05038937
0.0909681
0.022052813
0.012418203
0.01752509
-0.0059550246
-0.057120364
-0.02966682
-0.08811263
0.009348341
0.07171282
0.043000277
-0.03930636
0.013354113
-0.06142637
0.00084777875
-0.07613271
0.097615115
0.021894641
0.042764045
0.1066732
0.092608325
-0.0024901303
0.074256085
0.04967747
-0.06519663
-0.0026109144
0.007955465
0.044678394
-0.05162728
-0.0320144
-0.03063343
-0.051470567
0.040604018
0.013982517
0.0009636613
0.05470872
-0.10806452
-0.007617577
0.008443837
-0.01019414
0.05966166
0.057540327
0.04431011
-0.0052273213
0.10823792
0.017466541
-0.012629593
0.07650809
0.07008724
-0.06880211
0.049854375
-0.054366607
0.007403395
0.07262335
0.021631582
0.060147516
-0.052936763
0.029980637
-0.26006466
0.16426985
0.008968221
-0.014443802
0.018601289
0.07429692
0.045011308
-0.002332293
-0.1415161
-0.056326073
0.044315394
-0.09090403
-0.09658644
0.01551449
0.013281977
0.104064524
-0.021934396
-0.061200805
0.0750983
0.053129863
0.09044316
0.052206125
0.123013444
0.037665755
0.02699741
0.10338596
-0.10373775
-0.023350056
-0.029078202
-0.040568795
-0.09653841
-0.008993539
-0.13151501
-0.074947715
-0.0013921175
0.001160053
-0.13542923
-0.15010583
-0.05674881
-0.01702758
-0.04764628
0.081670105
0.065936595
-0.059453312
0.07922538
0.010973655
0.014446893
-0.11562862
0.04495626
0.031154832
0.15651661
-0.09407173
-0.09179404
0.09378097
0.07301383
0.092563115
0.088401735
0.032131802
-0.07376275
-0.14072978
-0.024682561
0.11554959
0.24210548
0.011413542
-0.007747616
0.09613964
-0.03318577
-0.08768834
0.026872868
0.042696785
0.03566687
0.09372585
-0.11550262
0.049670056
-0.10634686
0.07784535
-0.10599416
-0.020679878
0.21917576
-0.06058137
-0.039842457
-0.07097639
0.04846571
-0.114642225
-0.12391447
-0.11866708
-0.21130125
-0.07994252
0.14871536
0.08328453
0.06012006
0.02235359
-0.11444818
-0.15589534
-0.012462327
-0.05321097
-0.072191246
0.18299
0.15648477
-0.04573441
-0.077310115
0.147944
-0.012655179
0.0746885
-0.087768875
-0.18893212
0.09318381
-0.06476222
-0.067365535
0.00075763103
-0.091094375
-0.025024269
0.089645036
-0.09448708
-0.01571455
-0.12684184
-0.08489882
-0.05406403
0.018569482
0.030357553
-0.008541451
-0.1269141
-0.041167986
-0.0049773417
0.12377186
0.04768318
0.060018357
0.059307497
-0.0313555
-0.053330008
0.11225595
0.11358624
-0.1023201
-0.047408324
-0.08161823
0.049171425
0.05952412
-0.059665345
-0.0033525666
-0.015972342
0.13716754
0.07631944
-0.09999131
0.08546387
-0.11908539
0.017030258
-0.055852488
0.0708738
0.052287847
-0.094703846
-0.021792933
0.06623157
0.18891272
0.09215047
0.09485128
0.002135418
-0.111663446
0.1604651
-0.14152355
-0.1321163
-0.03578044
-0.07647695
0.07504723
0.005521346
0.059305303
0.16801496
-0.049016416
-0.037335746
0.07865281
-0.014929249
0.14819925
-0.14146784
0.08132702
-0.043075934
0.06592878
-0.058753487
0.006620998
0.03267727
-0.0069102445
0.06054909
-0.08047142
0.03428942
0.08247938
0.01274837
-0.02045245
0.02946762
-0.0063401186
-0.07500985
-0.04031259
0.033256307
-0.09478117
0.0035797982
-0.10558477
-0.035456434
-0.0482618
-0.038742673
0.036669914
0.025302129
0.029774243
0.05878407
0.092401296
-0.0022998138
-0.102195755
0.081797265
-0.019359116
0.058836687
0.11458178
-0.013055313
0.07199103
-0.06743564
-0.02536069
-0.06671219
0.04045779
-0.0073708734
-0.006381707
-0.014683341
-0.099873334
-0.033021268
0.013124105
-0.025785973
-0.034254707
0.06739182
0.015648484
0.032335352
0.06469298
-0.063802734
0.0044506076
-0.040135343
0.06132346
-0.0066026985
-0.0027488072
0.021265147
0.014628495
0.02688925
0.026452687
0.07173801
0.0006793343
-0.018893678
0.03188323
0.040514376
-0.015976876
-0.04925097
0.009850803
-0.027029727
0.07831696
0.040506046
0.028333437
-0.025989918
0.05174403
-0.041439347
-0.058690153
-0.06514415
0.0577279
-0.019141322
0.14445901
0.026147341
0.10218236
0.11400879
-0.07786608
-0.009543608
-0.0711226
0.03930379
0.07719548
-0.00086457236
-0.072177425
0.18041442
-0.0069778254
-0.009419076
-0.2090535
-0.02948417
0.11778128
-0.028680475
0.051748652
-0.036455024
0.11777285
0.0085445605
-0.064312294
-0.060853235
-0.10001015
-0.11338799
0.08805253
-0.020965429
-0.004491103
0.047719676
0.027801966
0.0030261672
0.07584462
0.036285248
0.07691716
0.11249383
0.10165815
-0.12884058
-0.11895689
0.011689799
0.0638499
-0.022619365
0.012202972
-0.12668541
-0.10743965
-0.0622596
0.060130127
0.023503454
0.037409764
-0.02864101
0.072622284
0.033425923
0.011934284
-0.09824402
-0.09414568
0.067467734
0.08171243
0.067298904
0.034446225
-0.05674118
0.0032159907
-0.013245745
0.010160389
-0.03791308
-0.043808524
-0.04387824
-0.13122007
-0.07934191
-0.016201109
-0.039051868
0.02921677
-0.02655198
0.05009616
-0.0061453013
0.09848668
0.081421815
-0.01421775
0.017309718
0.009332124
0.003957811
-0.009090155
-0.062042803
0.04426208
-0.009433114
0.00039878424
-0.039009694
0.02629426
-0.027388062
0.063135415
0.01734753
-0.09971403
0.06052299
0.029095355
0.029955536
0.058309652
0.0118153915
0.023762211
0.057100058
-0.017572995
-0.0409612
-0.052137468
0.028503204
-0.011870453
-0.025678243
0.012546777
-0.01211509
0.07544282
-0.042018287
-0.064101785
0.042289097
0.05089104
-0.024184305
-0.060348373
0.010487137
-0.012955087
0.048641723
0.056973927
-0.04258728
0.0515525
-0.060277376
0.021182347
-0.054047078
-0.07225857
0.039333694
-0.053294487
0.16308278
0.09687754
-0.010168639
0.05849904
-0.0063301725
-0.059086896
-0.037990764
0.12512077
0.099953815
0.037019186
-0.060078435
-0.0189564
0.016610287
0.009832927
-0.038086113
0.073135756
-0.13825175
-0.014671539
0.050170876
0.08168881
-0.09187596
-0.015511058
-0.106458254
-0.018736856
-0.10881999
0.11808201
-0.06531746
0.06911461
0.039393354
0.07028421
0.033830497
0.07767416
0.09105326
-0.12116092
0.08999629
-0.084515184
-0.10935509
-0.01188888
-0.2210315
0.039633237
0.1100278
-0.04146079
0.06948858
0.0042549977
-0.098463625
0.17662664
-0.08380506
0.010873034
-0.0047866944
-0.04985907
0.028152881
0.027653208
0.03646966
-0.049307056
-0.14078744
-0.03174177
0.07024645
0.088892646
0.09714029
0.06074091
0.05082964
0.052505642
-0.05592069
0.0137043
0.037974384
0.03504334
0.022874925
-0.0675327
-0.012704946
0.0026457182
-0.0150563205
-0.02459035
-0.04496037
0.1154309
-0.013504195
0.10740913
-0.0082806805
-0.006705174
0.04815898
0.0028029329
-0.01245879
-0.104821235
0.030549537
0.10011235
0.019941874
0.086175665
-0.04753369
0.021007009
-0.11772624
-0.029094035
-0.0035138035
-0.018660255
-0.0064296057
-0.0746508
-0.038118105
0.0060047945
0.041834
0.08359626
0.041245714
0.01810684
-0.03858547
-0.0069715637
0.024820097
-0.043214027
-0.005693551
0.027770618
0.01639499
0.027162448
-0.07007058
-0.048732407
0.003153722
-0.07792426
0.048441183
-0.039136104
0.06876435
-0.0036660503
0.08143623
0.002898802
0.014655987
0.03543245
-0.006708559
-0.024083178
0.011389534
0.027512752
-0.029560132
-0.048083194
-0.024312865
-0.055828616
0.023729397
0.008400826
-0.00299235
-0.0985424
-0.056387015
-0.09570531
-0.08681767
0.029528573
-0.029950261
0.074667506
0.019940918
0.023304768
0.07678188
0.0987386
0.08762888
-0.056083985
-0.040907938
0.086869046
0.021543715
-0.029287567
0.0021801593
0.005060979
0.008807144
0.025314542
-0.10612738
0.02774746
-0.016101636
0.07597778
0.048664678
-0.04962226
-0.017469155
0.081571564
0.020073093
-0.048897676
0.089542046
-0.04203341
-0.06411827
0.068829134
-0.05342902
-0.046728317
0.014390759
0.024392191
-0.010582548
0.075628676
-0.029021263
-0.04019311
0.05747584
-0.0008868046
-0.0255791
0.08255362
0.03206035
0.053318016
-0.045505267
-0.025957821
0.06867779
-0.033583734
-0.07651524
0.03778492
-0.040227532
0.14203182
-0.09447412
0.045541618
-0.15693083
0.017926697
-0.07998471
-0.07189522
-0.117179215
-0.0011933523
-0.075457305
-0.015489332
0.09715135
-0.08259391
0.021455843
0.04543926
-0.023562407
0.15230705
-0.027525378
-0.017581003
-0.07951478
-0.0905309
0.0512197
-0.092990436
-0.056191742
-0.05333237
0.09004387
-0.13604817
0.024866844
0.05716464
0.16040452
-0.023105754
0.0068259416
0.12551479
0.11821097
-0.11207688
-0.05477314
-0.24976245
-0.16772339
0.013634172
0.054086287
-0.36667293
0.04271816
-0.06206342
0.17385672
-0.024278466
-0.09268133
-0.04579845
-0.09033091
-0.12292114
0.044792615
-0.079951204
-0.08478887
0.008885225
0.036973674
0.060722105
-0.0482564
-0.037248075
0.036171786
0.04027991
-0.042018935
-0.04731035
-0.10368559
-0.17398247
0.038546015
-0.062447242
0.071984164
0.028825805
0.07577816
0.019691043
0.029502975
0.04451919
0.05749328
0.16676348
0.119041435
0.17486247
0.04296484
0.011478964
-0.09502864
0.007708867
0.018065587
0.032663714
0.0139271505
-0.04281302
0.2179849
0.047429528
0.048625056
-0.17511858
0.037138652
0.28491968
-0.033286408
0.015944196
-0.1337426
0.0067473664
-0.11564803
-0.11034292
-0.03295876
-0.12613402
-0.18704572
-0.0046160463
0.03780329
0.03613623
0.0640117
-0.015806071
-0.044288553
0.16718386
0.024368757
0.040336177
0.08498692
-0.012235556
-0.003974429
-0.12320676
0.05345743
-0.03702027
0.06345772
-0.018977791
-0.049446322
-0.1674405
-0.01603966
0.10805396
-0.050039716
-0.03384549
-0.034329604
0.138377
-0.020871926
-0.07603321
0.04015818
0.04422434
0.061725955
-0.021283593
0.012534568
0.017616304
0.06515511
0.031856902
-0.009293682
0.026478766
0.04415911
-0.06464262
-0.04947539
-0.06886864
-0.08225096
0.0471863
0.011829756
0.02778518
-0.010357696
0.018114693
0.08822156
-0.00035785593
0.05102785
-0.0888894
0.043466397
-0.068970986
-0.009893635
0.19684549
0.0016756533
0.031893108
-0.03268223
0.09591289
-0.025719494
-0.039078802
-0.05689235
0.0499688
-0.0525447
-0.020137833
-0.052828286
0.040556
0.12768097
0.026151696
0.042433884
0.081914455
0.092433
0.12419535
-0.04131496
-0.1177879
-0.028338801
0.00641597
-0.05843704
0.06675695
-0.11758728
0.06320885
0.02029377
0.0048183873
0.114766866
-0.045802917
-0.021021646
-0.06180894
0.095579885
0.10862845
0.010943193
0.032797858
-0.08612831
0.020250607
0.1171357
-0.0039063017
0.004236723
0.0042282944
0.030918611
-0.06499789
-0.056815006
-0.0050647585
0.005562632
-0.09296434
-0.057105754
0.0043717283
-0.0017937502
-0.001178669
-0.039273363
-0.004515928
-0.001424242
0.04632808
-0.0039291745
-0.0009766001
0.119065605
0.050770096
0.030652689
-0.018694034
-0.006115448
0.11789856
0.057184074
-0.020961413
-0.06570585
-0.023710748
-0.042666882
0.075838886
0.049147252
0.034928452
0.0490523
0.0071227066
-0.023054427
-0.0019927404
0.0009345545
0.020611847
0.07126074
0.039299898
0.04583015
-0.0062156217
-0.04682295
-0.035311833
0.053094078
-0.010077571
-0.075204305
-0.026264688
-0.09961484
0.10697631
-0.030131357
-0.0047905096
0.059640344
0.072317295
0.04885038
0.0125925625
0.009180002
0.11059886
0.062375445
0.038853098
-0.008033355
0.004797677
0.05518412
0.06987917
0.038140006
-0.006730167
-0.033524908
-0.013752773
0.039074298
-0.032795526
-0.030227171
0.008585691
-0.041876122
-0.16433968
-0.083847694
-0.03728458
0.008193287
-0.01856947
-0.008791429
0.07755776
-0.005833537
0.03898311
0.092458
0.015591398
-0.031874225
-0.012843758
0.012559975
0.14733283
-0.01628373
-0.043292444
-0.067289226
0.08094005
0.032428596
-0.008072478
-0.02999367
-0.083141394
0.0044361684
-0.021046506
0.039882246
0.038750924
0.05524479
0.05216342
0.08166334
0.10104302
-0.05189128
0.046050567
-0.13133183
-0.0030839415
0.08762346
-0.011159018
0.03004509
0.036878034
-0.08093474
0.02864786
-0.019257534
0.040782955
-0.026178518
0.0021452755
0.075009465
-0.04626705
0.045160852
0.031523596
-0.00028898616
-0.09091011
-0.08244851
0.046966296
0.061665114
-0.017314924
0.027578361
-0.074975476
0.052406017
0.0028992197
-0.0037896323
-0.032249153
-0.020708617
0.013155105
0.012210026
-0.004935966
0.011566841
-0.029217716
0.0651811
-0.0121147325
-0.10408187
0.025536017
0.025156943
0.086740695
0.026171472
-0.021458333
0.01907677
-0.025131298
-0.052607577
0.05310454
0.029816091
0.056167997
-0.074740686
0.037925977
-0.036064308
0.082984775
-0.0134609565
0.053738236
-0.045584377
-0.11634504
0.029398264
-0.034240387
0.089644425
0.023613429
0.0444301
0.08687197
0.0043868655
0.061437525
0.0021794497
-0.03582753
-0.06475239
0.013529566
-0.051462676
-0.045853738
-0.08893625
0.03525117
0.011791052
-0.006672347
0.03538844
0.07778342
0.0055926405
0.003588079
0.07957849
-0.043559324
0.0422726
0.001972821
-0.116766095
0.096844755
0.15977745
0.032386895
0.011174527
-0.03030561
-0.045907766
-0.06677466
0.13179535
0.061492454
0.016954714
0.28485972
0.12998869
0.10780718
0.12683661
-0.027406018
-0.013555953
-0.08395899
-0.11350354
0.09022298
-0.08416434
-0.042706028
0.27068427
-0.015529094
0.071985304
-0.24826655
-0.047256757
0.25472814
0.041863877
-0.058831204
-0.2154192
0.060238503
-0.15741047
-0.08443333
-0.24006611
-0.09929475
-0.25178298
0.07300154
-0.05853631
-0.0031403978
-0.02517867
-0.043921266
-0.10153074
0.055279598
-0.07272327
0.06442456
0.22153844
0.012311223
-0.05420664
-0.13203038
0.09921328
-0.07254185
-0.039384004
0.03049444
-0.05404198
-0.17041071
-0.019225933
0.062888235
-0.04533785
-0.07279579
-0.15785463
0.11803414
-0.0006075612
-0.08159935
-0.0051776962
0.03084493
0.06492712
-0.0008713646
-0.009642961
0.009024405
-0.02964424
-0.0022074585
-0.003707469
-0.066051595
-0.049018007
-0.029192882
-0.041568886
-0.01599129
0.019873627
0.014833861
0.04986348
-0.0024787816
0.017346993
0.1328696
-0.0060173753
0.024346475
0.039489888
0.028906144
0.06818981
-0.00072754786
-0.022664618
-0.0027617798
0.05601323
-0.047414333
0.0096652135
-0.046683393
-0.109357975
0.01947336
0.08673418
-0.060949076
-0.002030157
-0.034561224
0.015067747
-0.06391645
-0.03344464
0.024663137
-0.020656936
0.036539584
0.034615837
0.006630368
-0.0029816693
-0.07990464
-0.056874126
0.0035737532
-0.057219055
-0.022590091
-0.049020868
-0.018420443
0.022729535
-0.101325214
0.08466742
0.03252309
-0.006990372
0.019233957
0.08010746
0.009671995
0.07396112
-0.026527898
-0.086200304
0.0018383635
0.045152653
0.103154816
-0.021921372
-0.02366612
-0.03322038
-0.021645356
-0.086014435
0.091177344
0.011716818
0.02484336
0.025087947
-0.013494169
-0.016628463
-0.004737939
0.02461684
0.07815418
-0.044286314
0.051981732
0.0053021363
0.08650645
0.021186344
-0.11039696
-0.053968616
0.024016814
0.07714105
-0.037759304
0.02536089
-0.011100545
-0.044581294
0.033750705
-0.102712095
-0.04685522
0.03699959
0.014516863
-0.059122264
-0.046751026
0.021207487
-0.05741487
0.051363107
0.116277404
0.058758747
-0.015593785
0.034055553
-0.034154166
0.015544537
-0.08557944
0.03505056
-0.013165886
-0.04812904
0.05872109
-0.10108476
0.032469563
-0.040315565
-0.07994799
0.07512841
0.13093708
-0.031619426
0.037868828
-0.022105271
0.0044702305
-0.02292137
-0.06983476
-0.049190007
-0.012790427
0.008621693
0.09116034
0.038857143
0.04322772
-0.03714241
0.044354387
-0.002270984
0.047214404
0.008520223
-0.05642414
0.044740606
-0.14541064
-0.081369296
0.057070438
-0.019147934
-0.03985681
0.014470002
0.01590079
0.016508529
0.030503055
-0.0047215847
0.026707413
0.006298961
0.01466472
0.031490482
-0.05096974
-0.09400197
0.078211494
0.037758972
0.023522757
-0.053253584
-0.041690078
0.03519375
-0.015530612
0.072502084
-0.057766315
-0.040460434
0.047316883
0.08103021
-0.023216315
0.01563457
0.037385166
-0.07198912
-0.042131588
-0.104439266
-0.064791046
0.055281572
-0.016825598
0.044332325
0.030462477
-0.05170292
0.10625809
-0.04676328
0.10282796
0.06773949
-0.030695578
0.0036636274
-0.06547754
-0.03984089
-0.014036962
-0.01687233
-0.12797514
-0.092881784
-0.054626297
0.11796614
0.05040059
0.045530986
-0.015704822
-0.008543914
0.07435285
0.031474475
-0.012804149
0.06426349
-0.039811805
-0.020130405
-0.030860484
-0.08929174
-0.00043944523
0.09345944
-0.016212488
-0.063800864
-0.03022475
0.019497627
0.038220618
0.0413554
-0.04520691
0.035352137
0.0986897
0.058092106
-0.050173428
-0.07739169
0.04472982
-5.0740622e-05
-0.0019797576
0.021728449
-0.030744828
0.09792993
-0.10004988
-0.014952054
-0.08314167
0.036061704
0.090034045
0.094142765
-0.037004136
0.14793755
0.092226095
0.0068631615
0.036546096
-0.20087461
-0.08955947
-0.024538197
0.04306494
-0.058215726
-0.0034184046
-0.08796524
0.1349385
0.015059656
0.05964259
-0.051417727
0.058257822
0.03446359
-0.052889455
0.04222591
0.09154026
-0.04365756
-0.06604167
0.010964921
0.05726392
-0.056774594
-0.0050272956
0.007687343
-0.005466685
-0.06429947
0.015194121
0.11531767
0.17009453
0.031475484
0.18128723
0.07125035
-0.058433726
-0.053142373
0.044597615
0.11578623
-0.15983859
-0.038953796
-0.16794805
0.0028231067
-0.011416792
-0.047342375
-0.058564734
-0.20150328
0.13924615
0.050581153
-0.057278585
0.059621338
-0.07569943
-0.002749004
-0.101495996
0.04257909
-0.020720223
-0.10773461
-0.08017499
0.038855664
0.083648175
0.0388335
0.122027256
0.01692449
-0.13737875
0.13602231
-0.08741599
-0.10489745
-0.14238481
0.012187402
0.050808247
0.13059855
0.031401604
0.1264058
-0.025173483
-0.13400754
0.114086024
-0.113585316
0.13496083
-0.15938221
0.06222484
-0.06256312
-0.035011835
-0.13933742
-0.039508842
-0.094442375
-0.08934135
0.0875093
-0.09353737
0.008414058
0.08139055
0.03235524
-0.05788495
0.025762804
-0.0652896
0.0070168823
0.039329868
0.06538782
-0.03402429
-0.080239944
-0.046406336
-0.040905375
0.010071171
-0.021931335
-0.034410633
-0.011759841
0.09295614
-0.011310091
0.014619664
0.008618643
0.028611442
-0.0016436994
-0.013952874
-0.00011670251
0.037480697
-0.01122424
0.00087373675
-0.013048955
-0.04610062
0.07813977
0.06820432
-0.04119137
-0.0072733434
-0.023740606
0.046922162
-0.005220517
0.08628665
-0.03484743
-0.059195314
0.058801934
0.02384581
0.0061357375
0.075576395
-0.10906572
-0.089467674
0.060903974
0.034996986
0.009964436
-0.034800056
-0.13870963
0.028684283
-0.023643583
0.015703106
0.030471427
0.044248562
0.052050635
-0.010118953
0.07146349
-0.03789193
0.019748235
0.0072691003
0.044387966
0.012832007
0.09577759
-0.0038285938
0.011313606
0.028504385
0.005719014
0.081777915
-0.040281866
0.03379457
0.02168658
-0.024928348
-0.058954496
-0.0128831435
0.039268058
-0.09992354
0.0002721478
0.076009735
-0.06293789
0.0820963
0.003412818
-0.029678231
0.096293546
-0.02207559
0.0321154
-0.094978906
-0.07770881
0.120518066
0.061119836
-0.01833771
0.00573507
0.039484352
-0.02178003
-0.018596098
-0.0226518
-0.022159109
-0.03558006
-0.0077495845
-0.050898377
0.03775809
-0.002624504
0.038553946
-0.042270407
0.08794929
-0.04220925
0.09073016
-0.0029680834
-0.0075605903
0.011434513
0.0032509638
-0.038900144
0.03977654
-0.10766562
-0.036698576
0.004701811
-0.15322931
0.049093187
0.07133486
-0.043974116
0.00878189
0.00427105
0.07830185
0.08458325
0.018221099
-0.053034123
0.04143596
0.06646828
0.019688852
-0.02250256
-0.06129607
-0.025922604
-0.031705733
0.0008049108
-0.03698416
0.02190907
-0.026252817
-0.054757208
-0.07465153
0.006167601
-0.075852826
0.0015533281
0.12693216
-0.0076155984
0.12893875
-0.04482561
-0.0053354856
0.093275845
0.009696508
-0.005050376
0.054015238
0.053717908
0.02993
0.022920376
0.047008276
0.0011605929
0.014873264
-0.08068982
0.0517309
0.093173414
-0.010917162
0.048397098
-0.12912722
0.034243032
0.029339092
0.07168206
0.024786068
0.012748314
0.055443864
-0.03714353
0.057086375
0.017786866
-0.060210325
-0.017127924
-0.011268262
-0.06362766
-0.029676074
-0.08912365
-0.001359549
0.04619785
0.0036418028
0.08026413
0.090369225
-0.03472091
-0.0615528
0.03206472
-0.055833947
-0.031125452
-0.025799513
-0.0057251425
-0.013547586
0.090755306
0.10228783
0.024018096
-0.02105401
0.04487241
0.025692085
0.09944809
-0.06426927
0.06445264
-0.08914228
-0.10146293
-0.062103905
-0.05114529
-0.044211987
0.05100866
0.099052876
-0.0296633
0.14460397
0.013392092
-0.045771077
-0.009128661
-0.03434722
-0.070181414
0.0050328765
-0.078949235
0.048751365
0.048615333
0.037738543
-0.0222176
-0.025871854
-0.16450557
0.022736732
-0.048438773
0.0015872703
-0.08492518
-0.061650738
0.03578604
-0.06998464
-0.0014697049
0.030739358
0.0256782
-0.021920383
-0.019312771
0.024350634
-0.0869238
-0.074801266
0.01798414
0.049526587
0.047741346
0.051107414
-0.15836716
0.04393195
-0.0034647626
-0.05691852
-0.025063517
0.091515325
-0.044256344
-0.052696843
0.07488263
-0.07353655
0.07507031
0.02996713
-0.040390406
0.058946196
-0.07553678
0.020815065
-0.011419439
0.020040521
-0.121084265
-0.077047005
0.09145547
0.075685956
0.014955869
0.20199797
0.011454054
0.084605984
-0.004739897
0.16976202
0.07074485
-0.10143158
0.05574806
-0.07343549
-0.050970342
-0.054117784
-0.072896115
0.03517009
-0.13119581
0.03993411
0.0024819223
0.10163715
0.04247717
-0.09615136
0.073769204
-0.04187509
-0.07953126
-0.003916917
-0.033352375
-0.090665504
0.011650619
0.13780624
-0.011190102
0.047573816
0.016748816
-0.16966592
0.11521069
-0.055430565
-0.08288293
0.013394551
-0.10595579
0.0653559
0.013243221
-0.032493033
0.13156876
-0.008885158
-0.008087701
0.1914255
-0.10788486
0.117340185
-0.18818384
0.09600704
-0.09402196
0.061946146
-0.13758181
-0.052026033
-0.041899875
0.047751285
0.033137046
0.12340804
0.026353575
0.04225658
0.004513694
0.028503941
-0.075499505
-0.048499756
0.103702016
-0.07404884
-0.043030106
-0.10629808
-0.048658576
-0.1326928
-0.09759288
0.14614506
-0.107093394
0.1741581
-0.11686985
0.093060695
-0.053558204
-0.0018717014
-0.14291641
0.06329103
-0.15986593
-0.15061559
0.0034457478
0.029089117
-0.059312694
-0.022126649
-0.22158377
0.038194735
-0.1332401
0.026533283
0.08914365
0.06734574
-0.12643707
-0.061723698
0.008028621
-0.04805318
0.12328967
0.020076191
0.0410921
-0.07529537
0.054841574
0.07143229
-0.006046319
-0.124183595
0.03681432
0.051958084
0.020071596
0.008822036
-0.07965093
0.020282494
-0.015208465
-0.10558111
0.032171343
0.086980715
-0.019482989
0.041894943
0.11387747
-0.084273234
-0.024783507
0.013713344
-0.009760568
0.19353144
0.08553868
0.094293304
-0.022239702
0.04648063
-0.054606713
-0.008591069
-0.069697715
-0.01448046
-0.0471575
-0.02774256
0.01769624
0.017132722
0.020849694
0.030315442
-0.05186345
-0.03204994
0.021113828
0.10485981
-0.013726074
0.033972476
0.07035128
0.078802116
0.018008174
-0.098094374
-0.09784924
0.033373524
-0.0013113723
0.0927216
-0.058358207
0.07778377
-0.058978707
-0.010297605
0.014606704
0.06820165
-0.09149397
-0.063585326
0.04350861
-0.05879735
0.09301872
-0.0055956724
-0.0023236808
-0.029623928
0.026217774
0.0032607876
-0.017536327
-0.059818916
-0.00919108
-0.06478982
-0.08988341
-0.055464398
-0.026196763
0.020394672
-0.003378119
-0.096650586
0.05248018
-9.565185e-05
-0.036760043
0.059402976
0.07514644
0.024454916
-0.032914728
-0.049854513
-0.10095374
0.024097752
0.077173986
0.06160044
0.028131977
-0.027753824
0.040848613
-0.03166866
-0.03788241
-0.036094572
0.05702502
-0.08072217
-0.07844424
-0.028590644
-0.036360633
0.02759897
0.05108364
0.046364773
0.0019508175
0.088309966
-0.04409109
0.0286982
0.013658613
-0.004086092
0.04213036
-0.035210513
-0.021676958
0.028428316
0.04067185
-0.058528196
-0.061052117
0.020425392
-0.027625918
0.036948692
-0.02033392
-0.05388102
-0.011296877
-0.011258635
-7.516925e-06
-0.04938075
-0.027918419
-0.03951194
0.04366188
0.030030372
0.04729051
0.008733259
-0.088382676
-0.02637475
-0.03776534
0.046491757
0.0029610472
0.061645303
-0.11004503
0.0023738255
-0.08358248
-0.07364181
0.0075367093
0.018937698
0.014648875
-0.04732217
0.029974991
-0.030002434
0.03356824
0.01635815
-0.012162028
-0.008897841
0.06428447
0.0319345
0.0326538
-0.014014658
-0.03543498
0.02325547
-0.08260928
0.05534911
-0.017081888
-0.096326545
-0.099549994
0.01734418
-0.050180078
-0.033205405
0.04034337
0.08561321
-0.092767425
0.04667934
-0.07464726
0.08388979
0.06520587
0.04823669
-0.026785964
-0.041759416
-0.0478026
0.017039487
0.03855159
-0.04892163
0.014219425
0.05281348
-0.02892598
0.0404503
-0.0094157895
0.018238002
-0.0074145836
-0.045521084
-0.037493214
0.0018282307
0.0040501524
0.08277432
0.0855929
0.10229956
-0.085614935
0.044167038
-0.10237714
-0.06433059
-0.055486463
0.069985814
0.054227117
0.06027194
-0.08658221
0.04381758
-0.040767577
-0.027779227
-0.00057001604
0.030171253
0.05057565
0.021308929
0.057879824
0.07935879
0.032911524
-0.09170639
-0.025007103
0.051996212
0.13984446
0.10816765
0.035692446
0.032820906
-0.058921516
-0.04363469
0.021465788
0.0042073447
0.009065141
0.013186129
-0.10043025
-0.06986739
-0.12192397
0.028687201
0.08011684
-0.002058935
-0.024669597
0.083721004
0.064608954
0.084858045
0.074811175
0.0020696989
0.01980386
-0.007456742
-0.04317812
0.051486965
0.05505666
-0.0012894283
0.005543322
0.009852339
-0.027352711
-0.0225402
-0.01060079
0.024651928
-0.010665309
0.014518233
-0.03738873
0.022688705
-0.035288192
-0.03044104
-0.00556706
0.10153242
-0.08259087
0.08979562
-0.00703623
-0.043270595
0.041769996
0.098931886
-0.02252882
-0.037665073
-0.13784143
0.09952689
-0.059307847
-0.0654366
-0.04550115
0.056407966
0.06491818
0.012327928
0.071696185
-0.048303407
-0.03341546
-0.07322524
-0.04142244
-0.032130208
-0.0052800975
0.11682951
0.031066407
-0.07485884
-0.023491083
0.0260139
-0.035896815
-0.015947599
0.036784086
-0.021154435
0.055148333
-0.02114188
-0.014918374
-0.08755351
-0.0032523046
0.051174644
0.03387476
0.06932814
-0.0060494053
0.0064510866
0.12684698
0.014929197
0.00047954245
-0.087315045
-0.092238896
0.12173586
-0.04201304
-0.03763449
-0.042717297
-0.022567052
-0.0415699
0.025036253
0.04832616
-0.0469277
-0.093847156
-0.04967342
-0.043011785
0.09845493
0.10379216
-0.04506652
-0.062997214
0.07400208
-0.032365795
0.038145464
-0.06055933
-0.06629218
-0.055394355
-0.035866857
-0.01245548
-0.003964131
0.00028237878
0.055204563
-0.00576686
-0.08807909
0.056922343
0.06457416
-0.037755765
-0.050238974
0.03598008
0.053171936
-0.024793945
-0.011960742
-0.098256074
0.060084607
0.07672331
0.083782144
0.044277985
-0.049171947
0.010118812
-0.046750654
0.013771277
-0.09250331
-0.040688444
0.04470586
-0.02028801
0.011116134
-0.07006393
-0.041386914
-0.02723475
0.09057741
-0.10313065
0.06428264
0.008047634
-0.048340544
0.0809801
-0.103218466
0.017663484
-0.121554874
-0.06322161
0.08251708
0.011340328
-0.020245912
-0.03540824
-0.0058559896
-0.11137933
-0.01585321
0.00073646184
-0.011527756
-0.05133985
-0.088982984
-0.0554842
0.102855824
0.09093797
-0.04686783
-0.07905131
0.14262262
0.07711379
0.08922307
-0.08702921
-0.11395995
-0.023176758
0.02634615
-0.061431613
-0.036028378
-0.019986233
0.069223456
-0.09064861
-0.03637356
0.011445923
-0.039221533
-0.008244483
-0.04866147
-0.017985763
0.10446395
0.03851128
-0.033464402
-0.0051163943
0.06271785
0.025953462
0.13819982
0.015529013
-0.029417725
-0.050539944
0.07168776
0.085587524
-0.03739303
-0.027775949
-0.043405086
-0.055330116
-0.12624186
-0.037407827
0.15434392
0.07450924
0.1472807
-0.09827902
0.056891803
0.009234863
-0.13133118
-0.036076054
0.12084806
-0.116435006
-0.15774742
0.002461726
0.04055275
-7.5210075e-05
-0.023088338
-0.19110744
0.10389128
-0.0019977977
0.050415576
0.0071246913
0.14104472
0.009248581
0.014117888
0.04604343
-0.049680706
0.07764046
-0.042566076
0.0056817983
-0.116683885
0.05898212
0.053885315
-0.07052086
-0.0237882
-0.0032767057
0.09831443
-0.089308016
-0.03183516
0.0012632143
0.05196602
-0.00093796966
-0.22894888
-0.001772019
-0.016917327
-0.085398786
0.0493588
-0.021015432
-0.06447363
0.061597
0.05502415
0.025613973
0.10106066
0.11083771
0.067365825
-0.062833205
0.020946242
0.030193526
-0.05213451
0.03376355
-0.037438516
0.08695781
-0.07050027
0.017324453
-0.100613035
-0.09763108
0.05260597
-0.008934246
0.08930617
-0.080723725
0.12644756
0.065614656
0.040629223
0.08966681
0.05693191
0.035604462
-0.07116036
0.017192282
0.09809165
0.0035953408
-0.019232564
-0.07270186
-0.008642239
-0.0799692
0.06328662
0.058208767
0.008493628
0.024659583
-0.012212318
-0.044276893
0.052429356
0.098320715
-0.03799924
0.07079855
0.094654545
0.01087246
0.033561096
-0.06730278
-0.01871239
-0.031181853
-0.043553893
-0.072782926
0.006761776
-0.010868509
-0.024050437
0.027470754
-0.054176044
0.007372531
0.027858352
0.009370832
-0.03866939
0.037440818
0.06515129
0.06386941
-0.05144783
-0.05870418
0.027841989
0.060794737
0.051881287
0.07934451
0.052659765
-0.041929062
0.08211127
-0.057886712
-0.025672028
0.021903217
0.0035741786
0.03654324
-0.11919484
-0.0779685
-0.017363742
0.066320725
0.09694487
-0.04543765
0.0754822
-0.02093206
0.0042882184
0.012166605
0.037813608
0.055546798
0.0037043795
-0.037453633
-0.007539099
-0.009692118
-0.044122748
0.03372319
0.09299807
-0.11243124
0.09767891
0.066172935
0.04581274
0.045321796
-0.046850443
-0.062872894
0.00076028786
-0.02811487
-0.006363894
0.054497704
0.009565039
-0.070659414
0.06401164
-0.11879529
-0.084359795
0.048413523
-0.015565479
-0.015725968
0.0103068305
-0.05068103
0.047010336
0.044837363
0.007203627
-0.048899278
-0.015466042
0.061028466
-0.062685594
0.05333681
0.06226798
-0.026597433
-0.0519735
-0.081508406
-0.021923536
-0.0077020708
-0.056700654
-0.038752586
0.11296556
0.06343476
-0.01357878
0.0763748
-0.063270904
0.049381502
-0.050489686
-0.012901735
0.011003703
-0.07070924
-0.008280668
-0.09027256
0.05106647
-0.027932206
0.07874131
0.058863226
0.056189377
0.10685372
-0.06681161
0.018422319
-0.0680177
0.06396932
0.05981277
-0.062139872
0.045196775
0.013580547
-0.015181445
0.13752022
-0.10094092
0.19370209
-0.10210415
-0.05465863
-0.038648676
-0.08558139
-0.023155494
0.028440513
0.13695672
0.038462445
0.09784112
0.057983737
-0.025281712
-0.16974822
-0.083639696
0.054250013
0.21406147
-0.06971424
0.03502661
-0.0961711
0.05420771
-0.05344274
0.08302194
0.12124428
-0.0007516639
0.022762313
0.05483533
0.06974277
0.0954274
0.08856133
-0.04421214
-0.021075824
0.09678466
-0.038201585
0.01659204
0.049354468
-0.008575084
-0.06664904
0.078068785
-0.035427965
-0.0858896
-0.1219291
-0.08003
0.008897273
-0.179995
-0.14820357
0.03343188
-0.03306745
0.19519652
-0.11582574
0.21294321
0.048701417
-0.041708037
-0.1704703
0.046121065
-0.086651966
-0.13490716
0.020714896
0.05019012
-0.048504468
0.020583633
-0.25272682
0.12393097
-0.06354635
0.09118554
0.0013053166
0.17275964
-0.14165244
-0.0055585387
-0.06428746
-0.08182399
0.05199346
0.047998216
0.05930071
-0.051553346
-0.050960705
0.11156617
-0.028668294
-0.091279045
-0.08803692
0.102101184
-0.12033537
0.07098346
-0.12719218
-0.07574151
0.05498454
-0.11134675
0.023014097
0.056834467
-0.103891045
0.012715691
0.081681654
-0.106707945
0.082105085
0.045521624
0.008554167
0.15504587
0.11649538
-0.009470835
0.0014296077
-0.039550543
0.046969153
-0.012774873
-0.08189438
-0.019257842
-0.016452618
-0.079565115
-0.039323796
0.006421138
-0.030184306
-0.041826524
-0.06757847
0.028025646
-0.05281713
-0.0115477
0.008669177
0.054683752
0.06159748
-0.076966986
-0.019540606
-0.0501006
-0.04661409
0.08766329
0.030904185
0.045833174
-0.0707673
0.032447472
-0.09719287
0.022182552
0.10279152
-0.00040434484
0.031485595
-0.010289674
-0.074804835
0.09715331
0.06846056
-0.0152782705
-0.017123366
0.08488182
0.053683553
0.086789526
-0.03391384
-0.067366205
-0.019184902
0.03774245
-0.0066635027
0.046142302
-0.08485356
0.082320474
-0.049583413
-0.09246042
-0.004248462
-0.0075424626
0.07322582
-0.027127568
-0.00061685324
-0.019738065
0.0009699182
-0.101692885
-0.010275845
0.08186702
0.078513704
-0.00020195312
0.044707764
-0.011942889
-0.0031333463
0.06319966
-0.0069362177
0.060044765
-0.0073556523
-0.069778405
-0.019599296
-0.0026427158
0.013127696
0.0036231698
0.05811665
0.026685316
-0.015248268
0.04405606
0.020722976
0.08336423
0.06812991
0.025800833
0.02797274
-0.0199805
0.057383623
0.03801229
-0.050881904
0.03624557
0.05471835
0.101069026
-0.024302047
-0.05219341
-0.038045153
0.070827946
-0.06196686
-0.008756148
0.03264449
-0.017403768
0.008586971
-0.020441288
0.074237496
0.09932133
-0.05025241
-0.02041332
-0.032843906
-0.12390161
-0.056214835
0.09055986
0.03609187
-0.013186343
-0.05563329
-0.0074984366
-0.05208773
-0.04827856
0.040079746
0.08296052
-0.0072338767
0.014599546
-0.020663286
0.07378087
0.006404726
0.061805453
-0.08047511
0.040543556
0.08184177
0.027610939
-0.029913723
0.06508045
-0.019327499
0.085435
-0.026910953
0.03909073
0.0118213305
-0.046472747
-0.035994373
7.695795e-05
-0.122736976
0.02815645
-0.022782223
0.02305937
0.016549712
0.094323955
0.017684182
0.05952108
-0.063019164
-0.094229154
0.0909323
0.032777935
0.065280035
0.052801274
-0.01278095
0.05413583
-0.025638154
0.044016078
-0.029938582
0.006304445
-0.0008757943
0.039613876
0.015569927
0.006065991
-0.03713289
0.027279438
-0.0062058503
0.04723982
0.074609146
0.0039827465
0.03633827
0.04461323
-0.16871583
0.015335878
0.053805683
0.09842515
0.009743608
0.04362979
-0.08115446
0.08617048
0.0056049307
-0.00014395844
-0.0036442694
0.037348926
-0.035129976
-0.061903454
-0.012547532
0.008203406
-0.03367288
-0.036029287
-0.051191907
-0.008426483
0.07289104
0.013909384
0.045078233
-0.018894162
-0.059477672
0.04488592
-0.051413767
-0.040186923
0.065983295
0.040958825
-0.06144453
-0.10994011
-0.087329775
0.053428534
-0.031959433
0.08393164
0.0051154997
0.044427272
-0.008385344
0.069991335
-0.07743033
-0.0018802385
0.08180695
-0.016674068
-0.03595378
-0.016623208
0.015117412
0.028961841
0.0019485981
-0.034375288
0.04697959
-0.0057076085
0.061738428
-0.013341367
-0.028271308
-0.010831544
0.023436442
0.06331712
0.089609385
-0.04618886
0.019204048
-0.003764065
0.005283257
0.091490544
-0.07635932
-0.09202498
-0.057781544
0.08301565
0.064431585
0.053908948
-0.102569416
0.023148056
0.04819935
-0.025255762
-0.04378965
0.014321412
0.0860613
-0.075358495
-0.047321234
-0.0286094
-0.018081816
-0.025598671
-0.036930162
0.028173
0.039488696
-0.014814006
0.06823349
0.12709928
-0.043668773
-0.004843078
0.036681276
-0.010411428
0.024070164
0.08711813
0.033609275
0.17409444
0.06408519
-0.06280492
-0.1614551
-0.05644566
-0.043501936
0.05226889
0.025734777
-0.11489074
0.21642125
-0.033915278
0.03133607
-0.23251794
0.011022181
0.27427176
-0.020254342
-0.08696635
-0.077503525
0.08391769
-0.05005543
-0.006706561
0.029010559
-0.07941672
-0.22064616
0.02362201
-0.07928072
0.10732129
-0.0667902
-0.011138587
-0.11450924
0.16762196
-0.004033346
0.061507802
0.057215177
0.10199607
0.0017112269
-0.04009566
0.11722817
-0.05505257
-0.03320781
-0.00070807344
-0.07233353
-0.117661215
-0.015669176
0.118298255
-0.04285295
-0.07095987
-0.11860229
0.1172086
-0.06581349
-0.094302416
-0.068439305
-0.045161575
0.11726269
0.030449208
-0.018634124
-0.08124629
-0.08479937
0.061103415
-0.05211454
0.005478434
0.0018696864
0.042649105
0.044285845
-0.004327108
0.06292606
-0.12155854
0.029620815
-0.03445904
-0.061885055
0.123323575
-0.007678427
-0.004952012
0.13535368
-0.04093263
0.07339522
-0.14069003
-0.04244698
0.0572222
0.11624025
0.017953513
-0.14175038
0.045906622
-0.03551473
-0.028014941
-0.12988195
-0.0060853125
-0.06259747
-0.033981737
-0.022314712
0.055197492
0.04357121
0.03126256
0.0344443
0.043793894
-0.045183524
0.011535373
0.080871955
-0.083986655
-0.13535437
-0.03917852
0.05494457
-0.034079626
-0.035567325
0.05131956
0.027111819
-0.17611952
0.08398223
0.030108288
0.05625467
-0.0018737816
0.026628692
0.07952395
0.028970093
0.04363296
-0.09365352
-0.07399931
0.063886896
0.099198945
-0.041098353
-0.051959563
-0.0097132055
0.036583006
-0.087151915
0.018765949
0.030403083
0.0011748575
-0.059760556
0.008248439
-0.07136563
-0.062666915
-0.014840187
-0.032902032
-0.058238048
0.15718621
0.061538022
0.03328018
-0.021415072
-0.047917098
0.0076887733
-0.048219495
-0.0398372
-0.004367377
0.038034637
0.056129754
-0.059553146
0.08401733
-0.116291024
0.05019438
-0.032915708
0.008729543
-0.015147854
-0.08628865
-0.0564377
0.08009489
-0.02872255
0.08193911
0.07272072
0.078634635
-0.06544986
0.005633776
-0.092141435
-0.12446712
0.04120441
0.085524336
-0.01664903
0.004175878
-0.0066210837
0.022520864
0.026244562
0.030959733
-0.02470823
-0.0039951936
0.009260075
0.060413573
0.01562901
0.08824253
0.058133394
0.009629171
-0.019771626
-0.022620114
0.02480072
0.023765406
-0.100727156
-0.021071991
-0.042822745
0.05346901
0.011041765
0.0017601259
-0.003390938
-0.002562395
0.01742492
0.049734637
-0.051046565
-0.010572517
0.060449433
0.0637707
-0.11045568
0.06917501
-0.09832716
-0.02518885
0.05301638
0.029954083
0.024061983
-0.11261746
0.0071239304
-0.03792817
0.011404394
0.037698504
-0.06492887
0.045155063
-0.04172439
0.087431215
0.005354745
0.11076521
-0.04887606
-0.019724589
-0.08466633
-0.12713094
0.053749327
0.031803437
0.016163765
0.01662959
0.041474406
0.018529817
0.062688775
-0.098105855
-0.10736795
0.029524881
0.026346365
-0.008157565
0.023358067
-0.03077575
-0.03526969
-0.09901254
0.044055033
0.027993916
0.0071063507
0.07207353
0.003992783
0.0436153
0.07963629
0.041919112
-0.107426085
-0.018613935
0.11002812
-0.027884932
0.09365965
0.044564947
0.022635562
0.04204265
-0.0069775684
0.08822244
0.0037485254
-0.028494818
0.080849275
-0.04640117
-0.0051355674
0.02177998
-0.036568657
0.07047349
-0.018330341
-0.043444473
0.017443595
-0.04497658
-0.06680522
-0.02446038
-0.024710922
0.030868145
0.009230741
-0.07493018
-0.0676369
0.05927523
0.01732593
-0.01698962
0.016462218
-0.0775494
0.07268388
-0.01517537
0.0064842612
0.08278798
0.07855277
-0.030755954
0.05650035
-0.018405098
0.15219331
-0.029373458
0.006530936
-0.10595012
-0.11901543
-0.09943229
0.08640002
0.047343783
-0.042292345
0.022464663
-0.100969
0.04289214
0.032732077
0.15260562
0.078220725
0.078813255
0.010863558
-0.06644117
0.014499136
0.0075507364
0.074258074
0.04394945
-0.06562663
-0.08389007
0.08165561
0.11362609
-0.05052047
-0.06556392
-0.02805135
0.008240526
0.02425804
-0.0559419
-0.025572116
0.018305533
-0.103018664
-0.073576175
-0.03995212
0.0019056819
-0.045436285
0.034244936
-0.0062016184
0.0864077
0.06438817
0.045158647
0.022703562
-0.108044736
-0.023158604
0.025493808
-0.054391485
-0.002754594
-0.038714103
0.07753624
0.015481245
-0.0183916
-0.08855165
-0.054656275
0.055591058
-0.017214274
0.040886372
-0.05867903
-0.08609911
0.04148925
-0.03481846
-0.0028005491
0.06905647
0.12415503
0.05790722
0.10145697
-0.109048896
-0.039122816
0.04087507
0.08625498
0.009024038
0.027245976
-0.033406332
0.036318015
0.043510884
-0.05636593
0.035135306
0.020222394
0.03972204
0.05008127
0.017772306
-0.012676602
0.042320248
-0.052181832
-0.031417433
0.0076287496
0.09278909
0.13668112
-0.002037263
-0.025714125
0.049284622
0.056440722
0.08080817
-0.036508534
0.08413203
-0.0024060167
0.06990838
-0.11969755
-0.05483929
0.1579121
-0.05478994
0.15321788
0.0019385605
0.107736066
0.014634465
0.0067481645
-0.0066466522
0.055563144
-0.1182229
-0.102011435
0.05816221
0.15900744
-0.081616476
-0.025062352
-0.081583895
0.028393801
-0.15854707
0.11564642
0.05117714
0.032706976
-0.010362976
-0.04095016
0.0030408234
-0.057343446
0.15074532
-0.009979659
0.10076739
0.032379698
-0.014130931
0.06350079
-0.056288246
-0.052613772
0.013683436
-0.030255515
-0.048774574
-0.040697847
-0.08838826
0.04690871
-0.010530148
-0.12852599
0.061025467
0.06965202
-0.09213238
-0.07504781
0.021412548
-0.0720189
-0.021580124
0.05093954
0.06429633
0.15904443
0.13030629
0.030362535
0.07769604
-0.065454386
0.03999938
-0.005249972
-0.07313995
0.05156376
0.019122511
0.037134495
-0.0768048
-0.07606509
-0.04095053
-0.049128536
0.02666601
-0.027103562
-0.021853542
0.016921708
0.021567894
-0.020310927
-0.02150964
-0.07898124
0.031309824
0.008016472
-0.0506471
0.011498098
-0.06743501
0.0064069084
-0.01188922
0.09624817
-0.008204427
0.023483202
0.00014775952
-0.038627133
0.04808727
0.011694125
-0.036676705
0.001504278
-0.030968284
-0.027078697
0.062421188
0.0064920564
-0.0067186635
0.021602057
0.017494444
-0.06337139
0.043761995
0.06780873
-0.0793625
0.027832953
-0.12057023
0.05139142
0.04675623
-0.04596686
0.07732671
0.046221446
-0.038691163
-0.00712388
0.008404624
0.091273986
0.03666896
0.00090148434
-0.07153104
0.07463285
0.046399396
0.11329443
0.0058335382
-0.06916773
0.008521598
0.013744703
0.039453562
-0.028705047
-0.036690205
0.10266008
0.006893429
-0.024047341
0.013141827
-0.12142417
0.031850018
0.07389986
-0.044645645
0.12684762
-0.059182797
-0.0074035767
0.11106209
0.060071554
0.08343913
-0.029281555
-0.042662513
0.045045163
0.102417186
-0.0083532175
-0.04139125
0.06959441
-0.05005648
-0.018459002
-0.07792359
0.057541348
-0.144925
-0.09630225
0.028684823
-0.023231575
0.048749346
0.08412556
-0.042529892
0.050916027
0.00920812
-0.031376403
0.20024222
-0.053182345
-0.005338749
0.0366756
0.009397803
0.0688407
0.051987045
0.018234454
0.096265964
-0.049359854
0.056089327
0.10935627
0.03530771
0.08847543
0.014545817
-0.029757712
0.08685553
0.051871445
-0.064455144
0.05017293
-0.0065494785
0.05508017
0.01307805
-0.013999776
0.060405694
-0.08770448
0.0940849
-0.12601775
0.08828699
0.16430591
0.11003615
0.2132757
0.062277555
0.019337166
-0.084477775
0.018147867
0.03514822
0.045926474
0.019496405
-0.04684109
0.122784555
0.060791045
0.09122237
-0.17391054
0.05326533
0.2144587
-0.0638084
0.0318246
-0.20974235
0.018601166
-0.09911811
-0.06918399
0.039506428
-0.050992537
-0.1530276
0.099194266
-0.022191051
0.07404387
0.06704767
-0.02744428
-0.0859965
0.18581046
0.0321708
0.077403344
-0.019351276
0.0030142535
-0.01714044
0.022257058
0.002902341
0.036274124
-0.03720243
-0.06435107
-0.05146985
-0.121734776
-0.037014302
0.01543653
-0.10781085
-0.05116796
0.017581848
0.078613795
-0.05372456
-0.066080645
0.0032494918
0.09864353
-0.08472794
0.0619464
0.10904584
-0.095688835
-0.022499729
-0.013651993
0.092317365
-0.08101644
-0.03905918
0.10667227
0.035557978
0.062279914
-0.026191907
0.09234519
0.09861934
-0.066795126
-0.01979154
-0.03022851
-0.10678833
-0.04030165
0.07350172
0.05683667
-0.072758816
-0.125801
0.090406395
0.03807215
-0.075035475
-0.037068803
-0.0848232
-0.17715517
0.07402789
0.041497063
0.006846288
0.12336629
-0.066528745
0.0939963
0.0231923
0.039983727
-0.028542196
-0.14702655
0.029150868
-0.02090081
-0.020192163
0.12024712
-0.03171674
0.09672934
0.121360734
0.015530216
0.08343408
-0.082973585
0.017095005
0.11420162
-0.032780364
-0.1246611
-0.2654139
0.062380027
-0.060885236
0.056296315
-0.019988177
-0.00050858856
-0.066294335
-0.011382475
0.056541324
0.0808775
0.13221245
0.07876201
-0.009786316
0.009811917
0.05439624
-0.0012439865
0.029848065
-0.039657578
-0.05406213
-0.010029736
-0.09311572
-0.08021783
0.0070126806
0.036832776
0.08444721
0.035109103
-0.075482264
0.09138905
0.009319367
0.052135468
-0.022494936
0.026327338
0.045095135
-0.04395863
-0.008039629
-0.0784877
0.024614487
-0.051472597
-0.04258938
-0.03544888
0.018864417
-0.03205218
-0.0062724715
0.008679759
-0.046340402
-0.07328227
-0.06548094
0.07507487
-0.034981865
0.09260828
0.019413296
-0.053450875
0.0021541477
-0.048115764
-0.015285307
-0.008204249
-0.048751153
0.07999285
-0.0018613971
0.087226026
-0.12610513
-0.021128383
0.0005114876
0.07088809
-0.014434492
0.049625218
-0.024933355
-0.029519517
0.013386252
0.06774522
0.06276784
0.017636782
-0.11603413
0.031275097
0.0979064
-0.016681451
0.004362103
-0.02688775
-0.01400333
-0.0136020435
-0.067922324
0.06811013
-0.0073609063
-0.05643773
0.05629804
0.03177081
-0.010833122
0.008803458
0.09200865
0.077034384
-0.075734414
0.0883587
-0.049147137
0.084013395
0.09582417
-0.04406573
-0.04357047
-0.024952948
-0.05192199
-0.00035989808
0.047037363
0.07764855
-0.09156265
-0.028727543
-0.03204159
-0.030751975
0.04233151
-0.021899117
-0.012958987
-0.058603823
0.0060343863
-0.06627493
-0.031088768
0.0152416425
0.101581365
0.056190822
0.050322257
-0.031483904
-0.05740578
-0.025537942
-0.06847404
0.032292336
-0.05302129
0.07655289
0.006616159
-0.04543491
0.07207808
-0.1182538
0.0763083
0.13417849
-0.027468545
0.06565361
-0.027962342
0.06553816
0.08934992
-0.027302844
-0.06926945
-0.028765975
0.056842323
0.10536069
0.015593054
-0.07217635
0.057548992
-0.00032230542
-0.08310827
-0.005325904
-0.03042876
-0.029029686
-0.07571579
-0.05734737
-0.11414981
-0.06439137
-0.042801946
-0.0117946295
0.037575804
0.13394675
-0.033051394
0.06556546
-0.046148404
-0.074804075
-0.046172816
0.0658017
0.060987186
-0.030279666
-0.065534905
-0.05583221
-0.051090933
-0.033267602
-0.09480679
0.061529007
0.06503416
0.050598346
0.010685152
-0.022201141
0.05518434
0.012913261
0.06667882
0.026913635
0.084688984
0.051464647
-0.017458977
0.031641994
-0.052973546
-0.016460981
0.067202926
0.053409625
0.00026043784
-0.011993708
-0.06562246
-0.021974418
-0.053948276
-0.0017260867
0.055687215
0.027365709
0.0059655854
0.045775767
0.02556514
0.056363493
0.019792546
-0.0614178
-0.023658289
0.060384303
0.001122256
0.004469088
-0.049942162
0.055904754
0.02535736
0.050594956
0.037420396
-0.06888842
0.008054644
-0.055462487
0.027570538
0.050938617
-0.06818467
-0.02985519
-0.1236162
0.08158224
0.039914805
0.06233018
0.039276782
-0.05400461
0.09698467
-0.08152746
0.07484863
-0.0040101553
0.062650554
-0.07975358
0.026334444
-0.00010383227
0.08443915
-0.022931198
0.029255511
-0.03632475
0.19889843
-0.09476796
-0.037116043
0.05973456
-0.13414885
-0.05984773
0.056224834
0.16444029
0.059843123
0.10868936
-0.023883246
-0.08018278
-0.1170534
-0.039673146
-0.035958532
0.09738926
-0.0987939
0.0020326318
-0.07563117
-0.0071125
0.07652686
-0.048809543
0.001611847
0.045167204
-0.09504262
-0.072917454
-0.021686653
0.13317287
0.12054119
0.08814364
0.05060087
0.097471945
-0.049443424
0.036492907
0.067142606
0.062978044
-0.06307432
0.024369225
0.05707313
-0.05028122
0.042968556
-0.052456193
-0.04284385
0.04328397
-0.055046372
0.024111092
0.07109368
-0.02361226
-0.006982386
0.066759095
-0.018115737
-0.06828479
0.015263125
-0.023401346
0.07132046
-0.0025855154
0.011980183
0.0068574473
0.046028286
-0.061374173
0.046741143
0.045451358
0.005056493
0.03471437
-0.0046597943
0.042307287
-0.033430427
-0.02510925
0.024013393
0.014323361
0.011694506
0.033811755
0.03577192
-0.05179946
-0.059600074
-0.03056407
-0.050418578
0.045487575
-0.070724584
-0.015141923
0.013672359
0.043379605
0.057220176
-0.009318508
0.049184054
0.03623844
0.06517622
-0.031893056
0.0044958517
0.043655217
-0.065630496
-0.037696008
0.02407422
0.048199728
0.06595637
0.016753934
-0.12904008
-0.0029837377
-0.02237519
-0.06698656
-0.010068106
0.07931606
0.12791944
0.12932049
0.053874295
0.16975114
0.11012496
-0.0280998
-0.102186576
0.08103569
0.10713199
-0.1425313
-0.07949602
-0.08037486
0.017283056
0.0058214464
-0.063338906
0.0079859495
-0.1280796
0.0762243
0.08161586
-0.095688984
-0.03172751
-0.02410453
0.03931717
-0.014193839
-0.024272773
0.023022203
-0.085880086
-0.020376531
0.027192613
0.1783853
-0.028896395
0.08959899
0.027192386
-0.04020046
0.12388793
-0.07812706
-0.094698265
-0.03191226
-0.07557592
0.049615007
0.027904298
0.1094838
0.059642736
0.045020204
-0.10121899
0.19051674
-0.023277273
0.09249398
-0.10705443
0.07674432
0.047071017
0.061759733
-0.11571019
-0.008728476
-0.041841865
-0.062001947
0.05390979
0.053083736
-0.00418452
0.0875149
0.031067215
0.018537527
-0.089774385
0.02511276
0.10717594
-0.02675432
-0.08923844
-0.093913384
0.03059029
-0.034273054
-0.09768946
0.10912828
0.034757376
0.16777995
-0.068201244
0.1558825
-0.02489184
-0.05212328
-0.1486265
0.054756276
-0.13249907
-0.15513492
0.005169749
0.024964467
-0.029102562
-0.030310605
-0.18723217
0.0049721748
0.017012004
-4.9547896e-05
0.07257827
0.08982557
-0.084787115
0.0027089904
-0.015553416
0.0058904174
0.09027069
0.038060125
-0.054925703
-0.06325225
0.04817426
0.13684055
-0.106277384
-0.014509313
0.054260682
0.16273837
-0.008979977
0.07284736
-0.07822768
-0.059182644
0.122995354
-0.18968977
0.023436183
0.032371353
-0.06738374
-0.0073402664
0.065650396
-0.063518025
0.011795551
0.09131194
0.029000178
0.20012823
0.10943011
-0.020278191
-0.07329066
-0.08748268
-0.02826772
0.04519028
-0.02633115
0.10182092
-0.09491919
0.16584808
0.049503196
0.052470893
0.095012866
-0.020890616
0.076827794
0.09279046
-0.019140353
0.06452593
-0.10803789
-0.03264236
0.11241349
0.039688013
-0.09024084
-0.046570115
-0.07329153
0.03674672
0.038871292
0.0016041879
-0.032882724
0.034653798
-0.19566181
0.046101116
-0.2498171
-0.06905455
-0.18130475
-0.056150295
-0.06650035
-0.0054705674
0.07416619
0.0060468903
-0.015694693
0.043237247
0.048701167
-0.021310924
0.21755101
-0.04458385
-0.12384998
0.013376518
-0.09535416
0.07469174
0.009714266
-0.010874399
0.031229746
0.021068497
0.039585013
0.19716538
0.07824496
0.102766365
-0.15891096
-0.007993105
0.084826924
-0.045507595
-0.04624815
-0.069407135
0.09619794
0.07114446
-0.100677066
-0.024001276
-0.09988896
-0.0031709226
0.06510129
0.102679074
0.018808253
0.26737228
0.2050458
0.21230744
0.07505649
-0.0969173
0.06569099
-0.14601871
-0.062687054
0.08257012
-0.12628204
-0.05422074
0.20179407
0.02509609
-0.13739035
-0.22453755
0.060826685
0.2129062
0.08959626
-0.08446603
-0.20154883
0.14431173
-0.09220269
-0.06502194
-0.29513597
-0.09394121
-0.13706589
0.0025509528
0.10727842
-0.0659843
-0.03480751
0.029494254
-0.0455449
0.037253983
-0.110840976
0.0271708
0.31729132
0.04122199
-0.06297677
-0.044525046
-0.024508394
0.024912126
-0.049437243
-0.06026012
-0.088743426
-0.038965803
-0.029104467
0.14672244
0.025932532
0.06130047
-0.0859952
0.043617427
0.06363341
-0.094992146
-0.020846937
-0.0659745
0.07826743
-0.016615365
0.06358824
0.011652192
-0.052860763
0.07419759
-0.023674287
0.06520727
-0.0015688329
-0.076449566
0.042435862
-0.06777137
-0.030004166
-0.017582603
0.021873616
0.009715438
-0.051806986
0.13121402
-0.02882959
0.022884315
-0.04173376
0.00044262386
-0.03708275
0.07198143
0.028141938
-0.066718526
0.063967794
0.03476478
0.048227433
0.038676627
-0.07317973
-0.027846044
-0.036960278
0.043178685
-0.030830877
-0.087877296
0.007554705
0.029985875
0.08231666
0.08075076
0.10655339
0.019450845
-0.044115696
-0.01595836
-0.14733377
-0.10014318
-0.0075304112
0.10133711
-0.053281363
0.08128941
-0.11491462
0.009765803
-0.043850113
-0.00939596
0.040617313
0.098356284
0.042285006
0.059603285
0.03696154
0.083674945
-0.011727813
-0.025305983
-0.072078414
-0.048116084
0.025144208
0.07882451
0.06968222
-0.03061992
-0.0450761
-0.018585186
-0.0054736906
-0.042228278
0.021972055
0.035926096
-0.06522624
-0.117311046
-0.14917439
0.056863338
0.033231623
-0.032389585
-0.004595626
0.08308796
0.07209475
0.025411258
0.0026306303
0.052878905
-0.03601882
-0.019975528
0.07726166
0.08882658
-0.1012284
0.08411314
-0.095166445
0.021685913
-0.08933885
0.081434704
0.03974221
0.007896399
0.054010816
0.014835104
-0.05705787
0.017759144
0.110264346
0.08593731
0.12919772
0.056515478
-0.06443432
0.11346635
-0.14127888
-0.104682654
-0.018847633
0.069459066
0.014194926
0.07846186
-0.11308998
0.0750493
0.016637115
-0.069415696
0.015665658
0.039845757
0.07931131
-0.035784405
0.08819508
0.066611774
0.004989367
-0.08325201
-0.11791924
0.08558603
0.00025001206
0.08712659
-0.08616432
-0.07044422
-0.122404166
0.01731039
-0.031327132
0.027665451
-0.113955386
-0.07477822
-0.016527629
-0.051842045
-0.04277874
-0.016110064
-0.0017190869
0.17460275
-0.1644917
0.08563093
0.04904782
0.0031123152
-0.034351144
0.07127515
-0.10361219
-0.19971372
-0.029463941
0.0021483095
0.014377603
0.07956361
-0.16273685
0.09342689
-0.062910825
0.086607866
0.0052743685
0.033654016
0.02891301
-0.07858244
0.012967632
-0.07907008
0.010812758
0.0049530813
0.10491095
-0.14555319
-0.035664562
-0.0029438112
0.14046164
-0.1389311
-0.049611725
0.088596106
-0.15841268
0.11128901
-0.04837292
-0.10375793
0.11348108
-0.13353354
0.11218425
0.1132913
-0.04664473
0.075190485
-0.019975102
-0.058736507
0.052990336
0.090116434
-0.0929089
0.059739526
0.16724072
0.04236419
-0.05253183
0.076729305
-0.095386274
0.044550564
0.039028037
0.010453644
0.010307341
0.28174925
0.14155391
0.131235
0.19758439
-0.1985559
0.060577575
-0.023942748
-0.04588067
0.073478796
-0.09777388
-0.110476494
0.16460222
0.068080895
-0.07872979
-0.23936588
-0.042115245
0.121359415
0.1468641
-0.083599776
-0.12890756
0.027296893
-0.12650722
-0.05204913
-0.26899976
-0.1198858
-0.1169962
0.0015504332
0.043224417
-0.060262967
-0.04794065
0.056426078
-0.017100647
0.031060698
0.004979976
0.017270233
0.29049346
0.108410046
-0.01804045
-0.0934556
-0.0787008
0.04565262
-0.006748449
-0.09893433
0.0018130962
-0.037749525
-0.005848668
0.17955951
0.060606025
0.06676316
-0.16062002
0.14749609
0.05291587
-0.0322976
0.022769807
-0.10200071
-0.043242875
0.10668806
-0.08295987
-0.07746714
-0.14396785
-0.057064105
-0.00928916
0.006579143
-0.0099446075
0.11355594
0.019967768
-0.08078852
0.10151011
0.06936978
0.07934721
0.019581946
0.17958091
-0.09766608
-0.06327051
0.069007434
-0.016794115
0.0051236027
-0.15175253
0.0042733373
-0.021010088
0.12279528
0.08408486
-0.01073465
0.06283573
-0.010738921
0.050418172
0.09667432
-0.1336809
-0.09376273
0.0387953
0.06085026
0.024965204
0.03703678
-0.10827755
-0.0038239066
0.057510164
0.0025680007
-0.075459756
-0.00705214
0.12150081
0.003448171
0.07084501
0.009288615
0.1362939
0.017750055
-0.010406158
0.11455494
-0.05234745
0.12387984
-0.024839407
-0.03420725
0.038580064
0.1341124
-0.13361378
-0.0074430774
-0.049419817
-0.10136983
-0.04833112
-0.044499036
0.040985335
-0.012305838
-0.016794886
0.07422252
-0.009298084
0.05318004
-0.072554216
-0.08170077
0.052115537
0.038809024
-0.09578444
-0.15538394
0.08552615
-0.0650155
-0.034488108
-0.061798554
-0.0296032
-0.03804848
0.021655284
