-0.18021997809410095,0.15870052576065063,0.14006738364696503,0.10118196904659271,0.027193523943424225,0.1439037322998047,0.14613914489746094,0.20296457409858704,0.053539860993623734,0.17513982951641083,0.18473754823207855,0.20543591678142548,0.1784750521183014,0.14162318408489227,0.12264879047870636,-0.0328015498816967,0.02262185700237751,0.015623213723301888,-0.22530029714107513,0.03935558348894119,0.12358972430229187,0.029574191197752953,0.1348259449005127,-0.11276731640100479,0.19358853995800018,0.09141059219837189,0.21098096668720245,0.0024401689879596233,0.13097324967384338,0.30853262543678284,0.24924379587173462,0.04913560301065445,0.2108008861541748,0.0982838124036789,-0.23286230862140656,0.10564015060663223,0.1288631111383438,0.041471172124147415,-0.06354261189699173,-0.026916950941085815,0.14549411833286285,0.17593620717525482,0.06268100440502167,0.15312857925891876,-0.21263249218463898,0.08809168636798859,0.1669820100069046,0.12096419930458069,0.24255192279815674,0.16712306439876556,-0.0996137261390686,-0.07320667803287506,-0.09419246017932892,-0.009115916676819324,-0.3542003929615021,-0.0232694149017334,-0.1937619149684906,0.008285947144031525,-0.03325467184185982,0.07647086679935455,-0.05911780521273613,0.13701558113098145,0.26492926478385925,0.13391311466693878,-0.23333656787872314,0.09902124106884003,0.13268761336803436,0.15089011192321777,-0.061179857701063156,0.30802077054977417,0.017020922154188156,0.08771806210279465,0.21374288201332092,0.21527422964572906,0.15882667899131775,0.11709892004728317,0.0585453063249588,0.1403055638074875,0.22565267980098724,0.14408186078071594,-0.09446489065885544,-0.02009863778948784,-0.358187735080719,0.002677229465916753,0.3079442083835602,0.17732158303260803,0.12551888823509216,-0.2759931683540344,0.10561621189117432,0.14331434667110443,0.2033548355102539,0.1683264672756195,0.10486219823360443,0.18664616346359253,0.29712313413619995,0.08796775341033936,0.16512234508991241,0.09397497773170471,0.15559081733226776,0.14082078635692596,0.19944623112678528,0.06932428479194641,0.02283923327922821,0.09804578125476837,0.14816758036613464,0.10537302494049072,-0.014546378515660763,0.09752444177865982,-0.12239278852939606,0.1597178429365158,0.05223926901817322,0.11793042719364166,0.17164529860019684,0.2174367755651474,-0.1740708351135254,0.013718332163989544,0.16019980609416962,0.15437304973602295,-0.03663129359483719,-0.05605342984199524,-0.19413462281227112,0.1431536078453064,0.10319031774997711,0.22714340686798096,0.008469599299132824,0.026027802377939224,0.1300686150789261,0.12331300973892212,-0.16971300542354584,0.11619158089160919,0.21236884593963623,0.05446738749742508,-0.36854732036590576,0.1741386353969574,0.12705090641975403,-0.12719714641571045,0.19048292934894562,-0.07952014356851578,0.03966868668794632,-0.05375523120164871,0.13121864199638367,0.0626763105392456,0.14448198676109314,0.2991205155849457,-0.0446317233145237,0.025509722530841827,-0.19722986221313477,0.11139028519392014,0.20250444114208221,0.21663174033164978,-0.02068057470023632,-0.21927623450756073,-0.2716519236564636,0.17579348385334015,0.19608783721923828,0.13300874829292297,0.051258232444524765,-0.06105669215321541,0.08113857358694077,-0.21481387317180634,-0.05506445840001106,0.0872996523976326,0.12924513220787048,-0.1785864382982254,0.14059992134571075,0.16663579642772675,0.17605838179588318,0.06522068381309509,0.17551346123218536,0.17730844020843506,0.2181510627269745,0.1957368403673172,0.13288910686969757,0.10746051371097565,-0.3152996897697449,0.1927436888217926,0.23066146671772003,0.1552685648202896,-0.14924566447734833,0.2596738934516907,0.14990007877349854,-0.02552972547709942,0.25737613439559937,-0.04659115895628929,-0.16263726353645325,-0.1421370804309845,0.2627103328704834,0.224443718791008,0.17423874139785767,-0.08317778259515762,-0.02908935211598873,0.24490699172019958,-0.05679557844996452,-0.067224882543087,0.10434532165527344,0.21516349911689758,0.11289437860250473,0.18115821480751038,0.17417457699775696,0.19151721894741058,0.0899750292301178,-0.003974197898060083,0.12477406859397888,0.12587584555149078,0.05843561887741089,0.03491973504424095,0.12106149643659592,0.1494564712047577,-0.023042624816298485,0.0270061194896698,0.107494056224823,0.015088850632309914,0.05976152792572975,0.09137587994337082,0.2472476065158844,0.11582311242818832,0.06367646157741547,0.23548682034015656,0.19303801655769348,0.10959218442440033,0.1725728064775467,0.07294195145368576,-0.02210131660103798,0.2681301534175873,0.1607438027858734,0.15558147430419922,-0.2671010494232178,0.12927289307117462,0.04027535393834114,0.014542311429977417,-0.06281920522451401,0.07048246264457703,-0.08244715631008148,0.19294840097427368,0.08110083639621735,0.16682927310466766,-0.2054450511932373,0.12926453351974487,0.24302610754966736,0.0669613629579544,0.23034097254276276,-0.15102554857730865,0.1519862860441208,0.15374058485031128,0.21341511607170105,0.2144959717988968,-0.20995189249515533,-0.04741756618022919,0.016151098534464836,0.21652434766292572,0.23410136997699738,-0.006208616774529219,0.07478657364845276,0.2530616819858551,0.23680688440799713,0.12165617942810059,0.047154750674963,0.04623051732778549,0.0012520081363618374,0.14653871953487396,0.0361965112388134,0.20070043206214905,0.0155002661049366,-0.08237957954406738,-0.008552340790629387,0.17504796385765076,0.23879842460155487,0.15948060154914856,0.2621687352657318,0.13593508303165436,0.13046959042549133,0.24707253277301788,0.2349167913198471,0.22898471355438232,0.09558805078268051,0.05689433962106705,0.32660233974456787,0.3186556100845337,0.2842099666595459,-0.00011683608317980543,0.146328404545784,0.1615557223558426,0.07256534695625305,0.2128133922815323,0.2141256332397461,0.1606980413198471,0.14888577163219452,-0.07353883981704712,0.24942991137504578,0.12133043259382248,0.0149217015132308,0.06242058798670769,0.2136724591255188,0.02562706358730793,0.09593650698661804,0.05429190769791603,-0.004535886459052563,0.06743981689214706,0.15990081429481506,0.3346264958381653,0.13814310729503632,0.2033197432756424,-0.002790609374642372,0.18932290375232697,0.2386331856250763,-0.015449382364749908,-0.06846582889556885,0.1905764639377594,0.12025697529315948,0.26112061738967896,0.0431329607963562,-0.04133022204041481,0.05470139905810356,0.008963830769062042,0.16880086064338684,0.09728444367647171,0.07021457701921463,0.2653473913669586,-0.053008269518613815,0.06504880636930466,0.01086344849318266,0.09043475985527039,-6.76531417411752e-05,-0.0024119780864566565,-0.07415169477462769,0.0002621780149638653,0.12546445429325104,-0.2068224400281906,0.11244645714759827,0.11161495745182037,0.1960722655057907,0.18329991400241852,0.11337518692016602,0.18959461152553558,0.03648209199309349,0.1863522082567215,0.18356089293956757,0.2337305098772049,0.010671245865523815,0.011638067662715912,0.07240046560764313,0.1374591737985611,-0.012072548270225525,-0.062454476952552795,-0.2992703914642334,0.04281332716345787,0.11104749143123627,0.10484843701124191,0.20222018659114838,0.11229772120714188,0.10323990881443024,-0.22893424332141876,0.11403751373291016,0.1121133491396904,0.1690189391374588,-0.23473522067070007,0.2712714672088623,0.1441141963005066,0.11313102394342422,0.11676803976297379,0.1662217527627945,0.19840294122695923,0.18457363545894623,0.04600345343351364,0.08746099472045898,0.2502603232860565,-0.20914486050605774,0.04241752251982689,-0.08125672489404678,0.20170778036117554,-0.3094029128551483,0.18294058740139008,0.19424119591712952,0.19459697604179382,0.1705539971590042,-0.0026822611689567566,0.04252273961901665,-0.32989153265953064,-0.012368002906441689,0.00713835284113884,0.19715680181980133,0.09976977109909058,-0.2915070950984955,0.007660177070647478,0.24143798649311066,0.0466492585837841,-0.24539987742900848,0.21299822628498077,0.21579593420028687,0.03213870897889137,0.2137404978275299,-0.08232226967811584,-0.31232723593711853,-0.17171771824359894,-0.04165909066796303,-0.10597056895494461,0.08304314315319061,-0.2544756531715393,-0.04792607203125954,0.06743784248828888,0.16676197946071625,0.13420352339744568,0.11964189261198044,0.24414636194705963,-0.0881534293293953,0.1157972514629364,0.1566779762506485,0.16608601808547974,0.19116008281707764,0.13788390159606934,0.03244517371058464,0.10636109113693237,0.23681721091270447,-0.05472918599843979,-0.15610112249851227,0.21223150193691254,0.0644213929772377,0.16503788530826569,-0.21135488152503967,0.2326541543006897,-0.1349593698978424,0.19391591846942902,0.1585794985294342,0.22852429747581482,-0.29625892639160156,-0.09907102584838867,0.2119801640510559,0.13924185931682587,-0.012944179587066174,0.0439331941306591,0.09694548696279526,0.18554291129112244,0.04556523635983467,-0.23668065667152405,0.3108859360218048,0.24376998841762543,0.11866216361522675,0.21070343255996704,-0.14229263365268707,-0.014365367591381073,0.2154717743396759,0.25519856810569763,-0.028156638145446777,-0.10136105120182037,0.2170868217945099,0.04076366126537323,0.12926775217056274,-0.2265329658985138,0.14260880649089813,0.14996765553951263,-0.1853988617658615,0.16104578971862793,0.2692711055278778,0.001785064348950982,0.21417753398418427,-0.353382408618927,-0.20670238137245178,0.05173342302441597,0.01862138882279396,0.10554367303848267,0.1449597030878067,-0.26532599329948425,0.18194672465324402,0.12929385900497437,0.2521623969078064,0.22281979024410248,0.24932564795017242,0.17774823307991028,0.06398507207632065,0.24028252065181732,0.19845633208751678,0.26890337467193604,0.09840879589319229,-0.0016748066991567612,0.240456685423851,0.12295254319906235,0.14745503664016724,0.09731490164995193,0.08412674069404602,0.03647182136774063,0.007493495941162109,0.19036602973937988,-0.015376708470284939,0.011179773136973381,0.01976233720779419,0.05925203859806061,0.22749432921409607,0.28726035356521606,-0.17380039393901825,-0.0801311582326889,0.017455903813242912,0.02375364862382412,0.25956234335899353,0.19148853421211243,0.2286503165960312,0.023600701242685318,-0.12901020050048828,-0.22801430523395538,0.19761236011981964,0.13539379835128784,0.019060447812080383,0.2027786374092102,0.07630424946546555,-0.0397079773247242,0.1242213025689125,0.0830729529261589,-0.17667286098003387,-0.31427329778671265,0.14518366754055023,0.28252220153808594,-0.15122874081134796,-0.2233024686574936,0.1934574842453003,0.2128535658121109,-0.03811131417751312,0.07777384668588638,0.13266994059085846,0.062214694917201996,0.06224101781845093,-0.10631254315376282,-0.0002769510610960424,0.18564394116401672,0.2570045590400696,0.31895700097084045,0.07152488082647324,-0.12320318818092346,0.09320592880249023,-0.11626047641038895,0.26237186789512634,0.14002467691898346,0.17431700229644775,0.21387803554534912,0.11103760451078415,-0.038088735193014145,-0.056786514818668365,0.1148010790348053,-0.20702789723873138,0.04390086978673935,0.14577242732048035,0.10334313660860062,0.1407550871372223,0.13216324150562286,0.19362762570381165,-0.06599713116884232,0.11088814586400986,0.13683941960334778,0.23478585481643677,-0.2601092457771301,0.1971583366394043,0.13168857991695404,0.17172357439994812,0.18645130097866058,-0.07166808843612671,-0.17674976587295532,0.019377605989575386,-0.24085545539855957,0.1921180784702301,0.15458399057388306,-0.06270943582057953,0.17698641121387482,-0.3129364550113678,0.000370095600374043,0.06985770910978317,-0.022691955789923668,-0.0500587522983551,0.2369655817747116,0.10494852811098099,-0.022234611213207245,0.1433592587709427,-0.24091394245624542,-0.24676479399204254,-0.23107881844043732,0.02976103499531746,0.17678046226501465,-0.23018522560596466,-0.23260287940502167
-0.046298813074827194,0.06768811494112015,0.09287536889314651,0.11429234594106674,0.02725989930331707,0.008496996015310287,-0.04453270509839058,0.03368135914206505,-0.0038244822062551975,0.10111392289400101,0.08208803087472916,0.048688970506191254,0.016157658770680428,-0.01454896666109562,0.03778347745537758,-0.006665037013590336,0.016373319551348686,0.10597839206457138,-0.07065992802381516,0.12244939059019089,-0.08703433722257614,-0.10949964076280594,-0.13970895111560822,-0.03128279000520706,0.03708001226186752,-0.03867699205875397,0.12402871996164322,0.014299917966127396,0.11178840696811676,0.014310921542346478,0.01635594293475151,-0.041842151433229446,-0.046078991144895554,-0.03124351054430008,-0.011543601751327515,0.1370326578617096,0.0797332301735878,0.10086994618177414,0.047531016170978546,-0.021426472812891006,0.04097119718790054,-0.1171979308128357,-0.11304699629545212,-0.1663905531167984,-0.031119804829359055,-0.022075418382883072,0.06694208085536957,-0.027291642501950264,0.05065644532442093,-0.05021962523460388,0.023073580116033554,0.09630408883094788,-0.004580767825245857,-0.057357385754585266,-0.09128662198781967,0.1511964499950409,-0.005499937105923891,0.0012160905171185732,-0.023504767566919327,-0.005465169902890921,0.016805047169327736,-0.12189970165491104,0.12533104419708252,-0.09270226210355759,0.04922283813357353,0.045059822499752045,-0.03530760109424591,0.015690773725509644,-0.05143266171216965,0.05109615996479988,0.06714379042387009,-0.0668477937579155,-0.03395136818289757,0.015551450662314892,0.020760511979460716,-0.20467351377010345,-0.05705048516392708,0.06597871333360672,0.02779129520058632,-0.02538123168051243,-0.07260817289352417,0.03195665404200554,0.02970806695520878,0.03637726604938507,-0.02552034519612789,0.01966041326522827,-0.010977553203701973,-0.08590788394212723,-0.021494345739483833,-0.03314545750617981,-0.05144423618912697,-0.006177668925374746,-0.0006760151009075344,-0.03482484817504883,-0.0824466347694397,0.0704759731888771,-0.049578238278627396,0.02786947973072529,0.044585857540369034,-0.01265949010848999,0.01923641376197338,-0.009016192518174648,0.030414074659347534,0.004847497213631868,0.009586308151483536,0.07842843979597092,0.044439006596803665,0.09041623771190643,-0.038155246526002884,0.01919940672814846,-0.008647497743368149,0.042213357985019684,0.05032561346888542,0.09160669147968292,-0.039976466447114944,-0.05016328766942024,-0.04996063560247421,0.02496495470404625,0.03740841895341873,0.03766928240656853,-0.021839410066604614,-0.015512285754084587,0.0736437737941742,-0.04688361659646034,-0.00822393037378788,0.10686405003070831,0.0007806069916114211,0.007336022332310677,0.1350020319223404,0.11095988750457764,0.07654450088739395,0.08924973011016846,-0.00035806692903861403,-0.08085832744836807,-0.07420840859413147,-0.07776889204978943,0.047941431403160095,0.13017544150352478,-0.0016435267170891166,-0.09574577212333679,-0.004501729272305965,0.08283457905054092,-0.08470389246940613,0.0705183669924736,0.050460100173950195,-0.06823370605707169,0.04416535794734955,-0.09638060629367828,0.007108967285603285,-0.010787752456963062,0.10893318802118301,-0.012527139857411385,0.01131436601281166,0.15263059735298157,-0.02871323935687542,-0.07947975397109985,-0.06658025085926056,0.006916912738233805,-0.06523517519235611,0.04065967723727226,-0.09623797982931137,-0.1140415295958519,-0.05668614059686661,-0.03093610517680645,0.0958884134888649,0.039507828652858734,-0.013579766266047955,-0.008351060561835766,-0.14047425985336304,0.08432880789041519,-0.06099056079983711,-0.0583343543112278,0.12916332483291626,0.037774208933115005,0.05731942132115364,-0.12817434966564178,0.0049038114957511425,-0.05681000277400017,0.0415600910782814,0.030704321339726448,-0.23642702400684357,-0.030041154474020004,-0.04664504900574684,-0.050825249403715134,-0.014989903196692467,-0.07168179750442505,0.08049506694078445,0.09192734956741333,-0.03932591900229454,-0.04470933973789215,-0.14573180675506592,0.0861852765083313,0.03935975208878517,-0.000958411255851388,0.0044649518094956875,-0.06219081953167915,0.023934578523039818,0.04756391420960426,-0.03962055966258049,0.06159558892250061,-0.00015484954928979278,-0.1061067134141922,-0.0031090762931853533,-0.19523467123508453,0.015918342396616936,0.042481791228055954,0.04405849799513817,-0.10768657922744751,-0.03764880448579788,0.048441216349601746,-0.045603521168231964,0.02164490520954132,-0.07378945499658585,-0.022095512598752975,-0.01721971482038498,-0.09513582289218903,0.013463708572089672,-0.08619438856840134,0.007398165762424469,0.04792148247361183,-0.11021717637777328,-0.05378831923007965,0.03952253237366676,-0.012795454822480679,-0.0065277512185275555,0.05208476632833481,-0.03903499245643616,-0.002386001870036125,0.020853182300925255,-0.05442701280117035,-0.04634617641568184,0.04600752890110016,-0.08338411152362823,-0.05273459106683731,0.0706215649843216,0.007098317611962557,-0.06627893447875977,0.035153601318597794,-0.043326184153556824,-0.04142657667398453,-0.05678079277276993,-0.019951488822698593,-0.04529336094856262,0.006825675256550312,-0.018932653591036797,-0.08781498670578003,0.015333063900470734,0.05395982787013054,-0.03557983413338661,-0.06009834632277489,-0.03783674165606499,0.029965341091156006,0.04782725125551224,-0.0038745091296732426,0.03074256330728531,0.03976798430085182,-0.03626573085784912,0.10075272619724274,0.10689525306224823,-0.022141695022583008,0.07699375599622726,0.08110968768596649,0.1257786899805069,0.057559821754693985,0.04626501724123955,-0.055757056921720505,-0.024277953431010246,-0.13465555012226105,0.05425024777650833,0.10728831589221954,0.1536352038383484,-0.14596772193908691,-0.0800536498427391,0.04368763417005539,-0.09113629907369614,-0.016188455745577812,-0.08521483838558197,0.06452571600675583,-0.09603516012430191,-0.06680654734373093,0.003275870345532894,-0.12801958620548248,0.08478301018476486,-0.0007626396836712956,0.011306275613605976,-0.08933524787425995,-0.06077954173088074,0.004800425376743078,-0.0339968204498291,0.07532761991024017,0.01991899311542511,0.02362954057753086,0.12645703554153442,0.06569654494524002,-0.04053046926856041,0.04703674837946892,-0.02347949706017971,-0.045096296817064285,-0.06968680024147034,-0.12013265490531921,0.011752652004361153,0.03156143054366112,0.07774459570646286,0.04933461174368858,0.07316990196704865,-0.005095630418509245,-0.0923139899969101,0.027014819905161858,-0.06978270411491394,0.025202058255672455,-0.12995174527168274,0.08024676144123077,-0.0653419941663742,0.07517662644386292,-0.023142920807003975,-0.1067490503191948,-0.0646086260676384,0.026738232001662254,0.16067789494991302,-0.07515187561511993,0.0913538932800293,0.0639100968837738,-0.026783550158143044,0.016563614830374718,0.025544172152876854,-0.06014363467693329,-0.03931840509176254,0.04363616928458214,-0.04360249638557434,-0.05701322481036186,0.05461127310991287,-0.21407796442508698,0.07366906106472015,0.0633683130145073,0.0025597414933145046,-0.04332166165113449,-0.02549125626683235,0.04910976067185402,0.01723848283290863,0.03442637249827385,-0.02769176848232746,0.10596930980682373,-0.023422934114933014,-0.036968495696783066,-0.05706191435456276,0.06625942885875702,0.04571736231446266,0.0736507922410965,-0.10611535608768463,0.03823567181825638,-0.09334272146224976,-0.05258987843990326,-0.11928446590900421,0.14339978992938995,-0.015189677476882935,0.014749125577509403,0.14236164093017578,0.004926520399749279,0.017023714259266853,0.05069354921579361,-0.04532068595290184,0.027347369119524956,0.026441363617777824,-0.050000015646219254,-0.023362210020422935,-0.041613392531871796,-0.012282773852348328,0.01591659151017666,-0.07362911850214005,-0.015820540487766266,-0.05304734408855438,-0.03196136653423309,0.03492599353194237,-0.11649478226900101,0.06557074934244156,0.05747828260064125,0.038802992552518845,0.025933263823390007,-0.02431170456111431,0.03808629512786865,-0.04399010166525841,0.0021364812273532152,-0.10640441626310349,0.02201901003718376,-0.002996434224769473,0.06778819113969803,-0.02200241945683956,0.0002352683077333495,0.048779528588056564,-0.03146888688206673,0.05996245890855789,0.06957536935806274,-0.013862203806638718,-0.036601316183805466,-0.05232961103320122,-0.19295550882816315,0.05555439367890358,-0.05485691875219345,0.018409008160233498,-0.020233849063515663,-0.07904384285211563,0.10587857663631439,-0.011654021218419075,-0.009872105903923512,-0.06131286919116974,-0.03845244273543358,-0.03878804296255112,-0.04352458938956261,-0.050402142107486725,-0.0986035168170929,-0.03774753585457802,0.07914448529481888,0.02374850958585739,0.011607524007558823,0.0443001426756382,-0.013686423189938068,-0.08597970008850098,0.11423779278993607,-0.010008350014686584,-0.015242000110447407,0.05441168323159218,0.06956154108047485,-0.03864011913537979,0.0867757573723793,-0.0562201552093029,-0.027070043608546257,-0.011009770445525646,0.05448271334171295,-0.015927694737911224,-0.03126757964491844,-0.007235560100525618,-0.0010707100154832006,-0.017781022936105728,0.012267831712961197,-0.04651174694299698,-0.027009040117263794,0.07089954614639282,-0.1491110771894455,0.00482358830049634,-0.022232508286833763,0.01284065656363964,0.001615355722606182,-0.009799309074878693,-0.054680053144693375,-0.04664313793182373,0.11572927236557007,0.05297026038169861,-0.01692010648548603,0.010341462679207325,0.11893459409475327,-0.22921150922775269,-0.002811487764120102,-0.012636960484087467,-0.04848601669073105,-0.025310954079031944,0.058863114565610886,0.05870433896780014,0.011431913822889328,-0.02765372022986412,-0.01512770727276802,0.0656610056757927,-0.07523486763238907,0.023506084457039833,-0.045201901346445084,0.12364757806062698,0.10725042223930359,-0.014385053887963295,-0.03544481098651886,-0.03122369758784771,-0.18161144852638245,0.08954328298568726,-0.0031564156524837017,-0.099808469414711,0.0035364667419344187,0.17889903485774994,-0.20573382079601288,-0.038643378764390945,0.02529563196003437,0.055832426995038986,-0.054822713136672974,0.08864042162895203,0.11225797981023788,0.17595569789409637,0.02532563917338848,-0.06621870398521423,-0.15389975905418396,-0.023995308205485344,-0.004650827497243881,0.06687813252210617,-0.1613844484090805,0.048703767359256744,-0.1860496550798416,0.05130032077431679,0.07421877980232239,0.05349397286772728,-0.05359499529004097,-0.08453813195228577,-0.013610724359750748,0.02473275363445282,-0.04834570735692978,-0.040394436568021774,0.03612731397151947,0.0009252672316506505,-0.10803697258234024,-0.030952079221606255,0.02492760494351387,-0.01348316390067339,0.008412507362663746,0.04570550099015236,0.15288931131362915,-0.006327904295176268,-0.06113667041063309,-0.0029594465158879757,0.12942364811897278,0.0885222926735878,0.0815512165427208,0.033864349126815796,-0.09843096137046814,0.003371472703292966,-0.14174573123455048,0.10610297322273254,0.12149084359407425,0.0302475243806839,0.05053740367293358,-0.013953575864434242,0.12617062032222748,-0.06599533557891846,0.08480086922645569,0.04770045727491379,0.007180603686720133,-0.0005587484920397401,-0.04195094853639603,0.03205765038728714,-0.014915263280272484,0.03028891794383526,0.0035883646924048662,0.01360694132745266,0.16061004996299744,-0.040579020977020264,-0.06804557889699936,-0.09071655571460724,-0.06468094140291214,-0.11263950914144516,0.06839654594659805,-0.08754871785640717,-0.14297161996364594,-0.16022609174251556,-0.05468519404530525,0.024044666439294815,0.04565974324941635,0.051558494567871094,-0.08215095847845078,-0.07333792746067047,-0.01179376058280468,-0.04980909451842308,0.049501363188028336,0.12533605098724365,0.007930847816169262,-0.05910033732652664,-0.11811672896146774,0.02778487093746662,0.03297419846057892,-0.05760914832353592,-0.0011739070760086179,-0.2045932561159134,-0.06928124278783798,-0.029139656573534012,-0.056296005845069885,0.020385079085826874,0.0017217439599335194,0.10564898699522018,0.01742362231016159,-0.09766234457492828,-0.1613578498363495,-0.14090566337108612,0.16767646372318268,0.148287832736969,0.008784988895058632,0.06741287559270859,-0.0002682386839296669,-0.0017061197431758046,0.02834385633468628,0.07313290238380432,-0.03305855020880699,0.09438274800777435,-0.023836707696318626,-0.08177263289690018,-0.16869191825389862,-0.020825637504458427,0.07793068885803223,0.012128773145377636,0.06352966278791428,-0.08279774338006973,0.010849113576114178,-0.024914337322115898,-0.03477278724312782,-0.07875266671180725,0.13346290588378906,-0.06845462322235107,-0.057579636573791504,0.05012276768684387,0.05125996842980385,-0.10617279261350632,0.00922722090035677,-0.09022679179906845,-0.042797546833753586,-0.07456964999437332,-0.008519754745066166,-0.10907255113124847,0.08473659306764603,0.01292739249765873,0.03825223445892334,0.06311514973640442,0.03251059725880623,0.0038002142682671547,0.014915134757757187,0.018406691029667854,0.05320083722472191,-0.018931278958916664,0.10249301046133041,0.01615525409579277,0.022489601746201515,0.020627658814191818,0.029537085443735123,0.03844099119305611,-0.012263549491763115,0.04047758877277374,0.07732883840799332,0.07316366583108902,-0.056976258754730225,-0.022295599803328514,-0.07300223410129547,0.010741307400166988,0.04091703146696091,0.035358063876628876,0.03397754579782486,-0.09187302738428116,0.046340059489011765,-0.10269217193126678,0.10688343644142151,0.064447320997715,0.004908747039735317,0.060492996126413345,0.02621607296168804,0.05694393441081047,-0.04859990254044533,-0.000712327950168401,-0.08772163093090057,0.08807440847158432,-0.02022310346364975,-0.02375897392630577,-0.13507503271102905,0.02092716656625271,0.05972084403038025,0.04963399097323418,0.0281290914863348,-0.08187148720026016,0.026998503133654594,-0.057753100991249084,-0.006218363530933857,-0.04097703471779823,0.026123367249965668,0.05225345864892006,-0.08426755666732788,0.04262348264455795,-0.023068586364388466,-0.001011032029055059,-0.044683296233415604,-0.01030633132904768,0.0045944578014314175,0.004906560759991407,-0.01611935719847679,-0.015164761804044247,0.09744712710380554,-0.09549164026975632,-0.04353330656886101,0.024289701133966446,0.01853271573781967,0.058906521648168564,0.08346245437860489,-0.04581327736377716,-0.008080045692622662,-0.05097286030650139,0.033137451857328415,0.015556386671960354,-0.06024858355522156,0.039850737899541855,-0.022584691643714905,0.044356781989336014,-0.026723278686404228,0.011244339868426323,0.07207965850830078,-0.05057917907834053,-0.08558213710784912,-0.023223843425512314,0.05804133415222168,-0.04689119756221771,0.0028375349938869476,-0.027809765189886093,-0.05641413852572441,0.05377379432320595,0.06265068054199219,-0.04484470188617706,0.06538483500480652,0.0896575078368187,0.10758710652589798,0.017399782314896584,-0.018547413870692253,-0.009088736027479172,0.018298953771591187,0.03699381276965141,0.06557511538267136,-0.004069306887686253,-0.09624221920967102,-0.0687536671757698,-0.15873411297798157,-0.06077611446380615,0.015371731482446194,0.04473407194018364,0.04658127948641777,0.004848692566156387,0.09595537185668945,-0.017308248206973076,0.019643573090434074,-0.039698950946331024,0.0006854181992821395,-0.08469607681035995,-0.05213262513279915,0.043312326073646545,-0.06447558850049973,0.0076941014267504215,0.04928336292505264,0.013327990658581257,-0.05441941320896149,0.008111259900033474,-0.003116549225524068,-0.06910969316959381,0.12048890441656113,0.01894647814333439,-0.05449935793876648,0.010895832441747189,0.09596387296915054,0.06494924426078796,-0.029588669538497925,0.09828075766563416,0.005568807478994131,-0.07433493435382843,0.06790554523468018,-0.08074767887592316,-0.03005913458764553,-0.043192606419324875,-0.04378359019756317,0.03863763436675072,0.07235446572303772,-0.04090039059519768,0.036618079990148544,-0.014014814980328083,0.016522012650966644,-0.03133473917841911,0.07955148816108704,-0.045503150671720505,-0.009910655207931995,-0.0243296530097723,-0.08237574994564056,0.04449739679694176,0.005025067832320929,-0.05927269905805588,0.006731619127094746,0.05389632284641266,0.04948756471276283,-0.044730015099048615,-0.0224391371011734,0.0614493303000927,0.07890992611646652,0.0018517846474424005,0.010348199866712093,0.08435292541980743,-0.10998412221670151,0.04384853318333626,-0.22731541097164154,-0.018200134858489037,0.053136344999074936,0.06736856698989868,0.053160473704338074,-0.08570894598960876,0.1015249490737915,0.011659734882414341,-0.06101391837000847,0.05420832335948944,0.10117378830909729,0.042390644550323486,-0.05840735882520676,-0.046125900000333786,-0.03570396080613136,0.024734877049922943,0.0696159303188324,-0.014895981177687645,0.07368987053632736,-0.007283729035407305,0.01842285506427288,-0.09478218108415604,0.01813378743827343,-0.016368161886930466,-0.014133593998849392,0.07040177285671234,-0.062099818140268326,-0.0058998544700443745,-0.009478794410824776,-0.007763217203319073,0.003939405083656311,-0.05795604735612869,0.06015875190496445,0.03436729684472084,-0.10177790373563766,-0.06477563083171844,-0.050999026745557785,-0.044161465018987656,-0.059273071587085724,-0.02954074740409851,0.055759575217962265,-0.02815798670053482,-0.1510912925004959,-0.030759647488594055,-0.024598587304353714,-0.04754294455051422,-0.0030762762762606144,-0.00019727376638911664,0.05608350411057472,0.07573715597391129,0.1050112321972847,-0.049878109246492386,0.03240559622645378,0.1558285802602768,0.09242743998765945,0.11381795257329941,0.04245678707957268,-0.016775593161582947,-0.05698468163609505,0.0106486976146698,-0.09121935069561005,0.11029474437236786,0.16905377805233002,0.04895755276083946,0.08513636142015457,0.07217453420162201,0.08507958054542542,0.048698846250772476,0.04855795204639435,-0.03849199786782265,-0.024126119911670685,0.018690161406993866,-0.05238870903849602,0.12363842874765396,-0.03780299425125122,0.09485423564910889,-0.06266109645366669,0.06628851592540741,0.2410574108362198,-0.05232364684343338,0.036180153489112854,-0.1680791676044464,0.033806703984737396,-0.08353321999311447,-0.016033988445997238,-0.14433486759662628,-0.2189316749572754,-0.08898533880710602,0.08593382686376572,-0.005453614518046379,0.03768894821405411,-0.05166357383131981,-0.150226891040802,-0.0996459499001503,-0.020864378660917282,0.015105988830327988,0.08152353763580322,0.1667536050081253,0.12832623720169067,-0.03861361742019653,-0.1346980333328247,0.07523179054260254,-0.026543915271759033,0.09452679008245468,-0.019028516486287117,-0.1590348780155182,0.0236977431923151,-0.06890805810689926,-0.028188882395625114,-0.0675448626279831,-0.09542413800954819,0.09334217756986618,0.096119724214077,-0.15759727358818054,-0.18157513439655304,-0.0912628322839737,0.08968764543533325,-0.002891269978135824,0.04517214745283127,0.047239094972610474,-0.07068722695112228,-0.049963824450969696,-0.0375831238925457,0.03233391046524048,-0.031594108790159225,-0.023941470310091972,-0.06732840090990067,0.027022134512662888,-0.13049454987049103,0.0024113713297992945,0.07013774663209915,0.0003557245072443038,0.07143349945545197,0.0010077761253342032,0.1442435383796692,-0.07232986390590668,-0.025494897738099098,0.012935863807797432,0.10594373941421509,-0.06360186636447906,0.0041234553791582584,-0.07271913439035416,-0.001968298340216279,-0.015686584636569023,-0.0409555658698082,-0.07088688015937805,0.08883743733167648,5.411739039118402e-05,0.08620292693376541,-0.11909791082143784,0.12512004375457764,-0.08606170117855072,-0.06107878312468529,0.03396635875105858,0.03153432533144951,-0.05911661311984062,-0.004899465478956699,0.0423365980386734,0.015268188901245594,-0.003250103211030364,0.034108273684978485,-0.010723097249865532,-0.04501897841691971,-0.04852570593357086,-0.07072827965021133,0.004945134278386831,0.04943392798304558,0.03720160946249962,-0.06376218050718307,-0.01068494375795126,-0.1033225804567337,0.05337679386138916,0.03185572102665901,0.03434641286730766,-0.06553556770086288,-0.010293821804225445,-0.04118291288614273,-0.028817923739552498,0.004401917569339275,-0.12602798640727997,0.052645403891801834,-0.016772005707025528,0.1059681698679924,0.02851230651140213,-0.05137912556529045,0.02189924381673336,-0.01912817172706127,-0.06793851405382156,-0.0002846911665983498,0.07291023433208466,-0.01589537039399147,-0.000679465476423502,-0.19094307720661163,-0.013834747485816479,-0.007962249219417572,-0.04962502047419548,0.009659314528107643,0.05542275309562683,0.11186225712299347,0.012224211357533932,0.0223233625292778,0.06308912485837936,0.05620870366692543,-0.027595551684498787,-0.016754062846302986,-0.003011064836755395,-0.005378575064241886,-0.05872848629951477,-0.0017416110495105386,-0.03979290649294853,-0.03198504075407982,0.0045081451535224915,0.09730520844459534,-0.11684892326593399,0.09500425308942795,-0.043677009642124176,-0.08266735076904297,-0.031489744782447815,0.0026785030495375395,-0.020749881863594055,-0.03696354106068611,-0.07627642899751663,0.05898311734199524,-0.04221397265791893,-0.011469834484159946,0.06001663953065872,-0.03970832750201225,0.018067097291350365,-0.1009330153465271,-0.07467673718929291,-0.03085508942604065,-0.08909911662340164,0.046934958547353745,0.08633160591125488,-0.10107022523880005,0.03338460996747017,0.03823259100317955,-0.022216692566871643,-0.05481064319610596,-0.07116222381591797,-0.053754404187202454,0.07739660888910294,-0.02246038429439068,-0.014757410623133183,-0.036956313997507095,0.10230555385351181,-0.022226009517908096,-0.006571710109710693,-0.07720821350812912,-0.05410870909690857,0.03641735389828682,0.041984736919403076,-0.015331349335610867,0.06630776822566986,-0.07341717928647995,0.016633788123726845,-0.20826753973960876,-0.04352599382400513,0.08939860761165619,0.06481706351041794,0.0055705164559185505,0.04249756783246994,0.12026599794626236,0.017844071611762047,0.07726358622312546,-0.08911579847335815,0.036354269832372665,-0.10161126405000687,-0.005700119771063328,0.013907487504184246,-0.0034249243326485157,-0.003934511449187994,0.03295457735657692,-0.013107258826494217,-0.0448923334479332,-0.12053144723176956,-0.007050578948110342,0.04967743530869484,0.016591884195804596,0.042917393147945404,-0.022537901997566223,0.021901125088334084,0.060300134122371674,0.011837748810648918,-0.022616209462285042,-0.011837389320135117,-0.08791685849428177,-0.07416194677352905,0.031341731548309326,-0.09339669346809387,-0.020427919924259186,-0.0622134730219841,-0.010033917613327503,0.03010607324540615,0.023073170334100723,-0.10379859060049057,0.039187826216220856,0.04836947098374367,-0.02161119505763054,0.06304892897605896,-0.022055959329009056,0.07058828324079514,-0.0536482147872448,0.02309335581958294,-0.005297867115586996,0.013412346132099628,-0.026601266115903854,0.010780386626720428,0.04540537670254707,0.09770869463682175,0.1023295447230339,0.05110190436244011,-0.04045872390270233,-0.02026386559009552,0.08886020630598068,0.03797217831015587,0.016244055703282356,-0.04286017268896103,-0.08157242834568024,0.028611211106181145,-0.20378822088241577,-0.05213749408721924,0.03236239776015282,0.05643342062830925,-0.04056214541196823,-0.02400941401720047,0.14389385282993317,-0.06835462152957916,0.021654266864061356,-0.06389017403125763,-0.0017479555681347847,-0.04392515867948532,-0.05981049686670303,0.015047569759190083,-0.05462536960840225,0.052926164120435715,-0.03673906624317169,-0.05216428264975548,0.06730407476425171,-0.004908188711851835,0.01785390079021454,-0.026803283020853996,0.11313773691654205,-0.012855126522481441,-0.005183812230825424,-0.0333634652197361,0.009247182868421078,-0.023476801812648773,0.08583112806081772,0.0650675967335701,-0.04687885195016861,0.03418683633208275,0.07856328785419464,-0.07924804836511612,-0.06732740253210068,-0.02334800362586975,-0.03581877425312996,-0.014666197821497917,-0.022197384387254715,-0.02841615490615368,0.045608073472976685,-0.004469843115657568,-0.04102262854576111,-0.026066716760396957,0.039726823568344116,0.005919455550611019,0.026401713490486145,-0.037071432918310165,-0.08484435081481934,0.039619654417037964,-0.02081860974431038,0.024268990382552147,-0.02793763391673565,-0.04551440104842186,0.059090446680784225,0.04661770537495613,0.08523140847682953,-0.06448930501937866,0.09926912188529968,-0.08163221180438995,0.09053313732147217,0.09345120191574097,0.03623829782009125,0.039381664246320724,0.011463337577879429,-0.049664899706840515,0.025626162067055702,0.08545699715614319,-0.05935879051685333,-0.019896764308214188,0.017784910276532173,0.0250761229544878,0.030336247757077217,-0.055961355566978455,-0.012355239130556583,-0.038596220314502716,0.03298801928758621,0.0168524831533432,-0.005846516229212284,-0.03522949665784836,0.04301891475915909,0.03820469602942467,-0.10969194024801254,-0.08314199000597,-0.039804499596357346,0.037134990096092224,-0.06448949128389359,-0.008151806890964508,0.15187299251556396,-0.04723941534757614,0.12551642954349518,0.08865239471197128,-0.1009090468287468,0.048560477793216705,-0.11935435980558395,-0.12489330768585205,-0.1769082099199295,-0.0049080559983849525,0.019562559202313423,-0.02897224761545658,0.020601671189069748,0.12494277209043503,0.01847747340798378,-0.05575140193104744,0.11532709747552872,0.0071075488813221455,0.03957778587937355,-0.09797333925962448,0.2031477689743042,0.07391113042831421,0.034522414207458496,-0.08797916769981384,0.04816329479217529,-0.039032962173223495,-0.02480154298245907,0.14096355438232422,-0.03672860562801361,0.009553827345371246,-0.010185237042605877,0.016927482560276985,0.013833777979016304,-0.04996463283896446,0.0009202887304127216,0.027942093089222908,0.05266137793660164,0.040949828922748566,-0.1301749348640442,-0.01842356286942959,-0.09989321976900101,0.01442828867584467,-0.04696327820420265,0.08996663987636566,-0.0027130607049912214,-0.0021736000198870897,0.058954283595085144,0.04781879112124443,0.10123397409915924,0.002221661852672696,-0.04755450785160065,-0.07304052263498306,0.005204714369028807,-0.08819910883903503,-0.0691465437412262,-0.0635000541806221,0.09959979355335236,0.018588034436106682,-0.036882150918245316,-0.06149843707680702,-0.01049773208796978,0.04259997233748436,0.08893582224845886,-0.014113608747720718,0.060448531061410904,0.006618809420615435,0.012745285406708717,-0.016085626557469368,-0.04491659998893738,-0.01066496316343546,-0.030415445566177368,0.03896716609597206,0.01591242477297783,-0.09742644429206848,-0.0953143909573555,-0.0041919248178601265,0.05858083441853523,0.04613792523741722,0.09586207568645477,-0.10276463627815247,0.027634544298052788,-0.05987994000315666,-0.056585054844617844,-0.06334991008043289,-0.010947689414024353,0.0549645833671093,-0.006079334765672684,0.052297189831733704,-0.021111134439706802,0.0861620083451271,0.06495332717895508,0.058479513972997665,-0.05090613663196564,0.07981511205434799,0.07152386754751205,0.05611813813447952,0.04289918765425682,0.041895460337400436,-0.03644537553191185,0.09285847842693329,-0.0392066165804863,0.008421787992119789,0.03833189606666565,0.03271917626261711,-0.1115880161523819,0.09031348675489426,0.08055825531482697,0.0718095451593399,0.07598619908094406,-0.0431162491440773,0.12008117139339447,-0.023365383967757225,-0.08541028201580048,-0.024577878415584564,0.11632014811038971,0.052976444363594055,-0.10696618258953094,-0.008312265388667583,0.1130429059267044,0.0015673169400542974,0.06527679413557053,-0.07256824523210526,0.08297786861658096,-0.07570791244506836,0.04168787598609924,-0.13448959589004517,0.11960601061582565,-0.032963208854198456,0.017840994521975517,-0.0057941400445997715,0.0041619352996349335,-0.031295571476221085,-0.040174663066864014,0.01942778006196022,-0.010512148030102253,0.002143674995750189,0.049673303961753845,0.012491418048739433,0.02851061522960663,-0.1034010797739029,-0.07800409197807312,-0.003829431487247348,0.0118119977414608,-0.003414935665205121,0.05581450089812279,-0.035087957978248596,-0.10535242408514023,0.06239069998264313,-0.01437738910317421,-0.016186758875846863,0.007914568297564983,-0.02528681792318821,-0.05126377195119858,0.023237954825162888,0.06740278005599976,-0.11368176341056824,0.06108494848012924,-0.01841498166322708,0.12300819158554077,0.034880634397268295,0.009058714844286442,0.012076216749846935,0.016997218132019043,-0.032784800976514816,0.038868628442287445,0.063192218542099,-0.012352433986961842,-0.06282205134630203,-0.12944655120372772,0.09579997509717941,0.03244578838348389,-0.006084046792238951,0.02813759632408619,-0.048364996910095215,0.11107439547777176,-0.09400121867656708,-0.0716562420129776,-0.05939481779932976,0.03151785209774971,0.04400545358657837,0.0016163622494786978,-0.07704486697912216,-0.006060274317860603,-0.04175212234258652,0.033544961363077164,-0.08213922381401062,-0.030287856236100197,-0.0774991363286972,0.0026567878667265177,-0.09565351903438568,0.015149964019656181,0.012742608785629272,-0.0649135634303093,0.06957092136144638,0.0603959858417511,0.020595047622919083,-0.053613800555467606,-0.05922083556652069,-0.037326909601688385,-0.05490816384553909,-0.040169425308704376,-0.01778877153992653,-0.07397053390741348,0.03399865701794624,0.020825184881687164,-0.017032695934176445,0.032634101808071136,-0.05991406366229057,-0.0072691054083406925,-0.04024553671479225,-0.158156156539917,0.029698926955461502,0.0629427582025528,0.049126241356134415,0.04265974089503288,-0.016074350103735924,0.06805548816919327,0.002712951274588704,0.10538464039564133,-0.06112115830183029,0.07780497521162033,0.03509014844894409,0.10316162556409836,0.006906404159963131,0.02788609080016613,-0.0025270029436796904,-0.03772730007767677,-0.01866164430975914,-0.02444309927523136,0.05140147730708122,-0.08442484587430954,0.05997377634048462,-0.18440575897693634,0.10696729272603989,0.013962551951408386,0.014522898942232132,-0.05873413011431694,0.072788305580616,0.13944979012012482,0.018499283120036125,0.005844061728566885,-0.054934725165367126,0.045894160866737366,-0.020139608532190323,-0.006622059736400843,-0.03694421052932739,-0.045258425176143646,0.0068846335634589195,-0.04301276057958603,-0.09524069726467133,0.029103677719831467,-0.05428696051239967,0.03289440646767616,-0.024242477491497993,0.10664182901382446,0.032713208347558975,0.005831731949001551,0.038941968232393265,-0.016672931611537933,-0.024948449805378914,-0.0407504141330719,-0.027804221957921982,-0.09021492302417755,0.08209135383367538,-0.05175327882170677,0.05396362394094467,0.04660823196172714,0.053269412368535995,-0.062159303575754166,0.024547915905714035,-0.021091632544994354,-0.05936766415834427,0.0373668409883976,0.02011173591017723,-0.04037967324256897,-0.05252998694777489,0.01984691247344017,0.015634426847100258,0.04640493169426918,-0.001423117471858859,-0.029148010537028313,-0.017397882416844368,0.020367935299873352,-0.041492704302072525,-0.003925103694200516,-0.06235892325639725,0.0331580676138401,0.042562272399663925,0.13000169396400452,0.08093933016061783,0.018302535638213158,0.025790154933929443,0.01899058185517788,0.06264332681894302,0.09579815715551376,-0.036475975066423416,-0.034651510417461395,0.07312233746051788,-0.01655462011694908,0.1289173662662506,-0.053373198956251144,-0.038859158754348755,0.016420261934399605,-0.008621979504823685,0.07172083854675293,-0.0865396186709404,-0.0037533475551754236,-0.03868988901376724,0.018890611827373505,0.06901867687702179,-0.17328618466854095,-0.021007146686315536,0.07408443093299866,-0.005174679681658745,-0.02275136299431324,0.10633869469165802,0.0018485084874555469,0.04470439627766609,-0.019576964899897575,-0.00486767990514636,0.0809343010187149,-0.04601287469267845,0.12472919374704361,0.05131548270583153,-0.03992847353219986,0.002017861930653453,-0.06848232448101044,-0.045826058834791183,-0.22051291167736053,0.05291840434074402,0.04275131598114967,0.007341763935983181,0.012859486974775791,0.06407859176397324,-0.029674584046006203,-0.037945427000522614,0.10053534060716629,-0.05622117593884468,-0.0708337277173996,-0.07192188501358032,0.1167561411857605,0.04293821007013321,0.03815367817878723,-0.09444814920425415,-0.028562476858496666,-0.07321864366531372,-0.04416884481906891,0.17145571112632751,-0.022543365135788918,0.04129653796553612,0.13881410658359528,-0.1412610560655594,0.06515888124704361,-0.04279322549700737,0.0633225291967392,0.11804606020450592,-0.048591479659080505,0.028882406651973724,-0.08155681192874908,0.02536119520664215,-0.21414877474308014,0.11007766425609589,0.23793615400791168,0.01890907622873783,-0.019702235236763954,0.08315753191709518,0.1706703156232834,0.06560958176851273,-0.17980939149856567,0.007787742651998997,0.10378031432628632,-0.19332487881183624,-0.01803942397236824,0.05046515539288521,0.030536821112036705,0.0007437746389769018,-0.13229753077030182,-0.14569759368896484,0.07679571956396103,0.08800965547561646,0.03131038695573807,0.0678723081946373,0.12102948874235153,0.011027459986507893,-0.03301575407385826,0.14376433193683624,-0.06702087819576263,-0.04285941645503044,0.06279250979423523,0.06988390535116196,-0.12975353002548218,0.1181672215461731,-0.08305603265762329,-0.055048707872629166,-0.07730590552091599,0.08767315745353699,-0.06911604851484299,-0.016865083947777748,-0.012436035089194775,-0.04553169757127762,0.06855357438325882,0.016407182440161705,-0.034340713173151016,-0.056776806712150574,0.018027540296316147,-0.04676073417067528,0.11249241232872009,-0.04367448017001152,-0.03720942884683609,-0.03626907989382744,0.16494320333003998,0.03415265306830406,0.0918959304690361,0.08958197385072708,0.11755238473415375,0.010185904800891876,0.026871029287576675,0.00870157778263092,-0.030375761911273003,0.029504135251045227,-0.06242761015892029,0.08807362616062164,-0.09580928832292557,-0.0386740081012249,-0.1849842369556427,0.027180207893252373,0.029746973887085915,0.03778205066919327,0.018531864508986473,0.062490157783031464,0.06133732572197914,0.05258076265454292,-0.03727239370346069,-0.03942941501736641,0.014473426155745983,0.04331919550895691,-0.010157733224332333,-0.05684056505560875,0.009015388786792755,-0.018710050731897354,0.07087971270084381,-0.10907293111085892,0.03217564523220062,0.044212229549884796,-0.009190324693918228,-0.03377434238791466,0.07203083485364914,0.05015652999281883,0.03652133420109749,0.003843228332698345,0.02715076133608818,0.04630378261208534,-0.031814172863960266,-0.07870489358901978,-0.086825892329216,-0.002357604680582881,0.04486760124564171,0.05257684364914894,0.01329400297254324,-0.04823363944888115,-0.08559481799602509,0.06021178141236305,0.05841897800564766,-0.10108238458633423,-0.0671626627445221,-0.05363095924258232,-0.1681845486164093,-0.03813786804676056,0.0405443012714386,-0.06573563069105148,0.05521285533905029,0.021144984290003777,0.005187053699046373,0.047563567757606506,0.10594958811998367,0.021919377148151398,-0.036505017429590225,0.04929370433092117,0.1284540891647339,-0.0462951585650444,-0.056371141225099564,0.04967039078474045,0.043056003749370575,0.006444524973630905,-0.05829673260450363,0.07456792891025543,-0.10613295435905457,0.03335300832986832,-0.24373169243335724,0.08447370678186417,-0.0012918381253257394,0.0869738981127739,0.01983651891350746,0.05131566897034645,0.04386834800243378,-0.0015899508725851774,-0.019539406523108482,-0.06602561473846436,0.05266234278678894,0.04717211425304413,-0.027332117781043053,-0.08434354513883591,-0.05027609318494797,-0.002045866334810853,0.05118512734770775,-0.06578107178211212,-0.031118104234337807,0.042367931455373764,-0.03316764533519745,-0.013184226118028164,0.14235933125019073,-0.039600078016519547,-0.03287524729967117,0.053177837282419205,0.038612689822912216,-0.008378671482205391,0.09350655972957611,-0.021518507972359657,0.05437197536230087,0.0009317985386587679,0.0822984129190445,-0.04480704292654991,-0.07975532859563828,0.011693431995809078,0.05457362160086632,-0.04900019243359566,0.047751132398843765,-0.07325053960084915,-0.05833219736814499,0.06097639352083206,-0.0019959164783358574,-0.03617126867175102,0.03466058522462845,-0.008733909577131271,-0.06331401318311691,0.023188434541225433,0.006300861015915871,-0.036269333213567734,0.03703419491648674,-0.11371582001447678,0.07614728808403015,0.06862852722406387,0.0632314458489418,-0.006314465310424566,-0.06969722360372543,-0.03997593745589256,-0.0015729758888483047,0.09588917344808578,-0.0016369374934583902,0.07966107130050659,-0.11546787619590759,-0.05101023241877556,-0.12517140805721283,-0.006606165319681168,-0.05484814941883087,0.057114169001579285,0.00023439674987457693,-0.0858110785484314,0.1455409973859787,-0.026261290535330772,0.0407043918967247,0.024813082069158554,-0.016238080337643623,0.021633682772517204,-0.03568243980407715,-0.10425103455781937,-0.005470872391015291,-0.012209316715598106,-0.017738040536642075,-0.08594271540641785,0.06077883392572403,-0.04625179246068001,0.003041202900931239,0.005441542249172926,0.12589238584041595,-0.04291289299726486,-0.061447180807590485,-0.00367406802251935,0.003630362916737795,0.028565602377057076,0.02361435443162918,-0.04261116683483124,0.040528155863285065,-0.05747082084417343,-0.018551718443632126,0.05184605345129967,-0.07911764085292816,0.04809035733342171,-0.03924155980348587,0.034437961876392365,0.026279598474502563,0.006848249584436417,0.05811287462711334,0.0273936428129673,-0.1463051736354828,-0.0419340655207634,0.0261387899518013,-0.014336781576275826,0.06321573257446289,0.0010575847700238228,-0.05030849575996399,0.005962313152849674,0.0605514794588089,-0.05904187634587288,0.04876860976219177,-0.008279372937977314,0.11464744061231613,0.047742556780576706,-0.011405689641833305,-0.011771262623369694,0.07076766341924667,0.0035784333012998104,0.03399931639432907,0.06574514508247375,-0.0347524918615818,-0.05925881490111351,-0.26272812485694885,-0.02397852949798107,-0.016347317025065422,0.09589529782533646,-0.05406374856829643,-0.05740104988217354,0.1515723466873169,0.01217202190309763,0.022622322663664818,-0.07833097875118256,0.05499241128563881,-0.03877941146492958,-0.07507879287004471,0.012746731750667095,-0.05731074512004852,-0.02684764936566353,-0.014015113934874535,0.002511508297175169,-0.057255931198596954,0.025293851271271706,0.09400181472301483,-0.048914894461631775,0.08237546682357788,-0.021404793485999107,0.036317091435194016,0.07495103031396866,0.02907032147049904,0.07267426699399948,-0.014606785029172897,-0.06191472336649895,-0.10025746375322342,0.024866197258234024,0.029978614300489426,0.008500508964061737,-0.009383108466863632,0.04254712164402008,-0.06367980688810349,-0.05603761970996857,-0.05976693332195282,-0.01775652915239334,0.06960054486989975,-0.02712365612387657,-0.10034986585378647,-0.06970570981502533,0.04871179163455963,0.04429392144083977,-0.0214479211717844,-0.04934557154774666,-0.048836495727300644,0.09013821929693222,0.016367385163903236,0.015560350380837917,0.08605020493268967,0.12047535181045532,0.0682409480214119,0.055884454399347305,0.0795186385512352,-0.04825466498732567,0.05054793879389763,0.10534258186817169,-0.05241917446255684,-0.008956333622336388,-0.06757159531116486,0.005309946835041046,-0.18427380919456482,0.043423209339380264,0.043098125606775284,-0.016673218458890915,-0.04739631712436676,-0.03426671028137207,0.05536079406738281,0.005295540671795607,-0.03407283127307892,-0.019758831709623337,0.05026130750775337,-0.006744025275111198,0.023449262604117393,0.057827770709991455,0.09621718525886536,0.040189433842897415,-0.0024209986440837383,-0.0025448387023061514,0.022542839869856834,0.02677978202700615,-0.0007584107224829495,-0.11685265600681305,0.04985892027616501,-0.06958293169736862,0.03426995500922203,0.12525393068790436,0.026833610609173775,-0.07011309266090393,-0.05420379713177681,-0.0072405412793159485,-0.015067316591739655,0.042336467653512955,0.07613454014062881,0.08730348199605942,0.009250568225979805,0.026498310267925262,-0.07148437947034836,0.04614197835326195,-0.06227078288793564,0.04602069407701492,0.059742268174886703,-0.00951276533305645,-0.015648456290364265,-0.06213676929473877,-0.028520451858639717,0.07656025141477585,-0.01905844360589981,0.09129710495471954,-0.018952585756778717,0.00542859174311161,0.037108466029167175,-0.049923576414585114,-0.02657274715602398,0.08484312891960144,0.1058376207947731,0.03331972658634186,-0.029166828840970993,0.001127351657487452,-0.07860591262578964,0.1272028088569641,0.02194688655436039,0.06728240102529526,0.034895334392786026,-0.034829530864953995,-0.13267946243286133,0.05283893644809723,0.06528639048337936,0.007175816223025322,-0.019050829112529755,0.010272327810525894,0.11067306250333786,0.01431943941861391,-0.0875464603304863,0.056270964443683624,0.04476667940616608,0.08577806502580643,-0.04958288371562958,-0.0039023952558636665,0.08830567449331284,-0.07526522874832153,0.0637451559305191,-0.05280900001525879,0.03760956600308418,-0.024036813527345657,-0.05655233934521675,-0.035421982407569885,0.07826706767082214,-0.11165124177932739,0.01060908567160368,-0.014987386763095856,0.00794423557817936,-0.04871872067451477,-0.010481585748493671,0.015426686964929104,-0.025641363114118576,-0.06095101311802864,0.06366663426160812,-0.0528642013669014,0.04850026220083237,-0.025370439514517784,-0.026105383411049843,-0.012737450189888477,-0.05834954231977463,0.0254167839884758,-0.06454085558652878,-0.04939217492938042,-0.042763762176036835,-0.0068459706380963326,-0.0686785876750946,0.006917975377291441,0.023856043815612793,0.09840456396341324,0.019590582698583603,-0.08019783347845078,0.06982990354299545,-0.044573020190000534,0.11868203431367874,0.054916560649871826,0.17677921056747437,-0.0567416176199913,-0.06972122937440872,-0.047529544681310654,0.10481423139572144,0.04912472143769264,-0.01253947988152504,0.024621695280075073,-0.07672640681266785,0.04390778765082359,-0.1895764321088791,0.0995146706700325,0.2238733172416687,0.06564940512180328,-0.07520700991153717,-0.003837857162579894,0.16853486001491547,-0.03118837997317314,-0.19615164399147034,0.007005779072642326,0.14612025022506714,-0.1320362091064453,-0.13673584163188934,0.013134965673089027,-0.026851285248994827,0.03416293486952782,-0.06825751066207886,-0.09668093174695969,-0.034045249223709106,0.05121013522148132,0.12371908128261566,-0.006915578152984381,0.07033495604991913,0.09953279048204422,0.002428456675261259,0.07883316278457642,0.05992215499281883,-0.03606777638196945,0.09977055341005325,0.07489530742168427,-0.19613324105739594,0.048849087208509445,-0.0357217863202095,-0.08467653393745422,-0.031486716121435165,0.07269085198640823,-0.10580193996429443,0.04070352762937546,0.04005679115653038,-0.15970568358898163,-0.0059752268716692924,0.03297993168234825,-0.11835627257823944,-0.03541538119316101,0.08961230516433716,-0.06297065317630768,-0.001796101569198072,-0.04818248748779297,-0.04659587889909744,0.07487443089485168,0.10883250832557678,0.1468970775604248,0.049214400351047516,0.07870614528656006,0.05253851041197777,-0.035768356174230576,0.049024492502212524,-0.044065892696380615,-0.05329160764813423,0.08723677694797516,-0.008501810021698475,-0.0018959168810397387,-0.08767123520374298,-0.020924141630530357,-0.2040969282388687,0.1195598840713501,-0.041162412613630295,-0.020463373512029648,0.03246893361210823,0.0438295342028141,0.022316236048936844,-0.02230275794863701,-0.1042044535279274,-0.01463979110121727,0.04340426251292229,-0.04953039437532425,-0.09715279191732407,-0.0001186392837553285,0.09226875007152557,0.02684970013797283,0.002342366613447666,-0.076808400452137,-0.044264696538448334,0.011808095499873161,0.013779432512819767,-0.017699334770441055,0.0216833483427763,0.04141930863261223,-0.03658175468444824,0.08758912235498428,-0.007173663470894098,0.007591208443045616,-0.02679900825023651,0.0167264174669981,0.013043701648712158,-0.0640103667974472,0.020807959139347076,-0.03407058119773865,0.04725896194577217,-0.014382211491465569,0.023383552208542824,0.025249166414141655,0.048735469579696655,-0.07757294923067093,0.014595123007893562,-0.005488190799951553,-0.07207023352384567,-0.07731815427541733,0.06648799777030945,-0.009552840143442154,-0.008280050940811634,-0.023435505107045174,-0.07070644199848175,0.054655857384204865,0.08679942786693573,-0.07703401148319244,0.006150411907583475,0.1058773472905159,0.018759267404675484,0.061564672738313675,-0.018058640882372856,0.009676573798060417,0.025846270844340324,0.072564497590065,0.026915373280644417,0.09583975374698639,-0.08429580926895142,0.050947751849889755,-0.1832239329814911,0.07259136438369751,0.0627787634730339,0.04560938477516174,0.011212161742150784,-0.038732126355171204,0.02722896821796894,-0.012873575091362,0.07351237535476685,0.0033275324385613203,0.04954926297068596,-0.012025986798107624,-0.07945238798856735,-0.018464520573616028,-0.029540792107582092,0.04207768663764,0.008304456248879433,-0.05586804822087288,0.04233969375491142,-0.07397275418043137,-0.04686582088470459,-0.05753563344478607,0.07587133347988129,-0.013958707451820374,-0.0749480351805687,0.10137375444173813,0.04989437386393547,0.06313342601060867,0.005047569051384926,-0.013281311839818954,0.0031976921018213034,0.02520103193819523,0.08710260689258575,-0.06813959032297134,0.005021671298891306,-0.045412685722112656,-0.005965240765362978,-0.03412279859185219,0.025347793474793434,-0.09080632776021957,-0.045621491968631744,0.066282719373703,-0.14996574819087982,-0.03154778480529785,0.00858106929808855,0.023614054545760155,-0.0063521768897771835,0.06006462126970291,-0.005199142266064882,-0.04422830790281296,-0.013561218976974487,-0.0321551188826561,0.05597464740276337,-0.034178681671619415,0.036888428032398224,0.04200871288776398,0.03810107707977295,0.06015993282198906,-0.05302543565630913,0.04780864715576172,0.048764221370220184,0.07041990011930466,-0.03875349089503288,-0.11445976793766022,-0.03369155526161194,0.039788369089365005,0.07648788392543793,0.024507708847522736,0.1433347761631012,-0.14246231317520142,0.09186064451932907,0.11845697462558746,0.06104405224323273,0.03163587674498558,0.10652704536914825,0.06361157447099686,-0.08279351890087128,0.020240966230630875,0.10635282844305038,-0.024088116362690926,0.007865332998335361,-0.09357188642024994,0.0465535968542099,-0.058912646025419235,0.15602560341358185,0.014903289265930653,0.15717639029026031,-0.026599453762173653,-0.05632119998335838,-0.0380622074007988,-0.12674878537654877,0.05216541513800621,0.0798831358551979,0.06196190044283867,0.13434885442256927,0.054462019354104996,0.15700046718120575,0.130478635430336,-0.14990076422691345,0.06156901642680168,-0.017652226611971855,-0.09585554152727127,0.07088812440633774,-0.04055636748671532,0.013312308117747307,0.13699698448181152,0.010543469339609146,0.09820032119750977,0.014549225568771362,0.06307489424943924,-0.11019647866487503,0.07320151478052139,-0.03682351112365723,-0.08434492349624634,0.03223864361643791,-0.09275259077548981,0.07640468329191208,0.021687276661396027,-0.017085224390029907,-0.04768424853682518,0.08111847192049026,-0.044826146215200424,0.008515550754964352,0.026542583480477333,-0.03936365246772766,0.04746747761964798,-0.08795591443777084,0.08783778548240662,-0.20057879388332367,0.07542651146650314,0.09271810948848724,0.055780574679374695,-0.06256531178951263,0.08354698866605759,0.24686254560947418,-0.05583611875772476,-0.10908351093530655,0.06259823590517044,0.2547617554664612,-0.2085086554288864,-0.14658626914024353,0.08167503029108047,0.05041163042187691,0.15121421217918396,-0.05483308807015419,-0.10090268403291702,0.1139930784702301,0.03371662646532059,0.07000305503606796,0.026242485269904137,0.06402238458395004,0.048870671540498734,-0.06733188033103943,0.1353381723165512,-0.07213000953197479,0.023542232811450958,0.04282641410827637,-0.08472876995801926,-0.1289471834897995,0.1301259994506836,-0.07264247536659241,-0.005878250580281019,-0.0050727492198348045,0.03541681915521622,0.010919202119112015,-0.1172979325056076,-0.034047625958919525,-0.09357020258903503,-0.10575249046087265,0.09187380969524384,-0.02071339823305607,0.06438945233821869,0.04966822639107704,0.04403079301118851,0.07842747867107391,-0.09742138534784317,0.002328251488506794,-0.031323421746492386,0.09035128355026245,0.11329787969589233,-0.004723501391708851,0.040940869599580765,0.013802597299218178,-0.011934475973248482,0.0024804731365293264,0.053891513496637344,0.04098846763372421,-0.012084715068340302,-0.01627657748758793,0.07206026464700699,0.023324627429246902,-0.07219656556844711,-0.20799052715301514,0.04634443670511246,0.10435186326503754,0.013798374682664871,0.08283522725105286,-0.09480161964893341,0.06391871720552444,0.042219024151563644,-0.011911369860172272,-0.046810612082481384,0.045862648636102676,-0.0038547709118574858,-0.02702944166958332,0.05438266322016716,0.06112325191497803,-0.004228603560477495,-0.04379327967762947,-0.10025852173566818,0.05004407465457916,-0.04680699110031128,0.10000688582658768,-0.01574109122157097,0.008114534430205822,-0.016273682937026024,-0.05458911880850792,-0.014310816302895546,0.07310175895690918,0.061009280383586884,0.0270877406001091,0.00372452475130558,-0.06062454357743263,-0.07013620436191559,0.07296891510486603,-0.02485804446041584,-0.07313252240419388,-0.049298789352178574,0.05960162729024887,-0.036349374800920486,0.034031689167022705,0.033045072108507156,-0.012518374249339104,0.014756721444427967,-0.10650690644979477,-0.0012312467442825437,0.05388837307691574,0.022799432277679443,0.059983789920806885,0.08739326149225235,-0.0451311394572258,0.036504946649074554,-0.03230642154812813,-0.15108472108840942,0.07690075784921646,0.024878816679120064,0.11166831105947495,-0.038834020495414734,0.000362853315891698,0.07339394837617874,0.003416419727727771,0.01685451529920101,0.004537006374448538,0.07120060920715332,-0.10527894645929337,0.052855610847473145,-0.21039102971553802,0.06600851565599442,-0.03761192411184311,0.01587185449898243,0.035389430820941925,0.01879313960671425,0.12185227125883102,0.01868104748427868,0.09629856050014496,0.026065263897180557,-0.039656274020671844,0.04046948254108429,0.014987156726419926,0.02678636834025383,-0.043250106275081635,0.069785475730896,-0.030874138697981834,-0.012367649003863335,-0.020157549530267715,-0.027808642014861107,0.07218647748231888,0.01728419028222561,0.10835891962051392,-0.04869188740849495,0.038071755319833755,0.00030927086481824517,-0.013223676942288876,-0.053792569786310196,-0.0012683593668043613,0.029525723308324814,0.059341926127672195,-0.04882336035370827,-0.000691647466737777,-0.04122212156653404,-0.10594137012958527,0.07568607479333878,-0.0450248122215271,0.0457579642534256,0.03239709511399269,0.02894989214837551,-0.06443803012371063,0.028669148683547974,-0.12067512422800064,-0.02163158543407917,-0.043014418333768845,-0.028253227472305298,-0.03617415949702263,0.07200898975133896,0.022394094616174698,-0.002513199346140027,0.056707870215177536,-0.049866411834955215,0.04967920482158661,-0.013776814565062523,0.027007469907402992,0.01295866072177887,-0.018197299912571907,-0.07430502772331238,0.05917122960090637,0.011141354218125343,-0.05223429948091507,0.0812380239367485,-0.0806015208363533,-0.046091288328170776,-0.122652567923069,0.002849096665158868,0.04771095886826515,0.08551008999347687,0.053075406700372696,-0.02789466828107834,0.09935945272445679,0.03173969313502312,-0.019000539556145668,0.003550315275788307,0.05138014629483223,-0.026261452585458755,-0.0012595237931236625,-0.09461983293294907,-0.07079198956489563,0.04436715692281723,0.0033680363558232784,-0.05282839760184288,-0.04195540398359299,-0.014521944336593151,-0.03576645627617836,-0.029325691983103752,0.0728280246257782,-0.0338536836206913,-0.01342556718736887,-0.0377609059214592,0.009020881727337837,0.058357611298561096,-0.0406360924243927,-0.06731676310300827,0.07087451219558716,-0.04790255427360535,0.031492456793785095,-0.020604003220796585,-0.04716431722044945,0.017571568489074707,-0.0028089163824915886,-0.038366276770830154,0.014321145601570606,0.015198555774986744,-0.07522688806056976,0.006046284455806017,-0.06768820434808731,0.055285096168518066,0.07227820158004761,-0.04375169798731804,-0.029363248497247696,-0.039529506117105484,0.029590103775262833,0.019241249188780785,0.00591621920466423,0.021155426278710365,-0.034142106771469116,0.07835815101861954,0.00012145756772952154,-0.018453365191817284,0.03138813376426697,0.046151675283908844,-0.04698548838496208,-0.029303310438990593,-0.016697511076927185,0.10132049769163132,-0.056368838995695114,0.06150144711136818,-0.14536243677139282,-0.014413577504456043,-0.0480511449277401,0.002802018541842699,0.05683779716491699,-0.033114317804574966,0.11043831706047058,0.0018427085597068071,0.08147453516721725,-0.05547894537448883,0.08635853230953217,0.029262667521834373,0.008687838912010193,-0.03363717719912529,0.015585815533995628,-0.04012516513466835,0.04430375248193741,-0.009923292323946953,0.08029969781637192,0.005593426059931517,0.06877052038908005,0.05344124138355255,0.11064974218606949,0.011419391259551048,0.034407034516334534,-0.0199825968593359,0.04115251079201698,0.06625805795192719,-0.012955143116414547,-0.03139416500926018,-0.07976870983839035,-0.023132698610424995,0.04478359967470169,-0.04300530627369881,0.0028739823028445244,0.060690898448228836,0.026272250339388847,0.01772076077759266,-0.04860387369990349,-0.0566425658762455,0.04779433459043503,0.03647514060139656,-0.07677406072616577,-0.03090578317642212,0.09451216459274292,0.004200813826173544,-0.046662814915180206,0.011945197358727455,-0.05736709386110306,0.07964568585157394,0.008714034222066402,0.03914405778050423,-0.012140792794525623,0.11092942208051682,0.05779570713639259,0.029384631663560867,-0.0040303785353899,-0.014695439487695694,-0.15002654492855072,0.021279769018292427,-0.08734316378831863,0.036723118275403976,0.07280007749795914,-0.07434822618961334,-0.0119353411719203,0.033312078565359116,0.14025069773197174,-0.05112531781196594,0.13459064066410065,-0.09666837006807327,-0.05814222991466522,0.13065168261528015,-0.06268376857042313,0.14467978477478027,-0.024233512580394745,0.15573157370090485,-0.014356428757309914,0.045313309878110886,0.26200389862060547,-0.19202812016010284,-0.07628584653139114,-0.14536930620670319,-0.017702152952551842,-0.06778053194284439,-0.0031759378034621477,-0.06835102289915085,-0.12233894318342209,-0.20148198306560516,-0.026390565559267998,-0.013269143179059029,0.04800524190068245,-0.05877084657549858,-0.13360004127025604,-0.054368872195482254,0.06064995378255844,-0.09662385284900665,0.12368979305028915,0.10703492909669876,0.08162438869476318,0.02279956452548504,-0.06375347822904587,-0.0006527841906063259,0.017888566479086876,0.059213608503341675,0.04052066057920456,-0.1142992302775383,-0.06594114005565643,0.03686435520648956,-0.12675213813781738,-0.09851361811161041,-0.139310821890831,0.13220874965190887,0.06834832578897476,-0.21606503427028656,-0.13185738027095795,-0.16866204142570496,0.18640874326229095,0.14968667924404144,0.15216070413589478,-0.05447738990187645,0.016023913398385048,-0.01404635887593031,-0.023619772866368294,-0.03716178983449936,-0.054474662989377975,-0.036718178540468216,-0.012172048911452293,-0.023375146090984344,-0.16371913254261017,0.12025034427642822,-0.0722150206565857,0.008421525359153748,-0.09276611357927322,-0.015931127592921257,0.09425628930330276,-0.04258882999420166,-0.10413988679647446,0.01960473135113716,-0.05927754193544388,0.06577278673648834,-0.06276241689920425,0.035003770142793655,0.10560676455497742,-0.005663720425218344,-0.05633706599473953,-0.0681070014834404,-0.03750021010637283,-0.03802618756890297,-0.03788375481963158,-0.12476103752851486,0.09143862873315811,-0.13089877367019653,0.06771015375852585,0.08114717155694962,0.03757418692111969,-0.05691918358206749,-0.08686138689517975,-0.06880925595760345,-0.05115940049290657,0.06833038479089737,0.06798199564218521,0.07863730192184448,0.03617338091135025,-0.03832806274294853,-0.04011276736855507,0.09152261912822723,-0.005244170315563679,-0.052936721593141556,-0.043459635227918625,-0.050833020359277725,-0.003496592864394188,-0.020358381792902946,-0.06505327671766281,-0.05306018516421318,0.03926027938723564,0.007639050949364901,0.021610448136925697,-0.019329214468598366,-0.0002900534891523421,-0.09464908391237259,0.0427052304148674,0.11018924415111542,0.030584845691919327,0.04283168911933899,0.03191693127155304,0.05929487198591232,-0.022044548764824867,0.034756146371364594,0.05175070837140083,0.06198326498270035,-0.09003733843564987,0.0705605149269104,-0.2177853286266327,0.07241584360599518,-0.029774174094200134,-0.04527852684259415,-0.060195643454790115,0.054939042776823044,0.09111319482326508,0.018754899501800537,0.023326823487877846,0.03751061111688614,0.04837990552186966,-0.07331008464097977,-0.09151442348957062,-0.03397901728749275,0.044291265308856964,0.08419011533260345,0.023294227197766304,-0.008159877732396126,0.006288791075348854,0.019045649096369743,0.09784629940986633,-0.06986266374588013,0.02234240435063839,-0.04785357788205147,0.00407354487106204,0.01888408698141575,0.02548133209347725,-0.03983740881085396,-0.01974836364388466,-0.0016213682247325778,-0.00038927330751903355,0.05897922068834305,-0.005354966502636671,-0.024569354951381683,-0.09234040230512619,0.0002657031873241067,-0.02527819201350212,0.04896901175379753,-0.013964507728815079,0.0003634281165432185,0.05224309489130974,-0.025799836963415146,-0.09499768912792206,0.02609017863869667,0.07552095502614975,-0.010495012626051903,-0.056277837604284286,0.04831685498356819,-0.027925031259655952,0.04316560924053192,0.04935625568032265,-0.003856640076264739,0.07564491778612137,0.05924220755696297,0.12156683206558228,-0.09181943535804749,-0.019375313073396683,0.06799706816673279,-0.0007603942067362368,-0.027489226311445236,0.059051815420389175,0.01693001575767994,0.012494716793298721,-8.661922765895724e-05,-0.24703383445739746,0.04075804352760315,0.005434897728264332,0.013370910659432411,-0.0398101732134819,0.07886561006307602,0.17082270979881287,-0.023922089487314224,-0.132528156042099,0.016527209430933,0.06813233345746994,-0.04703511297702789,-0.05664193630218506,0.05681251361966133,0.032780639827251434,0.019574640318751335,-0.04936413839459419,-0.019344152882695198,-0.027870606631040573,-0.03376654163002968,0.013634474948048592,-0.10665294528007507,0.1062389686703682,-0.013073873706161976,0.032871171832084656,0.14326636493206024,0.05035306140780449,0.06988446414470673,0.015832196921110153,-0.06171441078186035,-0.04758809134364128,0.006805120036005974,-0.06563615798950195,0.0858774483203888,-0.03634446859359741,-0.037139810621738434,-0.12761564552783966,-0.045870646834373474,-0.05033259838819504,-0.054896388202905655,-0.061641957610845566,0.07636687904596329,-0.03225826099514961,0.05111293867230415,0.037922877818346024,0.011579547077417374,-0.054016731679439545,-0.04678947851061821,0.07995644211769104,-0.030487101525068283,0.02999597229063511,-0.1270066201686859,-0.07483500242233276,-0.048623453825712204,0.0685945600271225,-0.046151772141456604,-0.02816428616642952,-0.0325971320271492,-0.007362790871411562,-0.07298681139945984,0.11105674505233765,0.012694069184362888,-0.11050747334957123,0.10160774737596512,-0.04461352154612541,0.03894178941845894,0.0729290097951889,0.04788414388895035,0.015971194952726364,-0.021426793187856674,0.08836410939693451,-0.02156372368335724,0.09832978248596191,-0.06791753321886063,0.05720927566289902,-0.005901012569665909,-0.05139666050672531,-0.014771069400012493,0.010228017345070839,0.07412543147802353,0.043707557022571564,-0.0010802134638652205,0.02348773367702961,-0.049707598984241486,0.10478781163692474,0.03776117041707039,-0.007785007357597351,0.1006375104188919,0.03895806521177292,-0.008466996252536774,-0.05667214095592499,0.016839276999235153,0.010837242938578129,-0.0027936482802033424,0.00894248392432928,0.06353279948234558,-0.06879188120365143,-0.02276887372136116,-0.08606533706188202,-0.033861007541418076,0.028816569596529007,0.05729920417070389,-0.04531604051589966,-0.11860878020524979,0.012168011628091335,0.0379638634622097,-0.047316133975982666,0.040162619203329086,0.11397566646337509,0.06470644474029541,0.020688137039542198,0.01662040688097477,-0.02254381775856018,0.04935203120112419,0.049454621970653534,-0.053897272795438766,-0.06474968045949936,0.01279010996222496,0.0335075668990612,-0.023088451474905014,0.014077235013246536,0.01668357104063034,0.05154455825686455,0.07085221260786057,-0.024609388783574104,0.03203796595335007,-0.029553906992077827,0.016990385949611664,-0.24417638778686523,0.07772564142942429,-0.037012383341789246,0.07712410390377045,-0.02289571613073349,-0.0674283504486084,0.02054128609597683,-0.0323835127055645,0.03935704007744789,0.029974015429615974,0.032295163720846176,-0.07302551716566086,0.013617411255836487,-0.04195735231041908,-0.07621990144252777,-0.07236497104167938,-0.017128925770521164,-0.09568551182746887,-0.008467393927276134,-0.013671411201357841,0.0190419964492321,-0.04113971069455147,0.0979015901684761,-0.07502907514572144,-0.05752797797322273,0.033628955483436584,-0.03500344604253769,-0.0031418625731021166,0.00012015385436825454,0.029630856588482857,0.044808924198150635,0.0198685135692358,0.020079225301742554,-0.022513918578624725,-0.036767907440662384,-0.07704383134841919,0.0018205696251243353,0.003812573617324233,0.021614497527480125,-0.002805172698572278,-0.0038184577133506536,-0.015278047882020473,-0.03684324771165848,0.0398176833987236,-0.016017356887459755,0.017391815781593323,-0.0364220067858696,-0.005714245140552521,0.007855571806430817,-0.008260613307356834,0.09168915450572968,-0.1055821031332016,0.05120326206088066,0.01770571805536747,0.15296627581119537,-0.023075640201568604,0.02772514708340168,-0.03308384120464325,0.08365122973918915,0.10120601207017899,0.07030186802148819,0.005797803867608309,-0.11708170920610428,-0.028267526999115944,-0.13606533408164978,0.011676918715238571,0.23083879053592682,0.042705781757831573,-0.049202121794223785,-0.0046303048729896545,0.0527380146086216,-0.0013124124379828572,-0.19699090719223022,-0.04340413957834244,0.12950758635997772,-0.19969666004180908,-0.10577990859746933,0.06192848086357117,-0.09146380424499512,-0.0175382848829031,0.011830370873212814,-0.1225709319114685,0.04938187822699547,0.0011630201479420066,-0.0032924730330705643,-0.015455085784196854,0.1023477241396904,-0.06792829185724258,0.03559444099664688,0.053981225937604904,0.07328356802463531,-0.0751357302069664,-0.020860496908426285,-0.0011415474582463503,-0.15384648740291595,-0.017113657668232918,-0.0593947134912014,-0.05147844925522804,-0.10631779581308365,0.08957800269126892,-0.029048172757029533,0.018526257947087288,-0.011508048512041569,-0.1498783826828003,0.11817242950201035,-0.017587894573807716,0.017008008435368538,0.009760038927197456,0.003934064414352179,-0.03128292039036751,0.008297060616314411,-0.020057914778590202,-0.01809545047581196,-0.07272769510746002,0.09594263881444931,0.10670531541109085,0.09254436939954758,0.08341779559850693,0.03503512963652611,-0.06627921015024185,0.029444189742207527,0.014069944620132446,0.04589926451444626,0.04630914330482483,-0.07511625438928604,0.0804797112941742,-0.11900754272937775,0.022068586200475693,-0.2443278431892395,0.05468760058283806,0.019038205966353416,0.01331460289657116,-0.054819256067276,0.05652322992682457,0.0658884048461914,0.018757028505206108,-0.026428310200572014,0.05026586353778839,0.08192121982574463,-0.06332140415906906,-0.10014855116605759,-0.005495107267051935,0.039807334542274475,0.02983987331390381,-0.01680903695523739,-0.008767171762883663,0.07788801938295364,-0.09227298945188522,-0.008014030754566193,-0.07471859455108643,0.10072055459022522,-0.0690295621752739,-0.08129405975341797,0.00036570182419382036,-0.067816361784935,0.05434929579496384,0.01838851347565651,-0.02189585752785206,-0.0348045639693737,0.05322958901524544,0.05517667904496193,0.04594234377145767,-0.07735847681760788,0.0032902725506573915,0.01565147191286087,0.04163328930735588,0.04016053304076195,0.031393568962812424,-0.05493919551372528,0.0578450933098793,-0.09631777554750443,0.025135142728686333,0.02137298882007599,0.05710401386022568,-0.05263599380850792,-0.021404456347227097,-0.043116647750139236,0.026825467124581337,0.013213909231126308,0.034110188484191895,0.020829856395721436,0.036715440452098846,0.10569976270198822,-0.016114672645926476,0.01770360767841339,0.002531318226829171,0.05251987278461456,-0.03963635489344597,-0.058024294674396515,0.09718139469623566,0.029240258038043976,0.0018862624419853091,-0.13429270684719086,0.08935517817735672,0.003759863320738077,-0.048522479832172394,-0.11834082752466202,-0.011733503080904484,0.09569749236106873,0.008352880366146564,-0.1297256499528885,0.09133722633123398,0.06104399636387825,0.08206327259540558,-0.05521383136510849,-0.04913662374019623,0.13743805885314941,0.09901243448257446,-0.09027901291847229,-0.14451459050178528,0.027015462517738342,-0.014294172637164593,-0.0628264918923378,-0.15164177119731903,0.11266776919364929,0.029370518401265144,0.05186954885721207,-0.0010029557161033154,0.005981216207146645,-0.02338300459086895,-0.06108482927083969,-0.11252055317163467,-0.08336784690618515,-0.02365744300186634,-0.027455275878310204,0.0034267662558704615,0.10258730500936508,-0.06341007351875305,-0.06929287314414978,-0.010447395034134388,-0.012999066151678562,-0.0614452101290226,-0.021145470440387726,-0.06266918033361435,0.0687842145562172,-0.006605016998946667,0.015082276426255703,0.014559918083250523,0.010178148746490479,-0.01745607890188694,0.0020772393327206373,-0.013610564172267914,0.0066300141625106335,-0.059656769037246704,0.02487189508974552,0.04393637925386429,0.07770384848117828,0.03231457993388176,0.03389601781964302,0.0894705057144165,-0.10973501950502396,0.008533361367881298,-0.1199074313044548,0.04430093988776207,0.08966206759214401,-0.07691800594329834,0.016109351068735123,-0.001084194052964449,0.18163737654685974,-0.049580518156290054,0.03475571051239967,-0.10225950926542282,-0.09154339879751205,0.029311584308743477,-0.1314636468887329,0.08582498133182526,-0.030629532411694527,0.02488354779779911,-0.1416672319173813,-0.0031741668935865164,0.24223922193050385,-0.0972723737359047,-0.1214054673910141,-0.15703891217708588,-0.07293068617582321,-0.1755131036043167,0.007149309851229191,-0.032269690185785294,-0.0907435417175293,-0.1475159227848053,0.03778000921010971,-0.004350994247943163,0.08523692190647125,0.039657630026340485,-0.1246476024389267,0.029116598889231682,0.11247376352548599,-0.03616613149642944,0.11801272630691528,0.055169396102428436,-0.04109230637550354,0.06464493274688721,-0.0688091292977333,-0.005983819719403982,-0.04971497878432274,0.021734777837991714,-0.040421418845653534,-0.13866545259952545,0.004321557469666004,-0.016165006905794144,-0.15994411706924438,-0.08060380071401596,-0.05994584038853645,0.14279237389564514,0.020188916474580765,-0.11404311656951904,-0.14456680417060852,-0.19090649485588074,0.15797367691993713,-0.08162175118923187,0.04604438319802284,0.0797632560133934,0.08071039617061615,0.11428821086883545,0.0611007884144783,0.0437624454498291,0.07033812999725342,-0.011609324254095554,0.0312604084610939,-0.07219050079584122,-0.05536739528179169,-0.04222450405359268,0.04223940894007683,0.002029490191489458,-0.08665873110294342,0.012032430619001389,0.03988172858953476,-0.05993540957570076,-0.006915851030498743,0.13150545954704285,-0.026210587471723557,-0.017504921182990074,0.009274148382246494,-0.004258112050592899,-0.09983262419700623,-0.006309110671281815,-0.032413169741630554,-0.01034312043339014,-0.05863369256258011,0.09117179363965988,-0.0868946984410286,0.07640526443719864,0.005183779634535313,-0.014149373397231102,0.04381795600056648,0.03601311147212982,0.11100658774375916,0.004309126641601324,0.02843078225851059,0.12043555825948715,-0.06152787804603577,-0.06333797425031662,-0.11313506960868835,-0.025582917034626007,0.029706934466958046,0.07164210826158524,0.08570346981287003,0.10852830857038498,-0.018901566043496132,0.09917478263378143,0.11609923839569092,-0.06771007925271988,-0.03725803270936012,-0.1783601939678192,0.0766761377453804,-0.041375819593667984,-0.04935496300458908,0.0059317732229828835,-0.07873160392045975,-0.10984046012163162,-0.017542235553264618,0.23792299628257751,-0.02220107428729534,0.004095848649740219,0.04164913296699524,-0.09807486832141876,-0.0008278145687654614,0.04878971353173256,0.0028771469369530678,0.07982655614614487,-0.025487136095762253,0.06557946652173996,-0.07385698705911636,-0.0033607787918299437,-0.11864033341407776,0.009730532765388489,-0.06642328947782516,0.08430281281471252,-0.054717160761356354,0.021386925131082535,0.11647886782884598,-0.06173771247267723,0.08032192289829254,0.01722334697842598,0.02245532162487507,-0.09010634571313858,-0.03765643760561943,0.009436422027647495,0.0652003213763237,-0.04512250795960426,0.010703936219215393,-0.09721383452415466,-0.00991775281727314,-0.006778282579034567,-0.036136444658041,-0.045648954808712006,0.08994895219802856,-0.005236854776740074,0.04979289695620537,0.0842926949262619,0.0033981814049184322,0.06589581817388535,-0.04569308087229729,0.02829904854297638,0.021366436034440994,-0.0525500662624836,-0.05216086655855179,0.01831982471048832,-0.11135614663362503,0.0083796177059412,-0.06610533595085144,-0.0615730881690979,0.008445821702480316,-0.0963960587978363,0.0382976159453392,0.020679892972111702,-0.14655809104442596,0.0757746547460556,0.04980781674385071,-0.025203511118888855,-0.013860682025551796,0.025419998914003372,-0.05387168750166893,-0.031654953956604004,0.07428035140037537,-0.06004747375845909,-0.03611226752400398,-0.01709781400859356,0.024759827181696892,0.03136994317173958,0.059363942593336105,-0.03140321001410484,0.0512222982943058,0.08770721405744553,-0.028869403526186943,0.016378501430153847,-0.06713151186704636,0.043295830488204956,-0.15435926616191864,-0.009528014808893204,-0.077717624604702,0.06122902035713196,-0.028829030692577362,-0.04931233078241348,0.17212896049022675,-0.02213232032954693,-0.07419372349977493,-0.05148124322295189,0.08979736268520355,7.605914288433269e-05,0.001055966247804463,-0.04994483292102814,0.09163137525320053,-0.037523303180933,0.026454685255885124,-0.014609202742576599,0.06344441324472427,-0.05844537913799286,0.07754819840192795,-0.03688150644302368,0.12611912190914154,-0.06997822225093842,0.03974129632115364,0.09976976364850998,-0.05149422213435173,-0.011298459954559803,0.015557416714727879,0.04733109474182129,-0.03783934935927391,-0.03213553503155708,0.08360155671834946,0.02898123674094677,-0.02301710844039917,-0.039608120918273926,0.018800845369696617,-0.036725547164678574,0.017825745046138763,-0.06454497575759888,-0.06380553543567657,0.02454197406768799,-0.1852220594882965,-0.005278984550386667,0.08640778809785843,-0.041504986584186554,0.01435251533985138,0.008564778603613377,0.02059040777385235,0.0914316400885582,0.12057764083147049,0.03114953264594078,-0.02803008258342743,0.06634863466024399,-0.010205303318798542,-0.03587566688656807,-0.048497263342142105,-0.026850422844290733,-0.029128968715667725,-0.033337417989969254,0.00895670522004366,0.10297020524740219,-0.09824641793966293,0.04698960855603218,-0.24626988172531128,0.0015296752098947763,0.07088856399059296,0.029717326164245605,-0.03541453182697296,0.025930946692824364,0.09804529696702957,0.04126472771167755,-0.048941630870103836,-0.012036610394716263,0.10036632418632507,-0.03798689320683479,-0.06891565769910812,0.024834537878632545,-0.03569992259144783,0.05459696799516678,0.07102879136800766,-0.07437199354171753,-0.028204701840877533,-0.050910964608192444,0.08439285308122635,-0.05241846665740013,0.08103622496128082,-0.06342923641204834,-0.01309382077306509,-0.009375505149364471,0.027515172958374023,-0.03748481720685959,-0.0196080319583416,0.06398279964923859,-0.060030341148376465,-0.06692098826169968,-0.051905564963817596,-0.049443311989307404,-0.048044465482234955,-0.043097205460071564,0.016397716477513313,0.017675181850790977,-0.042292557656764984,-0.03710616007447243,0.06909874081611633,0.06249161809682846,-0.1305328905582428,-0.053901299834251404,0.09217607975006104,0.05135392025113106,0.0484575591981411,0.0030571885872632265,0.022393517196178436,0.054291196167469025,0.12116537243127823,0.06310325860977173,0.007399533875286579,-0.04977988451719284,0.005764246452599764,-0.15500687062740326,0.08454247564077377,0.022463083267211914,-0.03401493281126022,0.12627950310707092,0.03659890219569206,-0.08032035082578659,-0.12639327347278595,0.04103049635887146,0.031721483916044235,0.1549416035413742,0.019519858062267303,0.012899993918836117,0.18652714788913727,0.05872340127825737,0.20916731655597687,0.11903643608093262,0.09813828766345978,0.03774310275912285,0.08315569907426834,0.00941346026957035,-0.04154758155345917,-0.002801411086693406,0.10528665781021118,-0.06510260701179504,0.0024497956037521362,-0.08812265843153,-0.014064891263842583,0.007544264197349548,0.16959047317504883,0.09408250451087952,0.15563644468784332,0.10570249706506729,-0.07278596609830856,-0.08195674419403076,-0.10815194994211197,-0.08696801215410233,0.08725910633802414,0.061720605939626694,0.10897509753704071,0.09604690223932266,-0.05219413712620735,0.1390618085861206,-0.09821542352437973,0.007124681491404772,0.05635552108287811,-0.1331876814365387,-0.03848790004849434,-0.10632070899009705,-0.03511703759431839,0.17416144907474518,-0.09715154767036438,0.18725882470607758,-0.048564668744802475,-0.07080821692943573,-0.04823523759841919,0.11761938780546188,-0.11896619200706482,0.03526046499609947,0.04381512477993965,-0.06863202899694443,0.053087614476680756,0.054582759737968445,0.06540326774120331,0.0356440469622612,0.011043399572372437,-0.03207115828990936,0.007495060563087463,0.0022958144545555115,0.026808790862560272,0.06657545268535614,0.02177371084690094,-0.01733100414276123,0.02986007183790207,0.038742467761039734,0.009639956057071686,-0.0565953403711319,-0.006671980023384094,-0.03187048062682152,-0.0476510152220726,-0.015662018209695816,-0.01697937399148941,0.06886187195777893,-0.023964732885360718,0.0443904772400856,0.011342495679855347,-0.046793434768915176,-0.04583565890789032,0.0629468709230423,0.03612238168716431,-0.05881398171186447,0.03221049904823303,-0.05189301073551178,-0.06658986955881119,-0.05799217149615288,0.03484083712100983,-0.06424892693758011,-0.05820233002305031,0.05508512258529663,-0.024562347680330276,-0.04326433688402176,0.031893931329250336,-0.01614558696746826,0.03438466042280197,0.03161676973104477,-0.016460705548524857,-0.03257838636636734,-0.054373499006032944,-0.06520882248878479,0.02687261253595352,0.03795632719993591,0.038042113184928894,0.03099054843187332,0.058944761753082275,0.05310074985027313,0.010980784893035889,-0.05230136960744858,0.05622711777687073,0.04151873290538788,0.04976999759674072,-0.04486088454723358,0.06842309236526489,-0.030245251953601837,0.04176194220781326,-0.04557374119758606,0.009008310735225677,-0.14804911613464355,0.07338433712720871,0.058446791023015976,0.08663235604763031,0.06825028359889984,0.016359589993953705,0.03462287411093712,0.18123212456703186,-0.0019282142166048288,0.07790245860815048,0.10495559871196747,0.0015405130106955767,-0.031620997935533524,-0.030935071408748627,0.16181261837482452,-0.1420174539089203,-0.03978947550058365,0.027123352512717247,-0.10537433624267578,0.04635941982269287,-0.018641045317053795,0.043772969394922256,-0.03830895572900772,0.08003588020801544,0.006774215493351221,-0.045046959072351456,0.10652848333120346,0.020166538655757904,-0.02508954145014286,-0.026435019448399544,0.020512621849775314,0.046976488083601,0.015915388241410255,-0.02980063296854496,0.05491611361503601,0.17296265065670013,0.02399914339184761,0.144866481423378,0.031112078577280045,0.0472562313079834,0.0431552454829216,0.02491600438952446,-0.12781113386154175,-0.11667583137750626,-0.12489666044712067,0.10140775889158249,0.01634184643626213,0.008416854776442051,0.0677022710442543,-0.04787101969122887,-0.06744387745857239,0.10317011177539825,-0.024466497823596,-0.0587388314306736,-0.07265954464673996,0.17690688371658325,-0.028476614505052567,-0.005550272762775421,-0.038580380380153656,-0.07195907831192017,0.031841397285461426,-0.014982888475060463,0.214839905500412,-0.014913155697286129,-0.025882262736558914,0.13110780715942383,-0.1286994069814682,-0.08451978862285614,-0.007864149287343025,0.12955859303474426,0.06428175419569016,-0.0521191731095314,0.020440522581338882,-0.09863582253456116,-0.017471181228756905,-0.20182393491268158,0.12119986116886139,0.21943525969982147,0.0060399482026696205,-0.11752138286828995,0.02364705316722393,0.22880646586418152,-0.042380284518003464,-0.09995394945144653,-0.025668390095233917,0.1904713213443756,-0.16461607813835144,-0.0643688216805458,0.05701526254415512,0.02148243598639965,0.06742069125175476,-0.08461208641529083,-0.18283188343048096,-0.01271206233650446,0.04556546360254288,0.04701245576143265,0.0003322221164125949,0.029841965064406395,-0.018578078597784042,-0.04737178981304169,0.15672534704208374,0.023451870307326317,0.053339436650276184,0.06970960646867752,-0.04775881767272949,-0.13536567986011505,0.09596750140190125,-0.11985381692647934,-0.12996867299079895,-0.06437116116285324,0.06359536200761795,-0.10145632177591324,0.02542259357869625,-0.07727106660604477,-0.1064947247505188,0.04034704342484474,0.0712992325425148,-0.09594583511352539,-0.01817878521978855,0.06576410681009293,-0.02386253885924816,0.04211287200450897,-0.07945989072322845,-0.03125956282019615,0.029339710250496864,0.08777463436126709,0.15395620465278625,0.010652660392224789,0.01767604425549507,0.022735750302672386,-0.035539086908102036,0.07512381672859192,-0.006478666327893734,-0.07046233117580414,-0.05373639985918999,0.038013212382793427,0.02571326121687889,0.166574165225029,0.0691540315747261,-0.16990448534488678,0.15670286118984222,-0.1261107474565506,0.03536483272910118,-0.014026094228029251,0.028885677456855774,0.14444126188755035,0.014455484226346016,-0.06588650494813919,0.14482776820659637,-0.024871306493878365,-0.030699102208018303,0.006536962930113077,0.023969464004039764,0.19540539383888245,0.0014410146977752447,0.04288386553525925,-0.14275462925434113,0.015807902440428734,-0.09347563982009888,-0.025053465738892555,-0.1519768238067627,0.04165782406926155,-0.062038443982601166,0.10580889135599136,0.08977825939655304,0.05455690994858742,-0.05171765014529228,-0.04897306486964226,-0.1185745969414711,0.052723053842782974,0.016786769032478333,-0.0502316951751709,0.18337690830230713,0.04397822171449661,0.004134963266551495,-0.17428253591060638,0.1156274750828743,-0.038886379450559616,-0.08577792346477509,-0.05652152746915817,-0.06340179592370987,0.06759237498044968,-0.027132835239171982,0.03244413807988167,-0.023047227412462234,-0.06454294174909592,-0.07690282166004181,0.04380226135253906,-0.0008025810238905251,-0.08049006760120392,-0.15839214622974396,-0.13578392565250397,0.020575063303112984,0.013149172998964787,0.07485149800777435,-0.005963039584457874,-0.06797242164611816,-0.09544633328914642,-0.11164698749780655,-0.02467639185488224,0.12871785461902618,0.1443127989768982,0.09353883564472198,0.03630148246884346,0.1272301822900772,-0.07039463520050049,0.047847215086221695,-0.025875458493828773,-0.04518548771739006,-0.06060200184583664,0.020223967730998993,-0.2073269635438919,0.1004640981554985,-0.02924494445323944,0.11913302540779114,-0.035572733730077744,0.002757049398496747,0.21378429234027863,-0.008334307000041008,-0.08142298460006714,-0.1282130479812622,0.042143628001213074,-0.07413261383771896,0.001361990929581225,-0.16552487015724182,-0.17482072114944458,-0.011614019982516766,0.14913438260555267,0.024378713220357895,0.02523055113852024,-0.0035356185398995876,-0.157578244805336,-0.10506457835435867,0.08104453235864639,-0.08716308325529099,-0.039092935621738434,0.1289062350988388,0.18074283003807068,0.03686698153614998,-0.11711126565933228,0.10275819152593613,-0.028734862804412842,0.06581958383321762,-0.08655054867267609,-0.25125256180763245,0.04255830496549606,-0.09906857460737228,-0.014396943151950836,0.041324183344841,-0.01959964819252491,-0.02778487466275692,0.12892167270183563,-0.08867017924785614,-0.1752295196056366,-0.21233445405960083,0.03225933387875557,0.04999065399169922,0.02291773073375225,-0.020840011537075043,-0.043547749519348145,-0.020513415336608887,-0.014658762142062187,0.024855202063918114,0.013454633764922619,-0.028988556936383247,-0.132643461227417,-0.031084928661584854,-0.11877565830945969,0.08919104188680649,-0.0594889335334301,0.06778136640787125,-0.003175989957526326,-0.08019813895225525,0.072626993060112,-0.04675906524062157,0.09063287824392319,0.05457017943263054,0.05439094081521034,0.012837634421885014,-0.03592781350016594,-0.024708691984415054,0.019098641350865364,-0.039352547377347946,0.09164001047611237,-0.04635203257203102,0.05665266886353493,-0.019745223224163055,0.09123270213603973,0.038919154554605484,0.052669283002614975,-0.01700441911816597,-0.011805021204054356,0.08379420638084412,-0.06282743811607361,0.10113224387168884,0.047922924160957336,-0.07451076060533524,0.00014496114454232156,0.016574354842305183,0.004844978451728821,-0.0004305403563193977,-0.1271604597568512,-0.02818918786942959,0.0007316961418837309,-0.008873287588357925,-0.012562084011733532,-0.01812152937054634,-0.07557909190654755,0.07300945371389389,-0.04496625065803528,0.07568996399641037,0.0648941844701767,0.007581590209156275,0.07095136493444443,-0.03065277822315693,-0.05528370663523674,0.04056916758418083,-0.008558562025427818,0.006460174918174744,-0.01979111135005951,0.06215338036417961,0.12873566150665283,0.07146324962377548,-0.007389397826045752,-0.032653890550136566,-0.030448012053966522,0.011610345914959908,0.07504428178071976,-0.016040241345763206,-0.07235942780971527,0.053287554532289505,-0.249123677611351,-0.00048491524648852646,-0.02204250730574131,0.13121749460697174,-0.08103189617395401,0.0503893718123436,0.09096810221672058,0.022052813321352005,0.012418203055858612,0.017525089904665947,-0.0059550246223807335,-0.05712036415934563,-0.029666820541024208,-0.08811262995004654,0.009348341263830662,0.07171282172203064,0.04300027713179588,-0.039306361228227615,0.013354113325476646,-0.061426371335983276,0.0008477787487208843,-0.07613270729780197,0.09761511534452438,0.02189464122056961,0.04276404529809952,0.10667320340871811,0.09260832518339157,-0.002490130253136158,0.07425608485937119,0.049677468836307526,-0.06519663333892822,-0.002610914409160614,0.007955464534461498,0.04467839375138283,-0.051627278327941895,-0.032014399766922,-0.030633430927991867,-0.0514705665409565,0.04060401767492294,0.013982516713440418,0.0009636612958274782,0.05470871925354004,-0.10806451737880707,-0.007617576979100704,0.00844383705407381,-0.010194139555096626,0.059661660343408585,0.057540327310562134,0.04431011155247688,-0.005227321293205023,0.10823792219161987,0.01746654137969017,-0.012629592791199684,0.07650808990001678,0.0700872391462326,-0.068802110850811,0.049854375422000885,-0.05436660721898079,0.007403395138680935,0.0726233497262001,0.021631581708788872,0.060147516429424286,-0.05293676257133484,0.02998063713312149,-0.26006466150283813,0.1642698496580124,0.00896822102367878,-0.01444380171597004,0.01860128901898861,0.07429692149162292,0.045011308044195175,-0.002332292962819338,-0.14151610434055328,-0.05632607266306877,0.0443153940141201,-0.09090402722358704,-0.0965864434838295,0.015514490194618702,0.01328197680413723,0.10406452417373657,-0.021934395655989647,-0.06120080500841141,0.07509829849004745,0.05312986299395561,0.09044315665960312,0.0522061251103878,0.1230134442448616,0.037665754556655884,0.026997409760951996,0.10338596254587173,-0.10373774915933609,-0.023350056260824203,-0.029078202322125435,-0.040568795055150986,-0.09653840959072113,-0.008993539027869701,-0.1315150111913681,-0.07494771480560303,-0.0013921174686402082,0.0011600529542192817,-0.1354292333126068,-0.15010583400726318,-0.05674881115555763,-0.017027579247951508,-0.047646280378103256,0.08167010545730591,0.06593659520149231,-0.05945331230759621,0.07922538369894028,0.010973654687404633,0.014446892775595188,-0.11562862247228622,0.0449562594294548,0.031154831871390343,0.15651661157608032,-0.09407173097133636,-0.09179403632879257,0.09378097206354141,0.07301382720470428,0.09256311506032944,0.08840173482894897,0.032131802290678024,-0.07376275211572647,-0.14072978496551514,-0.024682560935616493,0.11554958671331406,0.24210548400878906,0.011413541622459888,-0.0077476161532104015,0.09613963961601257,-0.033185768872499466,-0.08768834173679352,0.026872867718338966,0.04269678518176079,0.035666871815919876,0.09372585266828537,-0.11550261825323105,0.049670055508613586,-0.10634686052799225,0.07784534990787506,-0.10599415749311447,-0.020679878070950508,0.21917575597763062,-0.06058137118816376,-0.039842456579208374,-0.0709763914346695,0.04846571013331413,-0.11464222520589828,-0.12391447275876999,-0.11866708099842072,-0.21130125224590302,-0.07994251698255539,0.14871536195278168,0.08328452706336975,0.06012006103992462,0.02235358953475952,-0.114448182284832,-0.15589533746242523,-0.012462327256798744,-0.053210970014333725,-0.07219124585390091,0.18298999965190887,0.15648476779460907,-0.04573440924286842,-0.07731011509895325,0.14794400334358215,-0.012655179016292095,0.07468850165605545,-0.08776887506246567,-0.1889321208000183,0.09318380802869797,-0.06476221978664398,-0.06736553460359573,0.0007576310308650136,-0.09109437465667725,-0.02502426877617836,0.08964503556489944,-0.09448707848787308,-0.015714550390839577,-0.12684184312820435,-0.08489882200956345,-0.054064031690359116,0.01856948249042034,0.03035755269229412,-0.008541450835764408,-0.1269140988588333,-0.041167985647916794,-0.004977341741323471,0.12377186119556427,0.04768317937850952,0.06001835688948631,0.05930749699473381,-0.03135550022125244,-0.05333000794053078,0.11225595325231552,0.11358623951673508,-0.102320097386837,-0.0474083237349987,-0.08161822706460953,0.04917142540216446,0.05952411890029907,-0.05966534465551376,-0.003352566622197628,-0.01597234234213829,0.1371675431728363,0.07631944119930267,-0.09999130666255951,0.08546386659145355,-0.1190853863954544,0.0170302577316761,-0.055852487683296204,0.07087379693984985,0.05228784680366516,-0.09470384567975998,-0.021792933344841003,0.06623157113790512,0.18891271948814392,0.09215047210454941,0.09485127776861191,0.002135417889803648,-0.11166344583034515,0.16046510636806488,-0.1415235549211502,-0.13211630284786224,-0.035780441015958786,-0.07647694647312164,0.07504723221063614,0.005521345883607864,0.059305302798748016,0.16801495850086212,-0.04901641607284546,-0.03733574599027634,0.07865280658006668,-0.014929248951375484,0.14819924533367157,-0.1414678394794464,0.08132702112197876,-0.043075934052467346,0.06592877954244614,-0.05875348672270775,0.006620998028665781,0.03267727047204971,-0.006910244468599558,0.060549091547727585,-0.08047141879796982,0.034289419651031494,0.08247938007116318,0.012748369947075844,-0.020452449098229408,0.029467619955539703,-0.00634011859074235,-0.07500985264778137,-0.04031258821487427,0.03325630724430084,-0.09478116780519485,0.0035797981545329094,-0.1055847704410553,-0.03545643389225006,-0.04826179891824722,-0.03874267265200615,0.03666991367936134,0.025302128866314888,0.029774243012070656,0.05878407135605812,0.09240129590034485,-0.002299813786521554,-0.10219575464725494,0.08179726451635361,-0.01935911551117897,0.0588366873562336,0.11458177864551544,-0.013055313378572464,0.07199102640151978,-0.06743563711643219,-0.02536069042980671,-0.06671219319105148,0.04045778885483742,-0.007370873354375362,-0.006381706800311804,-0.014683340676128864,-0.09987333416938782,-0.033021267503499985,0.013124104589223862,-0.02578597329556942,-0.034254707396030426,0.06739182025194168,0.015648484230041504,0.03233535215258598,0.06469298154115677,-0.06380273401737213,0.00445060757920146,-0.04013534262776375,0.061323460191488266,-0.0066026984713971615,-0.0027488071937114,0.021265147253870964,0.014628495089709759,0.026889249682426453,0.02645268663764,0.07173801213502884,0.000679334276355803,-0.01889367774128914,0.031883228570222855,0.040514376014471054,-0.01597687602043152,-0.049250971525907516,0.009850802831351757,-0.027029726654291153,0.07831695675849915,0.04050604626536369,0.02833343669772148,-0.025989918038249016,0.05174402892589569,-0.041439346969127655,-0.0586901530623436,-0.06514415144920349,0.05772789940237999,-0.019141322001814842,0.14445900917053223,0.02614734135568142,0.10218235850334167,0.11400879174470901,-0.0778660774230957,-0.00954360794275999,-0.07112260162830353,0.03930379077792168,0.07719548046588898,-0.0008645723573863506,-0.07217742502689362,0.18041442334651947,-0.006977825425565243,-0.009419076144695282,-0.20905350148677826,-0.02948416955769062,0.11778128147125244,